<?xml version="1.0"?>
<opencv_storage>
<cascade>
  <stageType>BOOST</stageType>
  <featureType>HAAR</featureType>
  <height>30</height>
  <width>30</width>
  <stageParams>
    <boostType>GAB</boostType>
    <minHitRate>9.9500000476837158e-01</minHitRate>
    <maxFalseAlarm>5.0000000000000000e-01</maxFalseAlarm>
    <weightTrimRate>9.4999999999999996e-01</weightTrimRate>
    <maxDepth>1</maxDepth>
    <maxWeakCount>100</maxWeakCount></stageParams>
  <featureParams>
    <maxCatCount>0</maxCatCount>
    <featSize>1</featSize>
    <mode>BASIC</mode></featureParams>
  <stageNum>3</stageNum>
  <stages>
    <!-- stage 0 -->
    <_>
      <maxWeakCount>64</maxWeakCount>
      <stageThreshold>-6.5988630056381226e-01</stageThreshold>
      <weakClassifiers>
        <_>
          <internalNodes>
            0 -1 135 -1.3109027640894055e-03</internalNodes>
          <leafValues>
            5.4907977581024170e-01 1.3180515170097351e-01</leafValues></_>
        <_>
          <internalNodes>
            0 -1 130 -6.7855452653020620e-04</internalNodes>
          <leafValues>
            3.1375372409820557e-01 -1.1129039525985718e-01</leafValues></_>
        <_>
          <internalNodes>
            0 -1 127 -3.3020987175405025e-03</internalNodes>
          <leafValues>
            2.2283165156841278e-01 -1.3829024136066437e-01</leafValues></_>
        <_>
          <internalNodes>
            0 -1 11 -4.1961185634136200e-02</internalNodes>
          <leafValues>
            7.4227088689804077e-01 -6.5403014421463013e-02</leafValues></_>
        <_>
          <internalNodes>
            0 -1 139 -1.4517190866172314e-03</internalNodes>
          <leafValues>
            2.3448845744132996e-01 -1.1529300361871719e-01</leafValues></_>
        <_>
          <internalNodes>
            0 -1 136 -5.3165329154580832e-04</internalNodes>
          <leafValues>
            2.1491454541683197e-01 -1.1450450122356415e-01</leafValues></_>
        <_>
          <internalNodes>
            0 -1 45 -1.2005415745079517e-02</internalNodes>
          <leafValues>
            -2.0513246953487396e-01 1.2267681211233139e-01</leafValues></_>
        <_>
          <internalNodes>
            0 -1 28 3.5016816109418869e-03</internalNodes>
          <leafValues>
            -9.4122208654880524e-02 2.7544978260993958e-01</leafValues></_>
        <_>
          <internalNodes>
            0 -1 23 8.6250770837068558e-03</internalNodes>
          <leafValues>
            -2.5261055678129196e-02 8.2203441858291626e-01</leafValues></_>
        <_>
          <internalNodes>
            0 -1 206 -2.7892272919416428e-03</internalNodes>
          <leafValues>
            -7.9313564300537109e-01 3.6257617175579071e-02</leafValues></_>
        <_>
          <internalNodes>
            0 -1 38 -5.5270604789257050e-03</internalNodes>
          <leafValues>
            3.4598481655120850e-01 -6.8651340901851654e-02</leafValues></_>
        <_>
          <internalNodes>
            0 -1 131 7.3520792648196220e-04</internalNodes>
          <leafValues>
            -9.3346752226352692e-02 2.3443877696990967e-01</leafValues></_>
        <_>
          <internalNodes>
            0 -1 163 -1.5572016127407551e-03</internalNodes>
          <leafValues>
            -7.1249282360076904e-01 3.4300696104764938e-02</leafValues></_>
        <_>
          <internalNodes>
            0 -1 111 2.4634675355628133e-04</internalNodes>
          <leafValues>
            -1.0415315628051758e-01 2.1554116904735565e-01</leafValues></_>
        <_>
          <internalNodes>
            0 -1 177 -7.0346118882298470e-03</internalNodes>
          <leafValues>
            -4.7094222903251648e-01 5.2519794553518295e-02</leafValues></_>
        <_>
          <internalNodes>
            0 -1 163 1.3488132972270250e-03</internalNodes>
          <leafValues>
            3.9339676499366760e-02 -5.7119750976562500e-01</leafValues></_>
        <_>
          <internalNodes>
            0 -1 18 -2.1584536880254745e-02</internalNodes>
          <leafValues>
            6.1060482263565063e-01 -4.1357152163982391e-02</leafValues></_>
        <_>
          <internalNodes>
            0 -1 180 -4.9430853687226772e-03</internalNodes>
          <leafValues>
            3.4512916207313538e-01 -5.8990597724914551e-02</leafValues></_>
        <_>
          <internalNodes>
            0 -1 160 -8.5204364731907845e-03</internalNodes>
          <leafValues>
            2.7671906352043152e-01 -8.4939867258071899e-02</leafValues></_>
        <_>
          <internalNodes>
            0 -1 60 -2.9813558794558048e-03</internalNodes>
          <leafValues>
            1.8645608425140381e-01 -1.2768912315368652e-01</leafValues></_>
        <_>
          <internalNodes>
            0 -1 69 -2.1481057628989220e-03</internalNodes>
          <leafValues>
            -8.4389942884445190e-01 2.6051975786685944e-02</leafValues></_>
        <_>
          <internalNodes>
            0 -1 32 9.1358840465545654e-02</internalNodes>
          <leafValues>
            -3.3203553408384323e-02 8.0058813095092773e-01</leafValues></_>
        <_>
          <internalNodes>
            0 -1 113 3.2310343813151121e-03</internalNodes>
          <leafValues>
            -5.3984515368938446e-02 3.4585669636726379e-01</leafValues></_>
        <_>
          <internalNodes>
            0 -1 119 -7.1707175811752677e-04</internalNodes>
          <leafValues>
            2.4005687236785889e-01 -1.0637674480676651e-01</leafValues></_>
        <_>
          <internalNodes>
            0 -1 84 5.2921352908015251e-03</internalNodes>
          <leafValues>
            -1.3742816448211670e-01 2.0890487730503082e-01</leafValues></_>
        <_>
          <internalNodes>
            0 -1 162 1.6992677003145218e-02</internalNodes>
          <leafValues>
            3.2760031521320343e-02 -7.6530241966247559e-01</leafValues></_>
        <_>
          <internalNodes>
            0 -1 167 -1.3870687689632177e-03</internalNodes>
          <leafValues>
            -5.3490060567855835e-01 3.8191802799701691e-02</leafValues></_>
        <_>
          <internalNodes>
            0 -1 67 -2.2442992776632309e-03</internalNodes>
          <leafValues>
            -5.0511145591735840e-01 4.2476236820220947e-02</leafValues></_>
        <_>
          <internalNodes>
            0 -1 171 -4.5705947559326887e-04</internalNodes>
          <leafValues>
            2.9751589894294739e-01 -8.1713199615478516e-02</leafValues></_>
        <_>
          <internalNodes>
            0 -1 13 -8.5515342652797699e-03</internalNodes>
          <leafValues>
            2.2282217442989349e-01 -1.0452152788639069e-01</leafValues></_>
        <_>
          <internalNodes>
            0 -1 24 3.5280521959066391e-02</internalNodes>
          <leafValues>
            -6.7222923040390015e-02 3.2948070764541626e-01</leafValues></_>
        <_>
          <internalNodes>
            0 -1 129 2.4776458740234375e-03</internalNodes>
          <leafValues>
            3.5605438053607941e-02 -6.5374553203582764e-01</leafValues></_>
        <_>
          <internalNodes>
            0 -1 108 -7.2232249658554792e-04</internalNodes>
          <leafValues>
            1.6068646311759949e-01 -1.2175616621971130e-01</leafValues></_>
        <_>
          <internalNodes>
            0 -1 56 1.7268676310777664e-02</internalNodes>
          <leafValues>
            4.8702858388423920e-02 -4.7540682554244995e-01</leafValues></_>
        <_>
          <internalNodes>
            0 -1 188 3.5805967636406422e-03</internalNodes>
          <leafValues>
            3.8303960114717484e-02 -5.4209458827972412e-01</leafValues></_>
        <_>
          <internalNodes>
            0 -1 169 -9.5101408660411835e-03</internalNodes>
          <leafValues>
            3.4378758072853088e-01 -6.2909945845603943e-02</leafValues></_>
        <_>
          <internalNodes>
            0 -1 7 -1.6860130708664656e-03</internalNodes>
          <leafValues>
            -3.1735426187515259e-01 5.9356808662414551e-02</leafValues></_>
        <_>
          <internalNodes>
            0 -1 98 2.7598263113759458e-04</internalNodes>
          <leafValues>
            -1.1304535716772079e-01 1.6557335853576660e-01</leafValues></_>
        <_>
          <internalNodes>
            0 -1 94 -5.3731666412204504e-04</internalNodes>
          <leafValues>
            1.6696655750274658e-01 -1.2397415190935135e-01</leafValues></_>
        <_>
          <internalNodes>
            0 -1 141 1.2849732302129269e-03</internalNodes>
          <leafValues>
            3.3278480172157288e-02 -5.6095349788665771e-01</leafValues></_>
        <_>
          <internalNodes>
            0 -1 181 -4.3461950554046780e-05</internalNodes>
          <leafValues>
            1.2642017006874084e-01 -1.3705010712146759e-01</leafValues></_>
        <_>
          <internalNodes>
            0 -1 44 -1.2145731598138809e-02</internalNodes>
          <leafValues>
            3.2213193178176880e-01 -5.1223527640104294e-02</leafValues></_>
        <_>
          <internalNodes>
            0 -1 199 2.8106432408094406e-02</internalNodes>
          <leafValues>
            -3.2977666705846786e-02 5.0718653202056885e-01</leafValues></_>
        <_>
          <internalNodes>
            0 -1 186 -1.1668981460388750e-04</internalNodes>
          <leafValues>
            -1.6317579150199890e-01 1.0855364054441452e-01</leafValues></_>
        <_>
          <internalNodes>
            0 -1 144 -2.9419399797916412e-03</internalNodes>
          <leafValues>
            2.2798512876033783e-01 -8.4406733512878418e-02</leafValues></_>
        <_>
          <internalNodes>
            0 -1 192 -1.7978720366954803e-02</internalNodes>
          <leafValues>
            6.5679776668548584e-01 -2.6622550562024117e-02</leafValues></_>
        <_>
          <internalNodes>
            0 -1 16 9.5270216464996338e-02</internalNodes>
          <leafValues>
            -6.8058714270591736e-02 2.6141119003295898e-01</leafValues></_>
        <_>
          <internalNodes>
            0 -1 88 7.1423477493226528e-05</internalNodes>
          <leafValues>
            -9.7695723176002502e-02 1.9875192642211914e-01</leafValues></_>
        <_>
          <internalNodes>
            0 -1 168 9.0968632139265537e-04</internalNodes>
          <leafValues>
            5.9657998383045197e-02 -3.3651530742645264e-01</leafValues></_>
        <_>
          <internalNodes>
            0 -1 50 7.0755113847553730e-04</internalNodes>
          <leafValues>
            -1.0142049938440323e-01 1.9744202494621277e-01</leafValues></_>
        <_>
          <internalNodes>
            0 -1 203 5.8450205251574516e-03</internalNodes>
          <leafValues>
            -4.4833213090896606e-02 4.2517521977424622e-01</leafValues></_>
        <_>
          <internalNodes>
            0 -1 211 1.5313813928514719e-03</internalNodes>
          <leafValues>
            2.7948884293437004e-02 -6.8827706575393677e-01</leafValues></_>
        <_>
          <internalNodes>
            0 -1 91 4.1075819171965122e-03</internalNodes>
          <leafValues>
            -8.5953086614608765e-02 2.1545368432998657e-01</leafValues></_>
        <_>
          <internalNodes>
            0 -1 96 -2.7792161563411355e-04</internalNodes>
          <leafValues>
            2.0482386648654938e-01 -1.1868840456008911e-01</leafValues></_>
        <_>
          <internalNodes>
            0 -1 66 2.6679313741624355e-03</internalNodes>
          <leafValues>
            7.2880074381828308e-02 -2.6118138432502747e-01</leafValues></_>
        <_>
          <internalNodes>
            0 -1 172 -4.2366227135062218e-03</internalNodes>
          <leafValues>
            6.3050466775894165e-01 -3.1579218804836273e-02</leafValues></_>
        <_>
          <internalNodes>
            0 -1 185 7.6868664473295212e-04</internalNodes>
          <leafValues>
            1.0813108831644058e-01 -1.8108761310577393e-01</leafValues></_>
        <_>
          <internalNodes>
            0 -1 175 8.8926255702972412e-03</internalNodes>
          <leafValues>
            -2.5108108296990395e-02 8.5744786262512207e-01</leafValues></_>
        <_>
          <internalNodes>
            0 -1 92 2.4032879446167499e-04</internalNodes>
          <leafValues>
            -9.5749303698539734e-02 1.9427791237831116e-01</leafValues></_>
        <_>
          <internalNodes>
            0 -1 103 -1.2920791283249855e-02</internalNodes>
          <leafValues>
            -5.8588439226150513e-01 3.6982960999011993e-02</leafValues></_>
        <_>
          <internalNodes>
            0 -1 152 -1.1891263420693576e-04</internalNodes>
          <leafValues>
            1.7624123394489288e-01 -1.1045669764280319e-01</leafValues></_>
        <_>
          <internalNodes>
            0 -1 97 1.3107127510011196e-02</internalNodes>
          <leafValues>
            -1.0186911374330521e-01 2.2061203420162201e-01</leafValues></_>
        <_>
          <internalNodes>
            0 -1 57 1.1910643428564072e-02</internalNodes>
          <leafValues>
            5.1736053079366684e-02 -4.4872251152992249e-01</leafValues></_>
        <_>
          <internalNodes>
            0 -1 6 1.4297448797151446e-03</internalNodes>
          <leafValues>
            3.6603875458240509e-02 -5.3786367177963257e-01</leafValues></_></weakClassifiers></_>
    <!-- stage 1 -->
    <_>
      <maxWeakCount>79</maxWeakCount>
      <stageThreshold>-5.3621172904968262e-01</stageThreshold>
      <weakClassifiers>
        <_>
          <internalNodes>
            0 -1 65 2.4591619148850441e-03</internalNodes>
          <leafValues>
            1.4938488602638245e-01 4.6734955906867981e-01</leafValues></_>
        <_>
          <internalNodes>
            0 -1 168 -9.5178221818059683e-04</internalNodes>
          <leafValues>
            -3.4614673256874084e-01 8.9569501578807831e-02</leafValues></_>
        <_>
          <internalNodes>
            0 -1 157 -9.8351761698722839e-04</internalNodes>
          <leafValues>
            -3.3915093541145325e-01 6.5559424459934235e-02</leafValues></_>
        <_>
          <internalNodes>
            0 -1 156 5.2815489470958710e-03</internalNodes>
          <leafValues>
            4.9812506884336472e-02 -4.2495515942573547e-01</leafValues></_>
        <_>
          <internalNodes>
            0 -1 168 1.8771608592942357e-03</internalNodes>
          <leafValues>
            3.4797597676515579e-02 -5.4625165462493896e-01</leafValues></_>
        <_>
          <internalNodes>
            0 -1 107 1.1076009832322598e-03</internalNodes>
          <leafValues>
            -1.0143457353115082e-01 1.8398904800415039e-01</leafValues></_>
        <_>
          <internalNodes>
            0 -1 190 1.2125710491091013e-03</internalNodes>
          <leafValues>
            5.1913704723119736e-02 -3.5216531157493591e-01</leafValues></_>
        <_>
          <internalNodes>
            0 -1 148 -2.2517223260365427e-04</internalNodes>
          <leafValues>
            1.5506930649280548e-01 -1.2067904323339462e-01</leafValues></_>
        <_>
          <internalNodes>
            0 -1 8 -8.3730928599834442e-03</internalNodes>
          <leafValues>
            1.3480545580387115e-01 -1.4222805202007294e-01</leafValues></_>
        <_>
          <internalNodes>
            0 -1 30 -1.5871919691562653e-02</internalNodes>
          <leafValues>
            2.4099023640155792e-01 -8.8870190083980560e-02</leafValues></_>
        <_>
          <internalNodes>
            0 -1 54 -1.1981521733105183e-02</internalNodes>
          <leafValues>
            4.4011026620864868e-01 -3.6075476557016373e-02</leafValues></_>
        <_>
          <internalNodes>
            0 -1 182 2.1498077549040318e-03</internalNodes>
          <leafValues>
            2.7631511911749840e-02 -5.5313241481781006e-01</leafValues></_>
        <_>
          <internalNodes>
            0 -1 153 1.2991442345082760e-03</internalNodes>
          <leafValues>
            3.4491527825593948e-02 -4.8873859643936157e-01</leafValues></_>
        <_>
          <internalNodes>
            0 -1 155 -2.2390170488506556e-03</internalNodes>
          <leafValues>
            -5.2399319410324097e-01 3.0441891402006149e-02</leafValues></_>
        <_>
          <internalNodes>
            0 -1 109 -1.0410435497760773e-03</internalNodes>
          <leafValues>
            1.9914893805980682e-01 -8.4329590201377869e-02</leafValues></_>
        <_>
          <internalNodes>
            0 -1 61 -2.5477162562310696e-03</internalNodes>
          <leafValues>
            1.7486654222011566e-01 -1.1397849768400192e-01</leafValues></_>
        <_>
          <internalNodes>
            0 -1 71 1.7550296615809202e-04</internalNodes>
          <leafValues>
            -1.2178502231836319e-01 1.4364400506019592e-01</leafValues></_>
        <_>
          <internalNodes>
            0 -1 216 6.3996281824074686e-05</internalNodes>
          <leafValues>
            1.2729519605636597e-01 -1.3609762489795685e-01</leafValues></_>
        <_>
          <internalNodes>
            0 -1 128 -2.9847933910787106e-03</internalNodes>
          <leafValues>
            -7.2650748491287231e-01 2.7608474716544151e-02</leafValues></_>
        <_>
          <internalNodes>
            0 -1 161 -3.2995449146255851e-04</internalNodes>
          <leafValues>
            1.6627350449562073e-01 -1.1308984458446503e-01</leafValues></_>
        <_>
          <internalNodes>
            0 -1 143 2.2675329819321632e-03</internalNodes>
          <leafValues>
            3.2101359218358994e-02 -5.1473361253738403e-01</leafValues></_>
        <_>
          <internalNodes>
            0 -1 12 -1.4657869935035706e-02</internalNodes>
          <leafValues>
            6.0205733776092529e-01 -2.9057491570711136e-02</leafValues></_>
        <_>
          <internalNodes>
            0 -1 102 1.7042356193996966e-04</internalNodes>
          <leafValues>
            -1.3186255097389221e-01 1.2555541098117828e-01</leafValues></_>
        <_>
          <internalNodes>
            0 -1 212 1.8766293069347739e-03</internalNodes>
          <leafValues>
            3.8434196263551712e-02 -4.4951432943344116e-01</leafValues></_>
        <_>
          <internalNodes>
            0 -1 63 -2.6622824370861053e-03</internalNodes>
          <leafValues>
            -6.2125337123870850e-01 2.4580312892794609e-02</leafValues></_>
        <_>
          <internalNodes>
            0 -1 151 -1.8687238916754723e-03</internalNodes>
          <leafValues>
            2.2959639132022858e-01 -7.1256041526794434e-02</leafValues></_>
        <_>
          <internalNodes>
            0 -1 85 -4.4682393781840801e-03</internalNodes>
          <leafValues>
            2.5640013813972473e-01 -7.8003235161304474e-02</leafValues></_>
        <_>
          <internalNodes>
            0 -1 215 1.1136000975966454e-03</internalNodes>
          <leafValues>
            3.7260904908180237e-02 -4.6817970275878906e-01</leafValues></_>
        <_>
          <internalNodes>
            0 -1 101 -4.7220746055245399e-03</internalNodes>
          <leafValues>
            -4.3223479390144348e-01 3.9060458540916443e-02</leafValues></_>
        <_>
          <internalNodes>
            0 -1 198 -1.8461167812347412e-02</internalNodes>
          <leafValues>
            6.8986755609512329e-01 -2.5342103093862534e-02</leafValues></_>
        <_>
          <internalNodes>
            0 -1 145 -1.9387806532904506e-03</internalNodes>
          <leafValues>
            -4.4310420751571655e-01 4.3104883283376694e-02</leafValues></_>
        <_>
          <internalNodes>
            0 -1 39 2.3774839937686920e-02</internalNodes>
          <leafValues>
            -3.4305803477764130e-02 5.2724003791809082e-01</leafValues></_>
        <_>
          <internalNodes>
            0 -1 158 -1.8037368135992438e-04</internalNodes>
          <leafValues>
            -2.0375214517116547e-01 7.8189134597778320e-02</leafValues></_>
        <_>
          <internalNodes>
            0 -1 140 -3.7127375253476202e-04</internalNodes>
          <leafValues>
            2.1373711526393890e-01 -7.6062723994255066e-02</leafValues></_>
        <_>
          <internalNodes>
            0 -1 142 9.6277380362153053e-04</internalNodes>
          <leafValues>
            -8.2692205905914307e-02 2.4449735879898071e-01</leafValues></_>
        <_>
          <internalNodes>
            0 -1 49 6.8872291594743729e-03</internalNodes>
          <leafValues>
            -7.6101899147033691e-02 2.0436522364616394e-01</leafValues></_>
        <_>
          <internalNodes>
            0 -1 53 1.3192360056564212e-03</internalNodes>
          <leafValues>
            -9.6795864403247833e-02 1.7072169482707977e-01</leafValues></_>
        <_>
          <internalNodes>
            0 -1 77 -1.6161748208105564e-03</internalNodes>
          <leafValues>
            -5.6652241945266724e-01 2.3922888562083244e-02</leafValues></_>
        <_>
          <internalNodes>
            0 -1 138 2.7681675273925066e-03</internalNodes>
          <leafValues>
            2.6637604460120201e-02 -5.2313381433486938e-01</leafValues></_>
        <_>
          <internalNodes>
            0 -1 170 -2.6124406605958939e-02</internalNodes>
          <leafValues>
            6.5353941917419434e-01 -2.4122472852468491e-02</leafValues></_>
        <_>
          <internalNodes>
            0 -1 89 -4.0492519736289978e-02</internalNodes>
          <leafValues>
            -3.8052117824554443e-01 4.6521261334419250e-02</leafValues></_>
        <_>
          <internalNodes>
            0 -1 104 -1.9483458250761032e-02</internalNodes>
          <leafValues>
            2.4377158284187317e-01 -6.6086739301681519e-02</leafValues></_>
        <_>
          <internalNodes>
            0 -1 48 -2.1235890686511993e-02</internalNodes>
          <leafValues>
            4.8923978209495544e-01 -3.2750580459833145e-02</leafValues></_>
        <_>
          <internalNodes>
            0 -1 35 1.0496720205992460e-03</internalNodes>
          <leafValues>
            4.0382310748100281e-02 -4.1446471214294434e-01</leafValues></_>
        <_>
          <internalNodes>
            0 -1 183 1.8328325822949409e-03</internalNodes>
          <leafValues>
            -5.1993973553180695e-02 2.9600349068641663e-01</leafValues></_>
        <_>
          <internalNodes>
            0 -1 133 3.9186626672744751e-03</internalNodes>
          <leafValues>
            1.9531656056642532e-02 -9.3811327219009399e-01</leafValues></_>
        <_>
          <internalNodes>
            0 -1 117 -1.6078616026788950e-03</internalNodes>
          <leafValues>
            -4.7618764638900757e-01 2.7286447584629059e-02</leafValues></_>
        <_>
          <internalNodes>
            0 -1 120 -6.4493920654058456e-03</internalNodes>
          <leafValues>
            -3.3072164654731750e-01 4.4651731848716736e-02</leafValues></_>
        <_>
          <internalNodes>
            0 -1 173 -9.6665266901254654e-03</internalNodes>
          <leafValues>
            7.0356881618499756e-01 -2.1926635876297951e-02</leafValues></_>
        <_>
          <internalNodes>
            0 -1 75 7.2286240756511688e-03</internalNodes>
          <leafValues>
            4.1292168200016022e-02 -4.2643108963966370e-01</leafValues></_>
        <_>
          <internalNodes>
            0 -1 25 3.8214274682104588e-03</internalNodes>
          <leafValues>
            -4.3682709336280823e-02 3.8347175717353821e-01</leafValues></_>
        <_>
          <internalNodes>
            0 -1 73 -4.8711448907852173e-03</internalNodes>
          <leafValues>
            -2.5170952081680298e-01 6.1114147305488586e-02</leafValues></_>
        <_>
          <internalNodes>
            0 -1 204 -6.6727242665365338e-04</internalNodes>
          <leafValues>
            -1.6207593679428101e-01 9.2431642115116119e-02</leafValues></_>
        <_>
          <internalNodes>
            0 -1 95 1.4859801158308983e-03</internalNodes>
          <leafValues>
            -6.7220248281955719e-02 2.1982420980930328e-01</leafValues></_>
        <_>
          <internalNodes>
            0 -1 150 3.8471347652375698e-03</internalNodes>
          <leafValues>
            1.9308472052216530e-02 -8.1762969493865967e-01</leafValues></_>
        <_>
          <internalNodes>
            0 -1 22 1.1596260592341423e-02</internalNodes>
          <leafValues>
            -3.8600962609052658e-02 4.4735151529312134e-01</leafValues></_>
        <_>
          <internalNodes>
            0 -1 10 -1.8124411581084132e-03</internalNodes>
          <leafValues>
            2.0885707437992096e-01 -6.5459176898002625e-02</leafValues></_>
        <_>
          <internalNodes>
            0 -1 46 -5.8202458603773266e-05</internalNodes>
          <leafValues>
            1.3286368548870087e-01 -1.0876204073429108e-01</leafValues></_>
        <_>
          <internalNodes>
            0 -1 132 2.7976403944194317e-03</internalNodes>
          <leafValues>
            1.7493050545454025e-02 -7.3983001708984375e-01</leafValues></_>
        <_>
          <internalNodes>
            0 -1 214 -2.9463872779160738e-03</internalNodes>
          <leafValues>
            -7.2436487674713135e-01 1.7670279368758202e-02</leafValues></_>
        <_>
          <internalNodes>
            0 -1 197 -1.1465469375252724e-02</internalNodes>
          <leafValues>
            6.6496312618255615e-01 -2.6856157928705215e-02</leafValues></_>
        <_>
          <internalNodes>
            0 -1 80 -1.2299588415771723e-03</internalNodes>
          <leafValues>
            -5.2546501159667969e-01 3.7522282451391220e-02</leafValues></_>
        <_>
          <internalNodes>
            0 -1 19 -2.5718233082443476e-03</internalNodes>
          <leafValues>
            3.9214906096458435e-01 -4.3058544397354126e-02</leafValues></_>
        <_>
          <internalNodes>
            0 -1 106 8.4177101962268353e-04</internalNodes>
          <leafValues>
            -9.0282842516899109e-02 1.7078348994255066e-01</leafValues></_>
        <_>
          <internalNodes>
            0 -1 70 9.5807213801890612e-04</internalNodes>
          <leafValues>
            3.5940486937761307e-02 -4.7751784324645996e-01</leafValues></_>
        <_>
          <internalNodes>
            0 -1 105 2.3643538588657975e-04</internalNodes>
          <leafValues>
            -1.0072147101163864e-01 1.6937658190727234e-01</leafValues></_>
        <_>
          <internalNodes>
            0 -1 105 -6.9710786920040846e-04</internalNodes>
          <leafValues>
            2.4284660816192627e-01 -7.2740979492664337e-02</leafValues></_>
        <_>
          <internalNodes>
            0 -1 189 1.6331693623214960e-03</internalNodes>
          <leafValues>
            2.7593677863478661e-02 -6.4431589841842651e-01</leafValues></_>
        <_>
          <internalNodes>
            0 -1 207 2.6061758399009705e-03</internalNodes>
          <leafValues>
            5.6037355214357376e-02 -2.7816602587699890e-01</leafValues></_>
        <_>
          <internalNodes>
            0 -1 118 -1.2945586349815130e-03</internalNodes>
          <leafValues>
            2.3714759945869446e-01 -6.7581124603748322e-02</leafValues></_>
        <_>
          <internalNodes>
            0 -1 110 -1.5069831162691116e-02</internalNodes>
          <leafValues>
            -6.5857040882110596e-01 2.9474178329110146e-02</leafValues></_>
        <_>
          <internalNodes>
            0 -1 124 3.2051098532974720e-03</internalNodes>
          <leafValues>
            -1.0940863937139511e-01 1.7267930507659912e-01</leafValues></_>
        <_>
          <internalNodes>
            0 -1 3 1.1486235260963440e-01</internalNodes>
          <leafValues>
            -7.3555670678615570e-02 2.1692724525928497e-01</leafValues></_>
        <_>
          <internalNodes>
            0 -1 115 9.0398394968360662e-04</internalNodes>
          <leafValues>
            6.6286370158195496e-02 -2.4528196454048157e-01</leafValues></_>
        <_>
          <internalNodes>
            0 -1 100 1.7978141549974680e-03</internalNodes>
          <leafValues>
            -6.0771983116865158e-02 2.7816852927207947e-01</leafValues></_>
        <_>
          <internalNodes>
            0 -1 34 5.8740563690662384e-04</internalNodes>
          <leafValues>
            7.4378639459609985e-02 -2.3815824091434479e-01</leafValues></_>
        <_>
          <internalNodes>
            0 -1 87 -1.7581114079803228e-03</internalNodes>
          <leafValues>
            3.9254140853881836e-01 -4.5995786786079407e-02</leafValues></_>
        <_>
          <internalNodes>
            0 -1 42 3.1716614030301571e-03</internalNodes>
          <leafValues>
            2.0713476464152336e-02 -8.8329237699508667e-01</leafValues></_>
        <_>
          <internalNodes>
            0 -1 209 -2.0970363169908524e-02</internalNodes>
          <leafValues>
            2.8429469466209412e-01 -5.9612389653921127e-02</leafValues></_></weakClassifiers></_>
    <!-- stage 2 -->
    <_>
      <maxWeakCount>81</maxWeakCount>
      <stageThreshold>-4.9850064516067505e-01</stageThreshold>
      <weakClassifiers>
        <_>
          <internalNodes>
            0 -1 74 2.6670601218938828e-02</internalNodes>
          <leafValues>
            2.3595505952835083e-01 5.9029650688171387e-01</leafValues></_>
        <_>
          <internalNodes>
            0 -1 29 1.5405737794935703e-03</internalNodes>
          <leafValues>
            9.9933452904224396e-02 -2.6801064610481262e-01</leafValues></_>
        <_>
          <internalNodes>
            0 -1 168 -1.5354927163571119e-03</internalNodes>
          <leafValues>
            -4.8116567730903625e-01 4.0975440293550491e-02</leafValues></_>
        <_>
          <internalNodes>
            0 -1 201 1.0146225395146757e-04</internalNodes>
          <leafValues>
            1.0524596273899078e-01 -1.7974966764450073e-01</leafValues></_>
        <_>
          <internalNodes>
            0 -1 64 9.8754465579986572e-04</internalNodes>
          <leafValues>
            6.0222033411264420e-02 -3.0663877725601196e-01</leafValues></_>
        <_>
          <internalNodes>
            0 -1 116 -2.0584934391081333e-03</internalNodes>
          <leafValues>
            1.8100376427173615e-01 -1.3270518183708191e-01</leafValues></_>
        <_>
          <internalNodes>
            0 -1 147 -2.6381423231214285e-04</internalNodes>
          <leafValues>
            2.4731984734535217e-01 -7.0455677807331085e-02</leafValues></_>
        <_>
          <internalNodes>
            0 -1 184 2.2028330713510513e-03</internalNodes>
          <leafValues>
            2.1452743094414473e-03 -5.5954295396804810e-01</leafValues></_>
        <_>
          <internalNodes>
            0 -1 76 -4.7461623325943947e-03</internalNodes>
          <leafValues>
            2.7064141631126404e-01 -6.7957110702991486e-02</leafValues></_>
        <_>
          <internalNodes>
            0 -1 47 -5.6266365572810173e-03</internalNodes>
          <leafValues>
            -2.7668234705924988e-01 7.2787024080753326e-02</leafValues></_>
        <_>
          <internalNodes>
            0 -1 159 2.1066619083285332e-03</internalNodes>
          <leafValues>
            7.7664993703365326e-02 -2.3928107321262360e-01</leafValues></_>
        <_>
          <internalNodes>
            0 -1 146 1.0495436144992709e-03</internalNodes>
          <leafValues>
            4.8050332814455032e-02 -3.5230314731597900e-01</leafValues></_>
        <_>
          <internalNodes>
            0 -1 62 -1.1915781069546938e-03</internalNodes>
          <leafValues>
            1.7961628735065460e-01 -9.4137281179428101e-02</leafValues></_>
        <_>
          <internalNodes>
            0 -1 154 1.5064931940287352e-03</internalNodes>
          <leafValues>
            6.8790607154369354e-02 -2.6127082109451294e-01</leafValues></_>
        <_>
          <internalNodes>
            0 -1 195 1.8187993555329740e-04</internalNodes>
          <leafValues>
            1.1482159048318863e-01 -1.5670524537563324e-01</leafValues></_>
        <_>
          <internalNodes>
            0 -1 72 4.1418735054321587e-04</internalNodes>
          <leafValues>
            -1.0767067223787308e-01 1.5592570602893829e-01</leafValues></_>
        <_>
          <internalNodes>
            0 -1 2 1.4912448823451996e-03</internalNodes>
          <leafValues>
            2.4841839447617531e-02 -5.9608244895935059e-01</leafValues></_>
        <_>
          <internalNodes>
            0 -1 179 -1.0721350554376841e-03</internalNodes>
          <leafValues>
            -1.6493761539459229e-01 1.0232065618038177e-01</leafValues></_>
        <_>
          <internalNodes>
            0 -1 79 8.8477868121117353e-04</internalNodes>
          <leafValues>
            8.6715221405029297e-02 -1.9655054807662964e-01</leafValues></_>
        <_>
          <internalNodes>
            0 -1 125 4.7907643020153046e-03</internalNodes>
          <leafValues>
            -5.1634404808282852e-02 3.2029309868812561e-01</leafValues></_>
        <_>
          <internalNodes>
            0 -1 126 -7.9465238377451897e-04</internalNodes>
          <leafValues>
            1.6780117154121399e-01 -1.1256664991378784e-01</leafValues></_>
        <_>
          <internalNodes>
            0 -1 55 6.2510336283594370e-04</internalNodes>
          <leafValues>
            -1.3136136531829834e-01 1.3229973614215851e-01</leafValues></_>
        <_>
          <internalNodes>
            0 -1 1 -1.1105163721367717e-03</internalNodes>
          <leafValues>
            -1.5556907653808594e-01 1.0894027352333069e-01</leafValues></_>
        <_>
          <internalNodes>
            0 -1 41 -7.6070083305239677e-03</internalNodes>
          <leafValues>
            6.5911686420440674e-01 -2.3050328716635704e-02</leafValues></_>
        <_>
          <internalNodes>
            0 -1 187 -1.7230449011549354e-03</internalNodes>
          <leafValues>
            -4.5758646726608276e-01 3.9595775306224823e-02</leafValues></_>
        <_>
          <internalNodes>
            0 -1 68 -2.6446138508617878e-03</internalNodes>
          <leafValues>
            -3.1898871064186096e-01 4.7569241374731064e-02</leafValues></_>
        <_>
          <internalNodes>
            0 -1 149 -9.0066890697926283e-04</internalNodes>
          <leafValues>
            1.8498705327510834e-01 -8.2711920142173767e-02</leafValues></_>
        <_>
          <internalNodes>
            0 -1 5 6.6707003861665726e-04</internalNodes>
          <leafValues>
            9.5772713422775269e-02 -1.6252112388610840e-01</leafValues></_>
        <_>
          <internalNodes>
            0 -1 217 -8.5942205041646957e-03</internalNodes>
          <leafValues>
            4.6964791417121887e-01 -3.1952679157257080e-02</leafValues></_>
        <_>
          <internalNodes>
            0 -1 109 -4.2632286204025149e-04</internalNodes>
          <leafValues>
            1.5166589617729187e-01 -9.8761662840843201e-02</leafValues></_>
        <_>
          <internalNodes>
            0 -1 83 2.7502547018229961e-03</internalNodes>
          <leafValues>
            5.5887807160615921e-02 -2.7351057529449463e-01</leafValues></_>
        <_>
          <internalNodes>
            0 -1 210 6.6903902916237712e-04</internalNodes>
          <leafValues>
            1.0259447991847992e-01 -1.5494313836097717e-01</leafValues></_>
        <_>
          <internalNodes>
            0 -1 134 -1.2501024175435305e-03</internalNodes>
          <leafValues>
            2.1331346035003662e-01 -6.9991499185562134e-02</leafValues></_>
        <_>
          <internalNodes>
            0 -1 93 2.5891611585393548e-04</internalNodes>
          <leafValues>
            -1.2668606638908386e-01 1.3106639683246613e-01</leafValues></_>
        <_>
          <internalNodes>
            0 -1 112 -8.5435580695047975e-04</internalNodes>
          <leafValues>
            2.1446788311004639e-01 -7.6999425888061523e-02</leafValues></_>
        <_>
          <internalNodes>
            0 -1 31 -1.3289373600855470e-03</internalNodes>
          <leafValues>
            -5.2640175819396973e-01 3.2253585755825043e-02</leafValues></_>
        <_>
          <internalNodes>
            0 -1 17 -5.2620284259319305e-04</internalNodes>
          <leafValues>
            2.1359680593013763e-01 -7.1282289922237396e-02</leafValues></_>
        <_>
          <internalNodes>
            0 -1 81 -6.5278634428977966e-04</internalNodes>
          <leafValues>
            -2.2757975757122040e-01 7.1483887732028961e-02</leafValues></_>
        <_>
          <internalNodes>
            0 -1 15 1.5019823331385851e-03</internalNodes>
          <leafValues>
            6.1364073306322098e-02 -2.6139062643051147e-01</leafValues></_>
        <_>
          <internalNodes>
            0 -1 21 -1.2091104872524738e-03</internalNodes>
          <leafValues>
            -2.7569198608398438e-01 5.7052988559007645e-02</leafValues></_>
        <_>
          <internalNodes>
            0 -1 137 -2.0459732040762901e-02</internalNodes>
          <leafValues>
            2.4789357185363770e-01 -6.5795227885246277e-02</leafValues></_>
        <_>
          <internalNodes>
            0 -1 114 -3.8027670234441757e-03</internalNodes>
          <leafValues>
            -3.5279652476310730e-01 4.5355010777711868e-02</leafValues></_>
        <_>
          <internalNodes>
            0 -1 14 -4.6328015625476837e-02</internalNodes>
          <leafValues>
            6.1037784814834595e-01 -2.4273129180073738e-02</leafValues></_>
        <_>
          <internalNodes>
            0 -1 40 1.8991674296557903e-03</internalNodes>
          <leafValues>
            1.2315315008163452e-01 -1.2596711516380310e-01</leafValues></_>
        <_>
          <internalNodes>
            0 -1 4 1.6372628509998322e-02</internalNodes>
          <leafValues>
            -4.6252679079771042e-02 3.6953276395797729e-01</leafValues></_>
        <_>
          <internalNodes>
            0 -1 82 3.1704209744930267e-02</internalNodes>
          <leafValues>
            1.9514692947268486e-02 -8.3101880550384521e-01</leafValues></_>
        <_>
          <internalNodes>
            0 -1 86 -1.6819683369249105e-03</internalNodes>
          <leafValues>
            3.7288740277290344e-01 -4.1903253644704819e-02</leafValues></_>
        <_>
          <internalNodes>
            0 -1 20 5.6460741907358170e-03</internalNodes>
          <leafValues>
            3.9295215159654617e-02 -4.0731126070022583e-01</leafValues></_>
        <_>
          <internalNodes>
            0 -1 178 5.7113178627332672e-05</internalNodes>
          <leafValues>
            -1.0768482089042664e-01 1.4338102936744690e-01</leafValues></_>
        <_>
          <internalNodes>
            0 -1 78 -2.0495709031820297e-04</internalNodes>
          <leafValues>
            -1.5506409108638763e-01 1.0109416395425797e-01</leafValues></_>
        <_>
          <internalNodes>
            0 -1 52 4.0231980383396149e-03</internalNodes>
          <leafValues>
            -4.1551738977432251e-02 3.7390714883804321e-01</leafValues></_>
        <_>
          <internalNodes>
            0 -1 27 9.3400022014975548e-03</internalNodes>
          <leafValues>
            -3.3530298620462418e-02 4.5785373449325562e-01</leafValues></_>
        <_>
          <internalNodes>
            0 -1 37 1.8973774276673794e-03</internalNodes>
          <leafValues>
            7.3757044970989227e-02 -2.1571467816829681e-01</leafValues></_>
        <_>
          <internalNodes>
            0 -1 196 2.9174275696277618e-03</internalNodes>
          <leafValues>
            -2.5691496208310127e-02 5.8540427684783936e-01</leafValues></_>
        <_>
          <internalNodes>
            0 -1 208 1.5030500944703817e-03</internalNodes>
          <leafValues>
            4.3642312288284302e-02 -3.9801377058029175e-01</leafValues></_>
        <_>
          <internalNodes>
            0 -1 36 -4.7099398216232657e-04</internalNodes>
          <leafValues>
            -1.5189689397811890e-01 1.0507091134786606e-01</leafValues></_>
        <_>
          <internalNodes>
            0 -1 51 1.0972501710057259e-02</internalNodes>
          <leafValues>
            -4.4518243521451950e-02 3.1961745023727417e-01</leafValues></_>
        <_>
          <internalNodes>
            0 -1 33 -1.3184057548642159e-02</internalNodes>
          <leafValues>
            -1.7193911969661713e-01 1.0794586688280106e-01</leafValues></_>
        <_>
          <internalNodes>
            0 -1 58 -7.9850321635603905e-03</internalNodes>
          <leafValues>
            -2.4184522032737732e-01 6.2596924602985382e-02</leafValues></_>
        <_>
          <internalNodes>
            0 -1 9 2.1373463794589043e-02</internalNodes>
          <leafValues>
            1.1608618497848511e-01 -1.3303864002227783e-01</leafValues></_>
        <_>
          <internalNodes>
            0 -1 59 -5.6289103813469410e-03</internalNodes>
          <leafValues>
            1.4235287904739380e-01 -1.0558968037366867e-01</leafValues></_>
        <_>
          <internalNodes>
            0 -1 193 1.3884578365832567e-03</internalNodes>
          <leafValues>
            3.2491333782672882e-02 -5.0009244680404663e-01</leafValues></_>
        <_>
          <internalNodes>
            0 -1 176 5.4526373744010925e-02</internalNodes>
          <leafValues>
            -2.4020235985517502e-02 7.0878851413726807e-01</leafValues></_>
        <_>
          <internalNodes>
            0 -1 26 -3.0895345844328403e-03</internalNodes>
          <leafValues>
            4.9566182494163513e-01 -2.8178991749882698e-02</leafValues></_>
        <_>
          <internalNodes>
            0 -1 165 8.8707613758742809e-04</internalNodes>
          <leafValues>
            6.4959190785884857e-02 -2.4104465544223785e-01</leafValues></_>
        <_>
          <internalNodes>
            0 -1 174 -3.8496060296893120e-03</internalNodes>
          <leafValues>
            -1.6821102797985077e-01 9.6817620098590851e-02</leafValues></_>
        <_>
          <internalNodes>
            0 -1 166 -4.5624471385963261e-04</internalNodes>
          <leafValues>
            -1.3781654834747314e-01 1.2890668213367462e-01</leafValues></_>
        <_>
          <internalNodes>
            0 -1 90 -5.9137608855962753e-02</internalNodes>
          <leafValues>
            -3.5571622848510742e-01 4.4899672269821167e-02</leafValues></_>
        <_>
          <internalNodes>
            0 -1 43 -1.4265390345826745e-03</internalNodes>
          <leafValues>
            1.2609763443470001e-01 -1.2370979040861130e-01</leafValues></_>
        <_>
          <internalNodes>
            0 -1 164 -1.2870263890363276e-04</internalNodes>
          <leafValues>
            1.5137606859207153e-01 -1.0544500499963760e-01</leafValues></_>
        <_>
          <internalNodes>
            0 -1 0 3.8031849544495344e-04</internalNodes>
          <leafValues>
            8.1399880349636078e-02 -1.9473858177661896e-01</leafValues></_>
        <_>
          <internalNodes>
            0 -1 200 -4.8134382814168930e-03</internalNodes>
          <leafValues>
            3.3711412549018860e-01 -4.2300440371036530e-02</leafValues></_>
        <_>
          <internalNodes>
            0 -1 194 -3.6398891825228930e-03</internalNodes>
          <leafValues>
            -2.1198910474777222e-01 7.3861435055732727e-02</leafValues></_>
        <_>
          <internalNodes>
            0 -1 191 -4.1941139847040176e-02</internalNodes>
          <leafValues>
            6.1085581779479980e-01 -3.0371559783816338e-02</leafValues></_>
        <_>
          <internalNodes>
            0 -1 202 -1.0193301131948829e-03</internalNodes>
          <leafValues>
            -3.2019153237342834e-01 5.2372314035892487e-02</leafValues></_>
        <_>
          <internalNodes>
            0 -1 123 8.9448713697493076e-04</internalNodes>
          <leafValues>
            -7.9258441925048828e-02 1.8972882628440857e-01</leafValues></_>
        <_>
          <internalNodes>
            0 -1 122 -2.5005044881254435e-04</internalNodes>
          <leafValues>
            1.6509833931922913e-01 -1.1734171956777573e-01</leafValues></_>
        <_>
          <internalNodes>
            0 -1 121 4.6317582018673420e-04</internalNodes>
          <leafValues>
            -1.0015473514795303e-01 1.6807436943054199e-01</leafValues></_>
        <_>
          <internalNodes>
            0 -1 205 -3.6869551986455917e-03</internalNodes>
          <leafValues>
            -5.5203348398208618e-01 3.0620556324720383e-02</leafValues></_>
        <_>
          <internalNodes>
            0 -1 213 3.4563353983685374e-04</internalNodes>
          <leafValues>
            9.6210829913616180e-02 -1.6086755692958832e-01</leafValues></_>
        <_>
          <internalNodes>
            0 -1 99 1.8533302936702967e-03</internalNodes>
          <leafValues>
            -6.8321168422698975e-02 2.1801523864269257e-01</leafValues></_></weakClassifiers></_></stages>
  <features>
    <_>
      <rects>
        <_>
          0 0 4 2 -1.</_>
        <_>
          0 0 2 1 2.</_>
        <_>
          2 1 2 1 2.</_></rects>
      <tilted>0</tilted></_>
    <_>
      <rects>
        <_>
          0 4 1 10 -1.</_>
        <_>
          0 9 1 5 2.</_></rects>
      <tilted>0</tilted></_>
    <_>
      <rects>
        <_>
          0 6 2 2 -1.</_>
        <_>
          0 6 1 1 2.</_>
        <_>
          1 7 1 1 2.</_></rects>
      <tilted>0</tilted></_>
    <_>
      <rects>
        <_>
          0 8 29 21 -1.</_>
        <_>
          0 15 29 7 3.</_></rects>
      <tilted>0</tilted></_>
    <_>
      <rects>
        <_>
          0 9 4 13 -1.</_>
        <_>
          2 9 2 13 2.</_></rects>
      <tilted>0</tilted></_>
    <_>
      <rects>
        <_>
          0 9 6 2 -1.</_>
        <_>
          0 10 6 1 2.</_></rects>
      <tilted>0</tilted></_>
    <_>
      <rects>
        <_>
          0 24 2 1 -1.</_>
        <_>
          1 24 1 1 2.</_></rects>
      <tilted>0</tilted></_>
    <_>
      <rects>
        <_>
          0 27 3 2 -1.</_>
        <_>
          1 27 1 2 3.</_></rects>
      <tilted>0</tilted></_>
    <_>
      <rects>
        <_>
          1 0 6 22 -1.</_>
        <_>
          1 11 6 11 2.</_></rects>
      <tilted>0</tilted></_>
    <_>
      <rects>
        <_>
          1 5 18 18 -1.</_>
        <_>
          1 11 18 6 3.</_></rects>
      <tilted>0</tilted></_>
    <_>
      <rects>
        <_>
          1 8 10 3 -1.</_>
        <_>
          1 9 10 1 3.</_></rects>
      <tilted>0</tilted></_>
    <_>
      <rects>
        <_>
          1 12 27 6 -1.</_>
        <_>
          1 14 27 2 3.</_></rects>
      <tilted>0</tilted></_>
    <_>
      <rects>
        <_>
          1 15 29 2 -1.</_>
        <_>
          1 16 29 1 2.</_></rects>
      <tilted>0</tilted></_>
    <_>
      <rects>
        <_>
          1 19 28 4 -1.</_>
        <_>
          1 21 28 2 2.</_></rects>
      <tilted>0</tilted></_>
    <_>
      <rects>
        <_>
          1 22 16 8 -1.</_>
        <_>
          1 22 8 4 2.</_>
        <_>
          9 26 8 4 2.</_></rects>
      <tilted>0</tilted></_>
    <_>
      <rects>
        <_>
          1 27 6 2 -1.</_>
        <_>
          1 27 3 1 2.</_>
        <_>
          4 28 3 1 2.</_></rects>
      <tilted>0</tilted></_>
    <_>
      <rects>
        <_>
          2 0 10 27 -1.</_>
        <_>
          2 9 10 9 3.</_></rects>
      <tilted>0</tilted></_>
    <_>
      <rects>
        <_>
          2 8 1 3 -1.</_>
        <_>
          2 9 1 1 3.</_></rects>
      <tilted>0</tilted></_>
    <_>
      <rects>
        <_>
          2 10 3 12 -1.</_>
        <_>
          2 14 3 4 3.</_></rects>
      <tilted>0</tilted></_>
    <_>
      <rects>
        <_>
          2 15 4 2 -1.</_>
        <_>
          2 16 4 1 2.</_></rects>
      <tilted>0</tilted></_>
    <_>
      <rects>
        <_>
          2 21 14 2 -1.</_>
        <_>
          2 21 7 1 2.</_>
        <_>
          9 22 7 1 2.</_></rects>
      <tilted>0</tilted></_>
    <_>
      <rects>
        <_>
          2 27 4 2 -1.</_>
        <_>
          2 27 2 1 2.</_>
        <_>
          4 28 2 1 2.</_></rects>
      <tilted>0</tilted></_>
    <_>
      <rects>
        <_>
          3 2 12 4 -1.</_>
        <_>
          3 2 6 2 2.</_>
        <_>
          9 4 6 2 2.</_></rects>
      <tilted>0</tilted></_>
    <_>
      <rects>
        <_>
          3 2 18 2 -1.</_>
        <_>
          3 2 9 1 2.</_>
        <_>
          12 3 9 1 2.</_></rects>
      <tilted>0</tilted></_>
    <_>
      <rects>
        <_>
          3 3 27 9 -1.</_>
        <_>
          3 6 27 3 3.</_></rects>
      <tilted>0</tilted></_>
    <_>
      <rects>
        <_>
          3 6 2 8 -1.</_>
        <_>
          4 6 1 8 2.</_></rects>
      <tilted>0</tilted></_>
    <_>
      <rects>
        <_>
          3 14 1 4 -1.</_>
        <_>
          3 16 1 2 2.</_></rects>
      <tilted>0</tilted></_>
    <_>
      <rects>
        <_>
          3 27 18 2 -1.</_>
        <_>
          3 28 18 1 2.</_></rects>
      <tilted>0</tilted></_>
    <_>
      <rects>
        <_>
          4 0 2 8 -1.</_>
        <_>
          4 4 2 4 2.</_></rects>
      <tilted>0</tilted></_>
    <_>
      <rects>
        <_>
          4 0 3 3 -1.</_>
        <_>
          4 1 3 1 3.</_></rects>
      <tilted>0</tilted></_>
    <_>
      <rects>
        <_>
          4 3 16 8 -1.</_>
        <_>
          4 3 8 4 2.</_>
        <_>
          12 7 8 4 2.</_></rects>
      <tilted>0</tilted></_>
    <_>
      <rects>
        <_>
          4 6 2 2 -1.</_>
        <_>
          4 6 1 1 2.</_>
        <_>
          5 7 1 1 2.</_></rects>
      <tilted>0</tilted></_>
    <_>
      <rects>
        <_>
          4 20 22 8 -1.</_>
        <_>
          4 24 22 4 2.</_></rects>
      <tilted>0</tilted></_>
    <_>
      <rects>
        <_>
          5 2 4 27 -1.</_>
        <_>
          5 11 4 9 3.</_></rects>
      <tilted>0</tilted></_>
    <_>
      <rects>
        <_>
          5 10 3 1 -1.</_>
        <_>
          6 10 1 1 3.</_></rects>
      <tilted>0</tilted></_>
    <_>
      <rects>
        <_>
          5 11 2 2 -1.</_>
        <_>
          5 11 1 1 2.</_>
        <_>
          6 12 1 1 2.</_></rects>
      <tilted>0</tilted></_>
    <_>
      <rects>
        <_>
          6 1 3 9 -1.</_>
        <_>
          7 1 1 9 3.</_></rects>
      <tilted>0</tilted></_>
    <_>
      <rects>
        <_>
          6 2 3 7 -1.</_>
        <_>
          7 2 1 7 3.</_></rects>
      <tilted>0</tilted></_>
    <_>
      <rects>
        <_>
          6 4 4 6 -1.</_>
        <_>
          6 6 4 2 3.</_></rects>
      <tilted>0</tilted></_>
    <_>
      <rects>
        <_>
          6 5 5 8 -1.</_>
        <_>
          6 9 5 4 2.</_></rects>
      <tilted>0</tilted></_>
    <_>
      <rects>
        <_>
          6 14 12 10 -1.</_>
        <_>
          6 14 6 5 2.</_>
        <_>
          12 19 6 5 2.</_></rects>
      <tilted>0</tilted></_>
    <_>
      <rects>
        <_>
          6 15 9 2 -1.</_>
        <_>
          6 16 9 1 2.</_></rects>
      <tilted>0</tilted></_>
    <_>
      <rects>
        <_>
          6 17 1 3 -1.</_>
        <_>
          6 18 1 1 3.</_></rects>
      <tilted>0</tilted></_>
    <_>
      <rects>
        <_>
          6 19 24 1 -1.</_>
        <_>
          18 19 12 1 2.</_></rects>
      <tilted>0</tilted></_>
    <_>
      <rects>
        <_>
          7 0 17 4 -1.</_>
        <_>
          7 2 17 2 2.</_></rects>
      <tilted>0</tilted></_>
    <_>
      <rects>
        <_>
          7 10 12 15 -1.</_>
        <_>
          13 10 6 15 2.</_></rects>
      <tilted>0</tilted></_>
    <_>
      <rects>
        <_>
          7 17 3 4 -1.</_>
        <_>
          8 17 1 4 3.</_></rects>
      <tilted>0</tilted></_>
    <_>
      <rects>
        <_>
          7 19 18 1 -1.</_>
        <_>
          13 19 6 1 3.</_></rects>
      <tilted>0</tilted></_>
    <_>
      <rects>
        <_>
          7 25 10 3 -1.</_>
        <_>
          12 25 5 3 2.</_></rects>
      <tilted>0</tilted></_>
    <_>
      <rects>
        <_>
          8 10 2 15 -1.</_>
        <_>
          8 15 2 5 3.</_></rects>
      <tilted>0</tilted></_>
    <_>
      <rects>
        <_>
          8 12 6 1 -1.</_>
        <_>
          11 12 3 1 2.</_></rects>
      <tilted>0</tilted></_>
    <_>
      <rects>
        <_>
          8 16 2 12 -1.</_>
        <_>
          8 22 2 6 2.</_></rects>
      <tilted>0</tilted></_>
    <_>
      <rects>
        <_>
          8 19 2 8 -1.</_>
        <_>
          9 19 1 8 2.</_></rects>
      <tilted>0</tilted></_>
    <_>
      <rects>
        <_>
          8 20 8 1 -1.</_>
        <_>
          12 20 4 1 2.</_></rects>
      <tilted>0</tilted></_>
    <_>
      <rects>
        <_>
          9 8 6 6 -1.</_>
        <_>
          9 10 6 2 3.</_></rects>
      <tilted>0</tilted></_>
    <_>
      <rects>
        <_>
          9 12 8 2 -1.</_>
        <_>
          13 12 4 2 2.</_></rects>
      <tilted>0</tilted></_>
    <_>
      <rects>
        <_>
          9 12 12 2 -1.</_>
        <_>
          13 12 4 2 3.</_></rects>
      <tilted>0</tilted></_>
    <_>
      <rects>
        <_>
          9 19 15 1 -1.</_>
        <_>
          14 19 5 1 3.</_></rects>
      <tilted>0</tilted></_>
    <_>
      <rects>
        <_>
          9 21 12 2 -1.</_>
        <_>
          15 21 6 2 2.</_></rects>
      <tilted>0</tilted></_>
    <_>
      <rects>
        <_>
          10 4 14 10 -1.</_>
        <_>
          10 4 7 5 2.</_>
        <_>
          17 9 7 5 2.</_></rects>
      <tilted>0</tilted></_>
    <_>
      <rects>
        <_>
          10 4 11 9 -1.</_>
        <_>
          10 7 11 3 3.</_></rects>
      <tilted>0</tilted></_>
    <_>
      <rects>
        <_>
          10 7 6 6 -1.</_>
        <_>
          12 7 2 6 3.</_></rects>
      <tilted>0</tilted></_>
    <_>
      <rects>
        <_>
          10 7 14 2 -1.</_>
        <_>
          10 7 7 1 2.</_>
        <_>
          17 8 7 1 2.</_></rects>
      <tilted>0</tilted></_>
    <_>
      <rects>
        <_>
          10 10 3 1 -1.</_>
        <_>
          11 10 1 1 3.</_></rects>
      <tilted>0</tilted></_>
    <_>
      <rects>
        <_>
          10 10 1 3 -1.</_>
        <_>
          10 11 1 1 3.</_></rects>
      <tilted>0</tilted></_>
    <_>
      <rects>
        <_>
          10 11 12 10 -1.</_>
        <_>
          14 11 4 10 3.</_></rects>
      <tilted>0</tilted></_>
    <_>
      <rects>
        <_>
          10 12 3 7 -1.</_>
        <_>
          11 12 1 7 3.</_></rects>
      <tilted>0</tilted></_>
    <_>
      <rects>
        <_>
          10 16 2 4 -1.</_>
        <_>
          10 16 1 2 2.</_>
        <_>
          11 18 1 2 2.</_></rects>
      <tilted>0</tilted></_>
    <_>
      <rects>
        <_>
          10 16 8 2 -1.</_>
        <_>
          10 16 4 1 2.</_>
        <_>
          14 17 4 1 2.</_></rects>
      <tilted>0</tilted></_>
    <_>
      <rects>
        <_>
          10 27 2 2 -1.</_>
        <_>
          10 27 1 1 2.</_>
        <_>
          11 28 1 1 2.</_></rects>
      <tilted>0</tilted></_>
    <_>
      <rects>
        <_>
          11 4 2 2 -1.</_>
        <_>
          11 4 1 1 2.</_>
        <_>
          12 5 1 1 2.</_></rects>
      <tilted>0</tilted></_>
    <_>
      <rects>
        <_>
          11 7 6 3 -1.</_>
        <_>
          13 7 2 3 3.</_></rects>
      <tilted>0</tilted></_>
    <_>
      <rects>
        <_>
          11 10 2 14 -1.</_>
        <_>
          11 10 1 7 2.</_>
        <_>
          12 17 1 7 2.</_></rects>
      <tilted>0</tilted></_>
    <_>
      <rects>
        <_>
          11 10 3 9 -1.</_>
        <_>
          12 10 1 9 3.</_></rects>
      <tilted>0</tilted></_>
    <_>
      <rects>
        <_>
          11 10 9 13 -1.</_>
        <_>
          14 10 3 13 3.</_></rects>
      <tilted>0</tilted></_>
    <_>
      <rects>
        <_>
          11 11 3 8 -1.</_>
        <_>
          12 11 1 8 3.</_></rects>
      <tilted>0</tilted></_>
    <_>
      <rects>
        <_>
          11 19 6 3 -1.</_>
        <_>
          13 19 2 3 3.</_></rects>
      <tilted>0</tilted></_>
    <_>
      <rects>
        <_>
          11 21 2 2 -1.</_>
        <_>
          11 21 1 1 2.</_>
        <_>
          12 22 1 1 2.</_></rects>
      <tilted>0</tilted></_>
    <_>
      <rects>
        <_>
          11 23 2 2 -1.</_>
        <_>
          12 23 1 2 2.</_></rects>
      <tilted>0</tilted></_>
    <_>
      <rects>
        <_>
          11 24 3 3 -1.</_>
        <_>
          12 24 1 3 3.</_></rects>
      <tilted>0</tilted></_>
    <_>
      <rects>
        <_>
          11 26 2 2 -1.</_>
        <_>
          11 26 1 1 2.</_>
        <_>
          12 27 1 1 2.</_></rects>
      <tilted>0</tilted></_>
    <_>
      <rects>
        <_>
          12 4 1 3 -1.</_>
        <_>
          12 5 1 1 3.</_></rects>
      <tilted>0</tilted></_>
    <_>
      <rects>
        <_>
          12 9 3 10 -1.</_>
        <_>
          12 14 3 5 2.</_></rects>
      <tilted>0</tilted></_>
    <_>
      <rects>
        <_>
          12 11 5 3 -1.</_>
        <_>
          12 12 5 1 3.</_></rects>
      <tilted>0</tilted></_>
    <_>
      <rects>
        <_>
          12 15 9 5 -1.</_>
        <_>
          15 15 3 5 3.</_></rects>
      <tilted>0</tilted></_>
    <_>
      <rects>
        <_>
          12 19 6 3 -1.</_>
        <_>
          14 19 2 3 3.</_></rects>
      <tilted>0</tilted></_>
    <_>
      <rects>
        <_>
          12 23 2 2 -1.</_>
        <_>
          12 24 2 1 2.</_></rects>
      <tilted>0</tilted></_>
    <_>
      <rects>
        <_>
          13 0 1 4 -1.</_>
        <_>
          13 2 1 2 2.</_></rects>
      <tilted>0</tilted></_>
    <_>
      <rects>
        <_>
          13 2 1 3 -1.</_>
        <_>
          13 3 1 1 3.</_></rects>
      <tilted>0</tilted></_>
    <_>
      <rects>
        <_>
          13 3 4 18 -1.</_>
        <_>
          13 9 4 6 3.</_></rects>
      <tilted>0</tilted></_>
    <_>
      <rects>
        <_>
          13 8 9 15 -1.</_>
        <_>
          13 13 9 5 3.</_></rects>
      <tilted>0</tilted></_>
    <_>
      <rects>
        <_>
          13 10 4 7 -1.</_>
        <_>
          15 10 2 7 2.</_></rects>
      <tilted>0</tilted></_>
    <_>
      <rects>
        <_>
          13 11 3 1 -1.</_>
        <_>
          14 11 1 1 3.</_></rects>
      <tilted>0</tilted></_>
    <_>
      <rects>
        <_>
          13 11 4 5 -1.</_>
        <_>
          15 11 2 5 2.</_></rects>
      <tilted>0</tilted></_>
    <_>
      <rects>
        <_>
          13 12 2 14 -1.</_>
        <_>
          13 12 1 7 2.</_>
        <_>
          14 19 1 7 2.</_></rects>
      <tilted>0</tilted></_>
    <_>
      <rects>
        <_>
          13 13 3 3 -1.</_>
        <_>
          14 13 1 3 3.</_></rects>
      <tilted>0</tilted></_>
    <_>
      <rects>
        <_>
          13 15 4 1 -1.</_>
        <_>
          15 15 2 1 2.</_></rects>
      <tilted>0</tilted></_>
    <_>
      <rects>
        <_>
          13 15 9 10 -1.</_>
        <_>
          16 15 3 10 3.</_></rects>
      <tilted>0</tilted></_>
    <_>
      <rects>
        <_>
          13 16 2 6 -1.</_>
        <_>
          13 16 1 3 2.</_>
        <_>
          14 19 1 3 2.</_></rects>
      <tilted>0</tilted></_>
    <_>
      <rects>
        <_>
          13 17 3 4 -1.</_>
        <_>
          14 17 1 4 3.</_></rects>
      <tilted>0</tilted></_>
    <_>
      <rects>
        <_>
          13 19 3 2 -1.</_>
        <_>
          14 19 1 2 3.</_></rects>
      <tilted>0</tilted></_>
    <_>
      <rects>
        <_>
          13 21 2 6 -1.</_>
        <_>
          14 21 1 6 2.</_></rects>
      <tilted>0</tilted></_>
    <_>
      <rects>
        <_>
          13 22 16 4 -1.</_>
        <_>
          13 22 8 2 2.</_>
        <_>
          21 24 8 2 2.</_></rects>
      <tilted>0</tilted></_>
    <_>
      <rects>
        <_>
          14 3 3 11 -1.</_>
        <_>
          15 3 1 11 3.</_></rects>
      <tilted>0</tilted></_>
    <_>
      <rects>
        <_>
          14 5 6 20 -1.</_>
        <_>
          14 5 3 10 2.</_>
        <_>
          17 15 3 10 2.</_></rects>
      <tilted>0</tilted></_>
    <_>
      <rects>
        <_>
          14 6 2 4 -1.</_>
        <_>
          14 6 1 2 2.</_>
        <_>
          15 8 1 2 2.</_></rects>
      <tilted>0</tilted></_>
    <_>
      <rects>
        <_>
          14 7 2 10 -1.</_>
        <_>
          14 7 1 5 2.</_>
        <_>
          15 12 1 5 2.</_></rects>
      <tilted>0</tilted></_>
    <_>
      <rects>
        <_>
          14 7 2 4 -1.</_>
        <_>
          14 9 2 2 2.</_></rects>
      <tilted>0</tilted></_>
    <_>
      <rects>
        <_>
          14 7 6 4 -1.</_>
        <_>
          14 7 3 2 2.</_>
        <_>
          17 9 3 2 2.</_></rects>
      <tilted>0</tilted></_>
    <_>
      <rects>
        <_>
          14 9 3 4 -1.</_>
        <_>
          15 9 1 4 3.</_></rects>
      <tilted>0</tilted></_>
    <_>
      <rects>
        <_>
          14 9 3 12 -1.</_>
        <_>
          15 9 1 12 3.</_></rects>
      <tilted>0</tilted></_>
    <_>
      <rects>
        <_>
          14 10 3 1 -1.</_>
        <_>
          15 10 1 1 3.</_></rects>
      <tilted>0</tilted></_>
    <_>
      <rects>
        <_>
          14 12 2 3 -1.</_>
        <_>
          15 12 1 3 2.</_></rects>
      <tilted>0</tilted></_>
    <_>
      <rects>
        <_>
          14 12 2 10 -1.</_>
        <_>
          14 12 1 5 2.</_>
        <_>
          15 17 1 5 2.</_></rects>
      <tilted>0</tilted></_>
    <_>
      <rects>
        <_>
          14 13 6 1 -1.</_>
        <_>
          17 13 3 1 2.</_></rects>
      <tilted>0</tilted></_>
    <_>
      <rects>
        <_>
          14 13 3 2 -1.</_>
        <_>
          14 14 3 1 2.</_></rects>
      <tilted>0</tilted></_>
    <_>
      <rects>
        <_>
          14 14 3 7 -1.</_>
        <_>
          15 14 1 7 3.</_></rects>
      <tilted>0</tilted></_>
    <_>
      <rects>
        <_>
          14 15 1 3 -1.</_>
        <_>
          14 16 1 1 3.</_></rects>
      <tilted>0</tilted></_>
    <_>
      <rects>
        <_>
          14 16 2 3 -1.</_>
        <_>
          15 16 1 3 2.</_></rects>
      <tilted>0</tilted></_>
    <_>
      <rects>
        <_>
          14 16 2 4 -1.</_>
        <_>
          15 16 1 4 2.</_></rects>
      <tilted>0</tilted></_>
    <_>
      <rects>
        <_>
          14 16 3 6 -1.</_>
        <_>
          14 18 3 2 3.</_></rects>
      <tilted>0</tilted></_>
    <_>
      <rects>
        <_>
          14 17 3 2 -1.</_>
        <_>
          15 17 1 2 3.</_></rects>
      <tilted>0</tilted></_>
    <_>
      <rects>
        <_>
          14 17 3 3 -1.</_>
        <_>
          15 17 1 3 3.</_></rects>
      <tilted>0</tilted></_>
    <_>
      <rects>
        <_>
          14 17 2 4 -1.</_>
        <_>
          15 17 1 4 2.</_></rects>
      <tilted>0</tilted></_>
    <_>
      <rects>
        <_>
          14 17 6 6 -1.</_>
        <_>
          16 17 2 6 3.</_></rects>
      <tilted>0</tilted></_>
    <_>
      <rects>
        <_>
          14 18 3 6 -1.</_>
        <_>
          15 18 1 6 3.</_></rects>
      <tilted>0</tilted></_>
    <_>
      <rects>
        <_>
          14 18 3 9 -1.</_>
        <_>
          15 18 1 9 3.</_></rects>
      <tilted>0</tilted></_>
    <_>
      <rects>
        <_>
          14 21 5 6 -1.</_>
        <_>
          14 24 5 3 2.</_></rects>
      <tilted>0</tilted></_>
    <_>
      <rects>
        <_>
          15 1 3 1 -1.</_>
        <_>
          16 1 1 1 3.</_></rects>
      <tilted>0</tilted></_>
    <_>
      <rects>
        <_>
          15 2 3 1 -1.</_>
        <_>
          16 2 1 1 3.</_></rects>
      <tilted>0</tilted></_>
    <_>
      <rects>
        <_>
          15 4 1 6 -1.</_>
        <_>
          15 6 1 2 3.</_></rects>
      <tilted>0</tilted></_>
    <_>
      <rects>
        <_>
          15 6 2 6 -1.</_>
        <_>
          15 6 1 3 2.</_>
        <_>
          16 9 1 3 2.</_></rects>
      <tilted>0</tilted></_>
    <_>
      <rects>
        <_>
          15 9 1 3 -1.</_>
        <_>
          15 10 1 1 3.</_></rects>
      <tilted>0</tilted></_>
    <_>
      <rects>
        <_>
          15 10 3 1 -1.</_>
        <_>
          16 10 1 1 3.</_></rects>
      <tilted>0</tilted></_>
    <_>
      <rects>
        <_>
          15 10 2 4 -1.</_>
        <_>
          16 10 1 4 2.</_></rects>
      <tilted>0</tilted></_>
    <_>
      <rects>
        <_>
          15 10 4 8 -1.</_>
        <_>
          17 10 2 8 2.</_></rects>
      <tilted>0</tilted></_>
    <_>
      <rects>
        <_>
          15 11 2 5 -1.</_>
        <_>
          16 11 1 5 2.</_></rects>
      <tilted>0</tilted></_>
    <_>
      <rects>
        <_>
          15 11 12 6 -1.</_>
        <_>
          19 11 4 6 3.</_></rects>
      <tilted>0</tilted></_>
    <_>
      <rects>
        <_>
          15 12 2 4 -1.</_>
        <_>
          15 12 1 2 2.</_>
        <_>
          16 14 1 2 2.</_></rects>
      <tilted>0</tilted></_>
    <_>
      <rects>
        <_>
          15 12 2 10 -1.</_>
        <_>
          15 12 1 5 2.</_>
        <_>
          16 17 1 5 2.</_></rects>
      <tilted>0</tilted></_>
    <_>
      <rects>
        <_>
          15 13 2 1 -1.</_>
        <_>
          16 13 1 1 2.</_></rects>
      <tilted>0</tilted></_>
    <_>
      <rects>
        <_>
          15 13 1 2 -1.</_>
        <_>
          15 14 1 1 2.</_></rects>
      <tilted>0</tilted></_>
    <_>
      <rects>
        <_>
          15 13 2 3 -1.</_>
        <_>
          16 13 1 3 2.</_></rects>
      <tilted>0</tilted></_>
    <_>
      <rects>
        <_>
          15 15 3 1 -1.</_>
        <_>
          16 15 1 1 3.</_></rects>
      <tilted>0</tilted></_>
    <_>
      <rects>
        <_>
          15 15 4 4 -1.</_>
        <_>
          17 15 2 4 2.</_></rects>
      <tilted>0</tilted></_>
    <_>
      <rects>
        <_>
          15 16 3 1 -1.</_>
        <_>
          16 16 1 1 3.</_></rects>
      <tilted>0</tilted></_>
    <_>
      <rects>
        <_>
          15 16 1 3 -1.</_>
        <_>
          15 17 1 1 3.</_></rects>
      <tilted>0</tilted></_>
    <_>
      <rects>
        <_>
          15 17 2 1 -1.</_>
        <_>
          16 17 1 1 2.</_></rects>
      <tilted>0</tilted></_>
    <_>
      <rects>
        <_>
          15 17 2 2 -1.</_>
        <_>
          16 17 1 2 2.</_></rects>
      <tilted>0</tilted></_>
    <_>
      <rects>
        <_>
          15 18 2 3 -1.</_>
        <_>
          16 18 1 3 2.</_></rects>
      <tilted>0</tilted></_>
    <_>
      <rects>
        <_>
          15 19 3 1 -1.</_>
        <_>
          16 19 1 1 3.</_></rects>
      <tilted>0</tilted></_>
    <_>
      <rects>
        <_>
          15 20 2 5 -1.</_>
        <_>
          16 20 1 5 2.</_></rects>
      <tilted>0</tilted></_>
    <_>
      <rects>
        <_>
          15 21 2 1 -1.</_>
        <_>
          16 21 1 1 2.</_></rects>
      <tilted>0</tilted></_>
    <_>
      <rects>
        <_>
          15 21 2 2 -1.</_>
        <_>
          15 21 1 1 2.</_>
        <_>
          16 22 1 1 2.</_></rects>
      <tilted>0</tilted></_>
    <_>
      <rects>
        <_>
          15 21 6 2 -1.</_>
        <_>
          15 21 3 1 2.</_>
        <_>
          18 22 3 1 2.</_></rects>
      <tilted>0</tilted></_>
    <_>
      <rects>
        <_>
          15 22 3 1 -1.</_>
        <_>
          16 22 1 1 3.</_></rects>
      <tilted>0</tilted></_>
    <_>
      <rects>
        <_>
          15 25 3 5 -1.</_>
        <_>
          16 25 1 5 3.</_></rects>
      <tilted>0</tilted></_>
    <_>
      <rects>
        <_>
          15 28 3 1 -1.</_>
        <_>
          16 28 1 1 3.</_></rects>
      <tilted>0</tilted></_>
    <_>
      <rects>
        <_>
          16 0 2 2 -1.</_>
        <_>
          16 0 1 1 2.</_>
        <_>
          17 1 1 1 2.</_></rects>
      <tilted>0</tilted></_>
    <_>
      <rects>
        <_>
          16 6 8 3 -1.</_>
        <_>
          16 7 8 1 3.</_></rects>
      <tilted>0</tilted></_>
    <_>
      <rects>
        <_>
          16 9 7 9 -1.</_>
        <_>
          16 12 7 3 3.</_></rects>
      <tilted>0</tilted></_>
    <_>
      <rects>
        <_>
          16 10 2 2 -1.</_>
        <_>
          17 10 1 2 2.</_></rects>
      <tilted>0</tilted></_>
    <_>
      <rects>
        <_>
          16 10 3 13 -1.</_>
        <_>
          17 10 1 13 3.</_></rects>
      <tilted>0</tilted></_>
    <_>
      <rects>
        <_>
          16 11 2 2 -1.</_>
        <_>
          16 11 1 1 2.</_>
        <_>
          17 12 1 1 2.</_></rects>
      <tilted>0</tilted></_>
    <_>
      <rects>
        <_>
          16 13 3 1 -1.</_>
        <_>
          17 13 1 1 3.</_></rects>
      <tilted>0</tilted></_>
    <_>
      <rects>
        <_>
          16 15 2 2 -1.</_>
        <_>
          16 16 2 1 2.</_></rects>
      <tilted>0</tilted></_>
    <_>
      <rects>
        <_>
          16 15 5 4 -1.</_>
        <_>
          16 17 5 2 2.</_></rects>
      <tilted>0</tilted></_>
    <_>
      <rects>
        <_>
          16 16 2 1 -1.</_>
        <_>
          17 16 1 1 2.</_></rects>
      <tilted>0</tilted></_>
    <_>
      <rects>
        <_>
          16 16 1 3 -1.</_>
        <_>
          16 17 1 1 3.</_></rects>
      <tilted>0</tilted></_>
    <_>
      <rects>
        <_>
          16 18 6 6 -1.</_>
        <_>
          18 18 2 6 3.</_></rects>
      <tilted>0</tilted></_>
    <_>
      <rects>
        <_>
          17 6 8 6 -1.</_>
        <_>
          17 8 8 2 3.</_></rects>
      <tilted>0</tilted></_>
    <_>
      <rects>
        <_>
          17 9 3 1 -1.</_>
        <_>
          18 9 1 1 3.</_></rects>
      <tilted>0</tilted></_>
    <_>
      <rects>
        <_>
          17 9 8 2 -1.</_>
        <_>
          17 9 4 1 2.</_>
        <_>
          21 10 4 1 2.</_></rects>
      <tilted>0</tilted></_>
    <_>
      <rects>
        <_>
          17 17 10 2 -1.</_>
        <_>
          17 18 10 1 2.</_></rects>
      <tilted>0</tilted></_>
    <_>
      <rects>
        <_>
          17 26 12 2 -1.</_>
        <_>
          23 26 6 2 2.</_></rects>
      <tilted>0</tilted></_>
    <_>
      <rects>
        <_>
          18 3 9 3 -1.</_>
        <_>
          18 4 9 1 3.</_></rects>
      <tilted>0</tilted></_>
    <_>
      <rects>
        <_>
          18 13 9 9 -1.</_>
        <_>
          18 16 9 3 3.</_></rects>
      <tilted>0</tilted></_>
    <_>
      <rects>
        <_>
          18 22 3 8 -1.</_>
        <_>
          19 22 1 8 3.</_></rects>
      <tilted>0</tilted></_>
    <_>
      <rects>
        <_>
          18 25 5 2 -1.</_>
        <_>
          18 26 5 1 2.</_></rects>
      <tilted>0</tilted></_>
    <_>
      <rects>
        <_>
          19 2 6 6 -1.</_>
        <_>
          19 2 3 3 2.</_>
        <_>
          22 5 3 3 2.</_></rects>
      <tilted>0</tilted></_>
    <_>
      <rects>
        <_>
          19 14 4 4 -1.</_>
        <_>
          19 16 4 2 2.</_></rects>
      <tilted>0</tilted></_>
    <_>
      <rects>
        <_>
          19 20 8 2 -1.</_>
        <_>
          23 20 4 2 2.</_></rects>
      <tilted>0</tilted></_>
    <_>
      <rects>
        <_>
          20 11 3 1 -1.</_>
        <_>
          21 11 1 1 3.</_></rects>
      <tilted>0</tilted></_>
    <_>
      <rects>
        <_>
          20 20 4 2 -1.</_>
        <_>
          20 21 4 1 2.</_></rects>
      <tilted>0</tilted></_>
    <_>
      <rects>
        <_>
          20 22 3 1 -1.</_>
        <_>
          21 22 1 1 3.</_></rects>
      <tilted>0</tilted></_>
    <_>
      <rects>
        <_>
          21 5 3 6 -1.</_>
        <_>
          21 7 3 2 3.</_></rects>
      <tilted>0</tilted></_>
    <_>
      <rects>
        <_>
          21 6 2 4 -1.</_>
        <_>
          21 6 1 2 2.</_>
        <_>
          22 8 1 2 2.</_></rects>
      <tilted>0</tilted></_>
    <_>
      <rects>
        <_>
          21 13 3 1 -1.</_>
        <_>
          22 13 1 1 3.</_></rects>
      <tilted>0</tilted></_>
    <_>
      <rects>
        <_>
          21 15 3 2 -1.</_>
        <_>
          22 15 1 2 3.</_></rects>
      <tilted>0</tilted></_>
    <_>
      <rects>
        <_>
          21 16 2 2 -1.</_>
        <_>
          21 16 1 1 2.</_>
        <_>
          22 17 1 1 2.</_></rects>
      <tilted>0</tilted></_>
    <_>
      <rects>
        <_>
          21 26 3 1 -1.</_>
        <_>
          22 26 1 1 3.</_></rects>
      <tilted>0</tilted></_>
    <_>
      <rects>
        <_>
          22 11 6 17 -1.</_>
        <_>
          24 11 2 17 3.</_></rects>
      <tilted>0</tilted></_>
    <_>
      <rects>
        <_>
          22 12 7 6 -1.</_>
        <_>
          22 14 7 2 3.</_></rects>
      <tilted>0</tilted></_>
    <_>
      <rects>
        <_>
          22 15 1 2 -1.</_>
        <_>
          22 16 1 1 2.</_></rects>
      <tilted>0</tilted></_>
    <_>
      <rects>
        <_>
          22 19 6 3 -1.</_>
        <_>
          24 19 2 3 3.</_></rects>
      <tilted>0</tilted></_>
    <_>
      <rects>
        <_>
          23 3 1 6 -1.</_>
        <_>
          23 5 1 2 3.</_></rects>
      <tilted>0</tilted></_>
    <_>
      <rects>
        <_>
          23 11 2 4 -1.</_>
        <_>
          23 11 1 2 2.</_>
        <_>
          24 13 1 2 2.</_></rects>
      <tilted>0</tilted></_>
    <_>
      <rects>
        <_>
          23 12 3 7 -1.</_>
        <_>
          24 12 1 7 3.</_></rects>
      <tilted>0</tilted></_>
    <_>
      <rects>
        <_>
          24 5 4 12 -1.</_>
        <_>
          24 5 2 6 2.</_>
        <_>
          26 11 2 6 2.</_></rects>
      <tilted>0</tilted></_>
    <_>
      <rects>
        <_>
          24 9 4 12 -1.</_>
        <_>
          24 15 4 6 2.</_></rects>
      <tilted>0</tilted></_>
    <_>
      <rects>
        <_>
          24 12 2 16 -1.</_>
        <_>
          24 12 1 8 2.</_>
        <_>
          25 20 1 8 2.</_></rects>
      <tilted>0</tilted></_>
    <_>
      <rects>
        <_>
          24 16 2 2 -1.</_>
        <_>
          24 16 1 1 2.</_>
        <_>
          25 17 1 1 2.</_></rects>
      <tilted>0</tilted></_>
    <_>
      <rects>
        <_>
          24 27 3 1 -1.</_>
        <_>
          25 27 1 1 3.</_></rects>
      <tilted>0</tilted></_>
    <_>
      <rects>
        <_>
          25 18 4 4 -1.</_>
        <_>
          25 20 4 2 2.</_></rects>
      <tilted>0</tilted></_>
    <_>
      <rects>
        <_>
          25 22 3 5 -1.</_>
        <_>
          26 22 1 5 3.</_></rects>
      <tilted>0</tilted></_>
    <_>
      <rects>
        <_>
          26 7 3 2 -1.</_>
        <_>
          27 7 1 2 3.</_></rects>
      <tilted>0</tilted></_>
    <_>
      <rects>
        <_>
          26 11 3 1 -1.</_>
        <_>
          27 11 1 1 3.</_></rects>
      <tilted>0</tilted></_>
    <_>
      <rects>
        <_>
          26 12 3 5 -1.</_>
        <_>
          27 12 1 5 3.</_></rects>
      <tilted>0</tilted></_>
    <_>
      <rects>
        <_>
          26 21 1 3 -1.</_>
        <_>
          26 22 1 1 3.</_></rects>
      <tilted>0</tilted></_>
    <_>
      <rects>
        <_>
          27 3 3 14 -1.</_>
        <_>
          27 10 3 7 2.</_></rects>
      <tilted>0</tilted></_>
    <_>
      <rects>
        <_>
          27 5 3 8 -1.</_>
        <_>
          28 5 1 8 3.</_></rects>
      <tilted>0</tilted></_>
    <_>
      <rects>
        <_>
          27 12 2 2 -1.</_>
        <_>
          27 12 1 1 2.</_>
        <_>
          28 13 1 1 2.</_></rects>
      <tilted>0</tilted></_>
    <_>
      <rects>
        <_>
          27 16 3 1 -1.</_>
        <_>
          28 16 1 1 3.</_></rects>
      <tilted>0</tilted></_>
    <_>
      <rects>
        <_>
          27 16 2 8 -1.</_>
        <_>
          27 16 1 4 2.</_>
        <_>
          28 20 1 4 2.</_></rects>
      <tilted>0</tilted></_>
    <_>
      <rects>
        <_>
          27 26 1 3 -1.</_>
        <_>
          27 27 1 1 3.</_></rects>
      <tilted>0</tilted></_>
    <_>
      <rects>
        <_>
          27 26 2 2 -1.</_>
        <_>
          27 26 1 1 2.</_>
        <_>
          28 27 1 1 2.</_></rects>
      <tilted>0</tilted></_>
    <_>
      <rects>
        <_>
          28 22 1 4 -1.</_>
        <_>
          28 24 1 2 2.</_></rects>
      <tilted>0</tilted></_>
    <_>
      <rects>
        <_>
          29 6 1 10 -1.</_>
        <_>
          29 11 1 5 2.</_></rects>
      <tilted>0</tilted></_></features></cascade>
</opencv_storage>
