<?xml version="1.0"?>
<opencv_storage>
<cascade>
  <stageType>BOOST</stageType>
  <featureType>HAAR</featureType>
  <height>30</height>
  <width>30</width>
  <stageParams>
    <boostType>GAB</boostType>
    <minHitRate>9.9500000476837158e-01</minHitRate>
    <maxFalseAlarm>5.0000000000000000e-01</maxFalseAlarm>
    <weightTrimRate>9.4999999999999996e-01</weightTrimRate>
    <maxDepth>1</maxDepth>
    <maxWeakCount>100</maxWeakCount></stageParams>
  <featureParams>
    <maxCatCount>0</maxCatCount>
    <featSize>1</featSize>
    <mode>BASIC</mode></featureParams>
  <stageNum>12</stageNum>
  <stages>
    <!-- stage 0 -->
    <_>
      <maxWeakCount>30</maxWeakCount>
      <stageThreshold>-8.7643682956695557e-01</stageThreshold>
      <weakClassifiers>
        <_>
          <internalNodes>
            0 -1 567 -7.1131344884634018e-04</internalNodes>
          <leafValues>
            6.0836237668991089e-01 2.1343873813748360e-02</leafValues></_>
        <_>
          <internalNodes>
            0 -1 278 1.4367315452545881e-03</internalNodes>
          <leafValues>
            -1.9566687941551208e-01 4.6296054124832153e-01</leafValues></_>
        <_>
          <internalNodes>
            0 -1 414 -4.0347146568819880e-04</internalNodes>
          <leafValues>
            3.3724194765090942e-01 -1.8708261847496033e-01</leafValues></_>
        <_>
          <internalNodes>
            0 -1 14 -4.1186781600117683e-03</internalNodes>
          <leafValues>
            2.5753396749496460e-01 -2.4389453232288361e-01</leafValues></_>
        <_>
          <internalNodes>
            0 -1 485 -1.7427150160074234e-03</internalNodes>
          <leafValues>
            2.7233144640922546e-01 -2.0490238070487976e-01</leafValues></_>
        <_>
          <internalNodes>
            0 -1 103 -2.3954070638865232e-03</internalNodes>
          <leafValues>
            3.3516335487365723e-01 -1.6331872344017029e-01</leafValues></_>
        <_>
          <internalNodes>
            0 -1 375 4.8900331603363156e-04</internalNodes>
          <leafValues>
            -1.6555197536945343e-01 2.9681280255317688e-01</leafValues></_>
        <_>
          <internalNodes>
            0 -1 260 3.8260959088802338e-02</internalNodes>
          <leafValues>
            8.9626714587211609e-02 -6.6760313510894775e-01</leafValues></_>
        <_>
          <internalNodes>
            0 -1 50 -3.3097034320235252e-03</internalNodes>
          <leafValues>
            3.9323574304580688e-01 -1.3377770781517029e-01</leafValues></_>
        <_>
          <internalNodes>
            0 -1 594 -5.7567441835999489e-03</internalNodes>
          <leafValues>
            3.5849210619926453e-01 -1.3714227080345154e-01</leafValues></_>
        <_>
          <internalNodes>
            0 -1 83 -3.7012468092143536e-03</internalNodes>
          <leafValues>
            3.2710525393486023e-01 -1.3932053744792938e-01</leafValues></_>
        <_>
          <internalNodes>
            0 -1 628 -8.1459450302645564e-04</internalNodes>
          <leafValues>
            3.5809949040412903e-01 -1.0820484906435013e-01</leafValues></_>
        <_>
          <internalNodes>
            0 -1 595 -4.4626705348491669e-03</internalNodes>
          <leafValues>
            3.2861933112144470e-01 -1.1289576441049576e-01</leafValues></_>
        <_>
          <internalNodes>
            0 -1 255 1.8721141386777163e-03</internalNodes>
          <leafValues>
            -1.2318606674671173e-01 3.2072418928146362e-01</leafValues></_>
        <_>
          <internalNodes>
            0 -1 195 -1.9731987267732620e-03</internalNodes>
          <leafValues>
            -6.7582559585571289e-01 6.1488807201385498e-02</leafValues></_>
        <_>
          <internalNodes>
            0 -1 150 2.4658337235450745e-02</internalNodes>
          <leafValues>
            3.5219270735979080e-02 -8.7861049175262451e-01</leafValues></_>
        <_>
          <internalNodes>
            0 -1 436 4.6353199286386371e-04</internalNodes>
          <leafValues>
            -1.4065493643283844e-01 2.8138312697410583e-01</leafValues></_>
        <_>
          <internalNodes>
            0 -1 402 -1.1762813664972782e-03</internalNodes>
          <leafValues>
            3.1833934783935547e-01 -1.2244363129138947e-01</leafValues></_>
        <_>
          <internalNodes>
            0 -1 476 -1.9173487089574337e-04</internalNodes>
          <leafValues>
            2.8567844629287720e-01 -1.4771962165832520e-01</leafValues></_>
        <_>
          <internalNodes>
            0 -1 549 -4.7802091576159000e-03</internalNodes>
          <leafValues>
            -7.6751762628555298e-01 5.2197553217411041e-02</leafValues></_>
        <_>
          <internalNodes>
            0 -1 606 5.2698084618896246e-04</internalNodes>
          <leafValues>
            -1.4735239744186401e-01 2.7071806788444519e-01</leafValues></_>
        <_>
          <internalNodes>
            0 -1 539 2.3591239005327225e-03</internalNodes>
          <leafValues>
            -7.3057383298873901e-02 5.4758697748184204e-01</leafValues></_>
        <_>
          <internalNodes>
            0 -1 272 -3.7418553256429732e-04</internalNodes>
          <leafValues>
            2.2722302377223969e-01 -1.6377957165241241e-01</leafValues></_>
        <_>
          <internalNodes>
            0 -1 265 9.3818958848714828e-03</internalNodes>
          <leafValues>
            6.1300970613956451e-02 -6.9929862022399902e-01</leafValues></_>
        <_>
          <internalNodes>
            0 -1 645 5.3076930344104767e-03</internalNodes>
          <leafValues>
            5.9282884001731873e-02 -6.5835756063461304e-01</leafValues></_>
        <_>
          <internalNodes>
            0 -1 197 -1.2034387327730656e-03</internalNodes>
          <leafValues>
            2.7701297402381897e-01 -1.4556473493576050e-01</leafValues></_>
        <_>
          <internalNodes>
            0 -1 396 -1.4330670237541199e-02</internalNodes>
          <leafValues>
            -5.0245285034179688e-01 8.9562967419624329e-02</leafValues></_>
        <_>
          <internalNodes>
            0 -1 462 -1.3912875438109040e-03</internalNodes>
          <leafValues>
            3.6288207769393921e-01 -1.1898857355117798e-01</leafValues></_>
        <_>
          <internalNodes>
            0 -1 505 1.7173665110021830e-03</internalNodes>
          <leafValues>
            -1.4372354745864868e-01 2.7720779180526733e-01</leafValues></_>
        <_>
          <internalNodes>
            0 -1 433 -9.5168808475136757e-03</internalNodes>
          <leafValues>
            -7.4073928594589233e-01 5.3851541131734848e-02</leafValues></_></weakClassifiers></_>
    <!-- stage 1 -->
    <_>
      <maxWeakCount>46</maxWeakCount>
      <stageThreshold>-7.5733202695846558e-01</stageThreshold>
      <weakClassifiers>
        <_>
          <internalNodes>
            0 -1 443 -6.1061308952048421e-04</internalNodes>
          <leafValues>
            5.4982078075408936e-01 1.0191570967435837e-01</leafValues></_>
        <_>
          <internalNodes>
            0 -1 516 -3.1306545715779066e-03</internalNodes>
          <leafValues>
            3.2155096530914307e-01 -1.2186294794082642e-01</leafValues></_>
        <_>
          <internalNodes>
            0 -1 57 2.7955025434494019e-03</internalNodes>
          <leafValues>
            -2.0080554485321045e-01 2.1162115037441254e-01</leafValues></_>
        <_>
          <internalNodes>
            0 -1 312 -1.1801905930042267e-03</internalNodes>
          <leafValues>
            2.1953965723514557e-01 -1.7382043600082397e-01</leafValues></_>
        <_>
          <internalNodes>
            0 -1 359 7.8902291133999825e-03</internalNodes>
          <leafValues>
            5.0596076995134354e-02 -7.4416035413742065e-01</leafValues></_>
        <_>
          <internalNodes>
            0 -1 59 1.7141062766313553e-02</internalNodes>
          <leafValues>
            7.7207319438457489e-02 -4.1408681869506836e-01</leafValues></_>
        <_>
          <internalNodes>
            0 -1 652 4.3142552021890879e-04</internalNodes>
          <leafValues>
            1.0086883604526520e-01 -3.4083986282348633e-01</leafValues></_>
        <_>
          <internalNodes>
            0 -1 652 -6.3750427216291428e-04</internalNodes>
          <leafValues>
            -4.5551046729087830e-01 8.1737272441387177e-02</leafValues></_>
        <_>
          <internalNodes>
            0 -1 92 8.0663077533245087e-03</internalNodes>
          <leafValues>
            -8.2721211016178131e-02 3.7046587467193604e-01</leafValues></_>
        <_>
          <internalNodes>
            0 -1 76 -8.0062113702297211e-03</internalNodes>
          <leafValues>
            2.7368968725204468e-01 -1.3901317119598389e-01</leafValues></_>
        <_>
          <internalNodes>
            0 -1 352 -9.8289716988801956e-03</internalNodes>
          <leafValues>
            -6.0924839973449707e-01 6.2665455043315887e-02</leafValues></_>
        <_>
          <internalNodes>
            0 -1 336 -1.1480736546218395e-02</internalNodes>
          <leafValues>
            2.8170436620712280e-01 -1.2351004779338837e-01</leafValues></_>
        <_>
          <internalNodes>
            0 -1 553 -2.2493568249046803e-03</internalNodes>
          <leafValues>
            3.6733165383338928e-01 -8.6875729262828827e-02</leafValues></_>
        <_>
          <internalNodes>
            0 -1 550 1.5086014755070210e-03</internalNodes>
          <leafValues>
            -1.1319801956415176e-01 3.8071539998054504e-01</leafValues></_>
        <_>
          <internalNodes>
            0 -1 303 1.5152498148381710e-02</internalNodes>
          <leafValues>
            6.5063953399658203e-02 -5.9412413835525513e-01</leafValues></_>
        <_>
          <internalNodes>
            0 -1 599 2.6833207812160254e-04</internalNodes>
          <leafValues>
            -1.3801293075084686e-01 2.3995389044284821e-01</leafValues></_>
        <_>
          <internalNodes>
            0 -1 360 2.1739790216088295e-02</internalNodes>
          <leafValues>
            4.5082356780767441e-02 -6.6228860616683960e-01</leafValues></_>
        <_>
          <internalNodes>
            0 -1 330 -2.4906001053750515e-03</internalNodes>
          <leafValues>
            3.1745293736457825e-01 -1.0546920448541641e-01</leafValues></_>
        <_>
          <internalNodes>
            0 -1 211 -2.3376245517283678e-03</internalNodes>
          <leafValues>
            2.3407384753227234e-01 -1.3596248626708984e-01</leafValues></_>
        <_>
          <internalNodes>
            0 -1 148 2.2104105446487665e-03</internalNodes>
          <leafValues>
            4.9279935657978058e-02 -6.7050307989120483e-01</leafValues></_>
        <_>
          <internalNodes>
            0 -1 554 2.3216770496219397e-03</internalNodes>
          <leafValues>
            3.6352932453155518e-02 -7.5389701128005981e-01</leafValues></_>
        <_>
          <internalNodes>
            0 -1 294 2.0832751761190593e-04</internalNodes>
          <leafValues>
            -1.3551585376262665e-01 2.3445510864257812e-01</leafValues></_>
        <_>
          <internalNodes>
            0 -1 309 -1.6946123912930489e-02</internalNodes>
          <leafValues>
            -7.3912763595581055e-01 3.8029331713914871e-02</leafValues></_>
        <_>
          <internalNodes>
            0 -1 165 4.3821139261126518e-03</internalNodes>
          <leafValues>
            -1.3011252880096436e-01 2.5815257430076599e-01</leafValues></_>
        <_>
          <internalNodes>
            0 -1 35 -1.1711069941520691e-01</internalNodes>
          <leafValues>
            3.7744557857513428e-01 -8.0170571804046631e-02</leafValues></_>
        <_>
          <internalNodes>
            0 -1 219 6.6546693444252014e-02</internalNodes>
          <leafValues>
            -8.8577046990394592e-02 4.0707609057426453e-01</leafValues></_>
        <_>
          <internalNodes>
            0 -1 581 8.4450561553239822e-04</internalNodes>
          <leafValues>
            -9.4214677810668945e-02 3.2981491088867188e-01</leafValues></_>
        <_>
          <internalNodes>
            0 -1 535 1.8991625402122736e-03</internalNodes>
          <leafValues>
            -1.1068668961524963e-01 3.3663016557693481e-01</leafValues></_>
        <_>
          <internalNodes>
            0 -1 420 8.7164370343089104e-03</internalNodes>
          <leafValues>
            8.3169810473918915e-02 -4.8304823040962219e-01</leafValues></_>
        <_>
          <internalNodes>
            0 -1 544 8.3250179886817932e-04</internalNodes>
          <leafValues>
            -1.1791465431451797e-01 2.8890496492385864e-01</leafValues></_>
        <_>
          <internalNodes>
            0 -1 589 -1.1365065583959222e-03</internalNodes>
          <leafValues>
            -5.9857368469238281e-01 6.1012744903564453e-02</leafValues></_>
        <_>
          <internalNodes>
            0 -1 49 -1.0509869083762169e-02</internalNodes>
          <leafValues>
            3.3530157804489136e-01 -1.0056588053703308e-01</leafValues></_>
        <_>
          <internalNodes>
            0 -1 363 1.9620251841843128e-03</internalNodes>
          <leafValues>
            -1.0918381810188293e-01 2.9116007685661316e-01</leafValues></_>
        <_>
          <internalNodes>
            0 -1 172 -1.5770439058542252e-03</internalNodes>
          <leafValues>
            -7.6576429605484009e-01 3.7605214864015579e-02</leafValues></_>
        <_>
          <internalNodes>
            0 -1 641 -4.4281296432018280e-03</internalNodes>
          <leafValues>
            -7.1183568239212036e-01 3.3846642822027206e-02</leafValues></_>
        <_>
          <internalNodes>
            0 -1 183 4.5828893780708313e-04</internalNodes>
          <leafValues>
            -1.3083560764789581e-01 2.5524586439132690e-01</leafValues></_>
        <_>
          <internalNodes>
            0 -1 240 -5.6064855307340622e-03</internalNodes>
          <leafValues>
            -5.7768505811691284e-01 6.0860678553581238e-02</leafValues></_>
        <_>
          <internalNodes>
            0 -1 637 9.1436924412846565e-04</internalNodes>
          <leafValues>
            -1.2426885217428207e-01 2.6692610979080200e-01</leafValues></_>
        <_>
          <internalNodes>
            0 -1 88 1.3349372893571854e-03</internalNodes>
          <leafValues>
            -1.5139566361904144e-01 2.0366585254669189e-01</leafValues></_>
        <_>
          <internalNodes>
            0 -1 545 -9.5333217177540064e-04</internalNodes>
          <leafValues>
            2.3884008824825287e-01 -1.1976200342178345e-01</leafValues></_>
        <_>
          <internalNodes>
            0 -1 454 2.6503419503569603e-03</internalNodes>
          <leafValues>
            -8.8282197713851929e-02 3.4992915391921997e-01</leafValues></_>
        <_>
          <internalNodes>
            0 -1 362 -1.8674238817766309e-03</internalNodes>
          <leafValues>
            -4.3546175956726074e-01 7.2951488196849823e-02</leafValues></_>
        <_>
          <internalNodes>
            0 -1 106 5.0727603957056999e-03</internalNodes>
          <leafValues>
            5.5538564920425415e-02 -4.9904578924179077e-01</leafValues></_>
        <_>
          <internalNodes>
            0 -1 513 -4.0080214967019856e-04</internalNodes>
          <leafValues>
            -3.1816530227661133e-01 8.8387966156005859e-02</leafValues></_>
        <_>
          <internalNodes>
            0 -1 555 4.5243924250826240e-04</internalNodes>
          <leafValues>
            -1.3054578006267548e-01 2.3513998091220856e-01</leafValues></_>
        <_>
          <internalNodes>
            0 -1 562 1.1426266282796860e-03</internalNodes>
          <leafValues>
            8.6308002471923828e-02 -3.4413304924964905e-01</leafValues></_></weakClassifiers></_>
    <!-- stage 2 -->
    <_>
      <maxWeakCount>50</maxWeakCount>
      <stageThreshold>-6.3731461763381958e-01</stageThreshold>
      <weakClassifiers>
        <_>
          <internalNodes>
            0 -1 277 -1.6302871517837048e-03</internalNodes>
          <leafValues>
            5.8753436803817749e-01 1.6096954047679901e-01</leafValues></_>
        <_>
          <internalNodes>
            0 -1 409 -1.3733782107010484e-03</internalNodes>
          <leafValues>
            2.2952952980995178e-01 -1.4812596142292023e-01</leafValues></_>
        <_>
          <internalNodes>
            0 -1 369 3.7784283631481230e-04</internalNodes>
          <leafValues>
            -1.3514970242977142e-01 2.1264979243278503e-01</leafValues></_>
        <_>
          <internalNodes>
            0 -1 242 1.7930183559656143e-02</internalNodes>
          <leafValues>
            4.6661105006933212e-02 -7.0492160320281982e-01</leafValues></_>
        <_>
          <internalNodes>
            0 -1 415 -7.3518685530871153e-04</internalNodes>
          <leafValues>
            2.3253431916236877e-01 -1.5363991260528564e-01</leafValues></_>
        <_>
          <internalNodes>
            0 -1 484 -1.3000591425225139e-03</internalNodes>
          <leafValues>
            2.1453499794006348e-01 -1.8815521895885468e-01</leafValues></_>
        <_>
          <internalNodes>
            0 -1 531 -4.9655586481094360e-03</internalNodes>
          <leafValues>
            -7.0444923639297485e-01 5.3322080522775650e-02</leafValues></_>
        <_>
          <internalNodes>
            0 -1 495 7.9229462426155806e-04</internalNodes>
          <leafValues>
            -1.2734301388263702e-01 2.7235865592956543e-01</leafValues></_>
        <_>
          <internalNodes>
            0 -1 475 -4.1093155741691589e-03</internalNodes>
          <leafValues>
            2.9850167036056519e-01 -1.0615684092044830e-01</leafValues></_>
        <_>
          <internalNodes>
            0 -1 636 1.9366522319614887e-03</internalNodes>
          <leafValues>
            4.2012527585029602e-02 -5.9997093677520752e-01</leafValues></_>
        <_>
          <internalNodes>
            0 -1 517 -2.5549591518938541e-03</internalNodes>
          <leafValues>
            -8.5994708538055420e-01 2.8072237968444824e-02</leafValues></_>
        <_>
          <internalNodes>
            0 -1 319 6.1448983615264297e-04</internalNodes>
          <leafValues>
            -1.1762271821498871e-01 2.2507557272911072e-01</leafValues></_>
        <_>
          <internalNodes>
            0 -1 430 7.2464148979634047e-04</internalNodes>
          <leafValues>
            -1.0332208126783371e-01 2.8859016299247742e-01</leafValues></_>
        <_>
          <internalNodes>
            0 -1 31 -1.3817954808473587e-02</internalNodes>
          <leafValues>
            -6.1566245555877686e-01 4.5605506747961044e-02</leafValues></_>
        <_>
          <internalNodes>
            0 -1 25 -1.8437501043081284e-02</internalNodes>
          <leafValues>
            3.3609315752983093e-01 -8.0557473003864288e-02</leafValues></_>
        <_>
          <internalNodes>
            0 -1 56 2.2920630872249603e-03</internalNodes>
          <leafValues>
            -1.2651681900024414e-01 2.1257309615612030e-01</leafValues></_>
        <_>
          <internalNodes>
            0 -1 247 1.3009215472266078e-03</internalNodes>
          <leafValues>
            7.9045541584491730e-02 -3.8599827885627747e-01</leafValues></_>
        <_>
          <internalNodes>
            0 -1 684 3.8109370507299900e-04</internalNodes>
          <leafValues>
            -1.3076643645763397e-01 2.2688853740692139e-01</leafValues></_>
        <_>
          <internalNodes>
            0 -1 413 1.2518407776951790e-02</internalNodes>
          <leafValues>
            4.9521371722221375e-02 -5.0780999660491943e-01</leafValues></_>
        <_>
          <internalNodes>
            0 -1 298 1.4694659039378166e-03</internalNodes>
          <leafValues>
            -1.4886163175106049e-01 1.7576944828033447e-01</leafValues></_>
        <_>
          <internalNodes>
            0 -1 226 -5.1087085157632828e-03</internalNodes>
          <leafValues>
            -5.4707211256027222e-01 5.1117360591888428e-02</leafValues></_>
        <_>
          <internalNodes>
            0 -1 132 9.9285207688808441e-03</internalNodes>
          <leafValues>
            -8.0120302736759186e-02 3.6206606030464172e-01</leafValues></_>
        <_>
          <internalNodes>
            0 -1 261 3.2222963636741042e-04</internalNodes>
          <leafValues>
            -1.0171765834093094e-01 2.5815072655677795e-01</leafValues></_>
        <_>
          <internalNodes>
            0 -1 158 -9.9900236818939447e-04</internalNodes>
          <leafValues>
            -4.8054528236389160e-01 5.2485860884189606e-02</leafValues></_>
        <_>
          <internalNodes>
            0 -1 140 -4.4054258614778519e-03</internalNodes>
          <leafValues>
            3.8704401254653931e-01 -7.1452252566814423e-02</leafValues></_>
        <_>
          <internalNodes>
            0 -1 490 5.3636385127902031e-03</internalNodes>
          <leafValues>
            4.7286257147789001e-02 -6.3404262065887451e-01</leafValues></_>
        <_>
          <internalNodes>
            0 -1 709 -6.9596618413925171e-04</internalNodes>
          <leafValues>
            -3.8228228688240051e-01 5.7423107326030731e-02</leafValues></_>
        <_>
          <internalNodes>
            0 -1 373 7.2840512730181217e-03</internalNodes>
          <leafValues>
            4.2224727571010590e-02 -6.1350619792938232e-01</leafValues></_>
        <_>
          <internalNodes>
            0 -1 130 2.0973472855985165e-03</internalNodes>
          <leafValues>
            5.8779384940862656e-02 -4.3407458066940308e-01</leafValues></_>
        <_>
          <internalNodes>
            0 -1 455 2.1995473071001470e-04</internalNodes>
          <leafValues>
            -1.2805834412574768e-01 2.0502422749996185e-01</leafValues></_>
        <_>
          <internalNodes>
            0 -1 448 -1.6564577817916870e-03</internalNodes>
          <leafValues>
            3.9479711651802063e-01 -7.1498148143291473e-02</leafValues></_>
        <_>
          <internalNodes>
            0 -1 98 -2.6298971846699715e-02</internalNodes>
          <leafValues>
            2.9302427172660828e-01 -9.6310332417488098e-02</leafValues></_>
        <_>
          <internalNodes>
            0 -1 355 2.0391193684190512e-03</internalNodes>
          <leafValues>
            -9.4860374927520752e-02 2.6494807004928589e-01</leafValues></_>
        <_>
          <internalNodes>
            0 -1 346 -1.3813218101859093e-03</internalNodes>
          <leafValues>
            2.5947996973991394e-01 -1.0823769867420197e-01</leafValues></_>
        <_>
          <internalNodes>
            0 -1 652 4.3138972250744700e-04</internalNodes>
          <leafValues>
            8.2142584025859833e-02 -3.0809041857719421e-01</leafValues></_>
        <_>
          <internalNodes>
            0 -1 78 -1.5508567448705435e-03</internalNodes>
          <leafValues>
            2.1659316122531891e-01 -1.1508173495531082e-01</leafValues></_>
        <_>
          <internalNodes>
            0 -1 621 5.2965804934501648e-04</internalNodes>
          <leafValues>
            -1.1561267822980881e-01 2.2119623422622681e-01</leafValues></_>
        <_>
          <internalNodes>
            0 -1 680 -1.9325834000483155e-04</internalNodes>
          <leafValues>
            2.1326133608818054e-01 -1.2597422301769257e-01</leafValues></_>
        <_>
          <internalNodes>
            0 -1 210 4.9795338418334723e-04</internalNodes>
          <leafValues>
            -1.2210359424352646e-01 2.1375007927417755e-01</leafValues></_>
        <_>
          <internalNodes>
            0 -1 30 -1.4593626838177443e-03</internalNodes>
          <leafValues>
            -6.2994921207427979e-01 3.9311990141868591e-02</leafValues></_>
        <_>
          <internalNodes>
            0 -1 534 3.4430604428052902e-02</internalNodes>
          <leafValues>
            3.1677573919296265e-02 -6.5222209692001343e-01</leafValues></_>
        <_>
          <internalNodes>
            0 -1 465 1.2037020642310381e-03</internalNodes>
          <leafValues>
            -8.6587667465209961e-02 2.9014331102371216e-01</leafValues></_>
        <_>
          <internalNodes>
            0 -1 285 -4.2605760972946882e-04</internalNodes>
          <leafValues>
            2.1785339713096619e-01 -1.2256710976362228e-01</leafValues></_>
        <_>
          <internalNodes>
            0 -1 489 1.7295493744313717e-03</internalNodes>
          <leafValues>
            3.9483595639467239e-02 -7.3397839069366455e-01</leafValues></_>
        <_>
          <internalNodes>
            0 -1 391 2.6116215158253908e-03</internalNodes>
          <leafValues>
            2.4790637195110321e-02 -8.0981111526489258e-01</leafValues></_>
        <_>
          <internalNodes>
            0 -1 64 1.4752281829714775e-02</internalNodes>
          <leafValues>
            3.6962386220693588e-02 -5.5454891920089722e-01</leafValues></_>
        <_>
          <internalNodes>
            0 -1 204 -6.1539616435766220e-02</internalNodes>
          <leafValues>
            -7.0432937145233154e-01 3.1496997922658920e-02</leafValues></_>
        <_>
          <internalNodes>
            0 -1 207 4.0804140735417604e-04</internalNodes>
          <leafValues>
            -1.2991027534008026e-01 2.1698656678199768e-01</leafValues></_>
        <_>
          <internalNodes>
            0 -1 115 8.0747045576572418e-03</internalNodes>
          <leafValues>
            4.6972725540399551e-02 -5.4679995775222778e-01</leafValues></_>
        <_>
          <internalNodes>
            0 -1 561 -9.1697007883340120e-04</internalNodes>
          <leafValues>
            -3.5197949409484863e-01 6.7361123859882355e-02</leafValues></_></weakClassifiers></_>
    <!-- stage 3 -->
    <_>
      <maxWeakCount>55</maxWeakCount>
      <stageThreshold>-7.0735514163970947e-01</stageThreshold>
      <weakClassifiers>
        <_>
          <internalNodes>
            0 -1 507 4.1741406312212348e-04</internalNodes>
          <leafValues>
            1.8566392362117767e-01 5.8517032861709595e-01</leafValues></_>
        <_>
          <internalNodes>
            0 -1 406 -1.3904942898079753e-03</internalNodes>
          <leafValues>
            3.1478026509284973e-01 -9.8157480359077454e-02</leafValues></_>
        <_>
          <internalNodes>
            0 -1 274 -3.3560753799974918e-03</internalNodes>
          <leafValues>
            2.6992669701576233e-01 -1.3421098887920380e-01</leafValues></_>
        <_>
          <internalNodes>
            0 -1 357 -1.0283477604389191e-02</internalNodes>
          <leafValues>
            -7.5592792034149170e-01 3.1283095479011536e-02</leafValues></_>
        <_>
          <internalNodes>
            0 -1 302 1.8279733136296272e-02</internalNodes>
          <leafValues>
            6.2466438859701157e-02 -5.6088823080062866e-01</leafValues></_>
        <_>
          <internalNodes>
            0 -1 425 8.9751981431618333e-04</internalNodes>
          <leafValues>
            -1.5428501367568970e-01 2.3703306913375854e-01</leafValues></_>
        <_>
          <internalNodes>
            0 -1 313 7.0495251566171646e-04</internalNodes>
          <leafValues>
            -1.2669023871421814e-01 2.3290486633777618e-01</leafValues></_>
        <_>
          <internalNodes>
            0 -1 52 5.2578593604266644e-03</internalNodes>
          <leafValues>
            -1.5667828917503357e-01 1.8748255074024200e-01</leafValues></_>
        <_>
          <internalNodes>
            0 -1 398 1.2333620339632034e-02</internalNodes>
          <leafValues>
            3.8639206439256668e-02 -5.0697517395019531e-01</leafValues></_>
        <_>
          <internalNodes>
            0 -1 520 -2.9965068679302931e-03</internalNodes>
          <leafValues>
            -6.4476209878921509e-01 5.2205711603164673e-02</leafValues></_>
        <_>
          <internalNodes>
            0 -1 344 -1.8291329033672810e-03</internalNodes>
          <leafValues>
            2.3055401444435120e-01 -1.2421042472124100e-01</leafValues></_>
        <_>
          <internalNodes>
            0 -1 105 4.0734186768531799e-02</internalNodes>
          <leafValues>
            9.5983199775218964e-02 -2.6431444287300110e-01</leafValues></_>
        <_>
          <internalNodes>
            0 -1 640 -2.4134073406457901e-02</internalNodes>
          <leafValues>
            -4.6103215217590332e-01 5.9080932289361954e-02</leafValues></_>
        <_>
          <internalNodes>
            0 -1 23 3.2821139320731163e-03</internalNodes>
          <leafValues>
            7.2764515876770020e-02 -3.5672256350517273e-01</leafValues></_>
        <_>
          <internalNodes>
            0 -1 450 5.9909019619226456e-03</internalNodes>
          <leafValues>
            -4.0480967611074448e-02 5.8421373367309570e-01</leafValues></_>
        <_>
          <internalNodes>
            0 -1 203 -2.7395186945796013e-02</internalNodes>
          <leafValues>
            -4.2641770839691162e-01 6.2373984605073929e-02</leafValues></_>
        <_>
          <internalNodes>
            0 -1 301 1.1048354208469391e-02</internalNodes>
          <leafValues>
            4.7688402235507965e-02 -5.7005161046981812e-01</leafValues></_>
        <_>
          <internalNodes>
            0 -1 326 1.6891341656446457e-03</internalNodes>
          <leafValues>
            5.4181315004825592e-02 -4.4662949442863464e-01</leafValues></_>
        <_>
          <internalNodes>
            0 -1 580 3.4894834971055388e-04</internalNodes>
          <leafValues>
            -1.0818161815404892e-01 2.4812389910221100e-01</leafValues></_>
        <_>
          <internalNodes>
            0 -1 368 1.6011565458029509e-03</internalNodes>
          <leafValues>
            4.7770753502845764e-02 -5.3832435607910156e-01</leafValues></_>
        <_>
          <internalNodes>
            0 -1 493 -1.9006435759365559e-03</internalNodes>
          <leafValues>
            2.7334293723106384e-01 -1.0065315663814545e-01</leafValues></_>
        <_>
          <internalNodes>
            0 -1 497 -1.0542196687310934e-03</internalNodes>
          <leafValues>
            2.6896309852600098e-01 -1.0977157205343246e-01</leafValues></_>
        <_>
          <internalNodes>
            0 -1 650 -1.5568197704851627e-03</internalNodes>
          <leafValues>
            -7.4991828203201294e-01 4.1364319622516632e-02</leafValues></_>
        <_>
          <internalNodes>
            0 -1 607 1.0427823290228844e-02</internalNodes>
          <leafValues>
            8.2101047039031982e-02 -3.1190133094787598e-01</leafValues></_>
        <_>
          <internalNodes>
            0 -1 500 1.2025181204080582e-03</internalNodes>
          <leafValues>
            -1.2172915041446686e-01 2.1622431278228760e-01</leafValues></_>
        <_>
          <internalNodes>
            0 -1 578 7.1171009913086891e-03</internalNodes>
          <leafValues>
            4.5033849775791168e-02 -6.5323144197463989e-01</leafValues></_>
        <_>
          <internalNodes>
            0 -1 75 6.9452049210667610e-03</internalNodes>
          <leafValues>
            6.5609842538833618e-02 -3.6242330074310303e-01</leafValues></_>
        <_>
          <internalNodes>
            0 -1 4 -3.7783542647957802e-03</internalNodes>
          <leafValues>
            -3.5429418087005615e-01 7.4213340878486633e-02</leafValues></_>
        <_>
          <internalNodes>
            0 -1 275 1.1497667059302330e-02</internalNodes>
          <leafValues>
            5.4002434015274048e-02 -4.6559661626815796e-01</leafValues></_>
        <_>
          <internalNodes>
            0 -1 349 8.0616178456693888e-04</internalNodes>
          <leafValues>
            -9.2668794095516205e-02 2.6769998669624329e-01</leafValues></_>
        <_>
          <internalNodes>
            0 -1 424 -9.8863616585731506e-04</internalNodes>
          <leafValues>
            2.3614940047264099e-01 -1.1998841166496277e-01</leafValues></_>
        <_>
          <internalNodes>
            0 -1 9 1.1197819840162992e-03</internalNodes>
          <leafValues>
            1.0675767809152603e-01 -2.6491966843605042e-01</leafValues></_>
        <_>
          <internalNodes>
            0 -1 350 -9.9635915830731392e-04</internalNodes>
          <leafValues>
            2.2289054095745087e-01 -1.1904212087392807e-01</leafValues></_>
        <_>
          <internalNodes>
            0 -1 630 -7.5711188837885857e-03</internalNodes>
          <leafValues>
            -5.3750658035278320e-01 5.7176399976015091e-02</leafValues></_>
        <_>
          <internalNodes>
            0 -1 11 -2.4277923628687859e-02</internalNodes>
          <leafValues>
            4.9321320652961731e-01 -5.5355690419673920e-02</leafValues></_>
        <_>
          <internalNodes>
            0 -1 126 2.6013825554400682e-03</internalNodes>
          <leafValues>
            7.8629471361637115e-02 -3.2626503705978394e-01</leafValues></_>
        <_>
          <internalNodes>
            0 -1 706 1.4204797334969044e-03</internalNodes>
          <leafValues>
            5.6936770677566528e-02 -3.9179977774620056e-01</leafValues></_>
        <_>
          <internalNodes>
            0 -1 711 -7.8943360131233931e-04</internalNodes>
          <leafValues>
            2.8495052456855774e-01 -9.2091284692287445e-02</leafValues></_>
        <_>
          <internalNodes>
            0 -1 487 -4.3878005817532539e-03</internalNodes>
          <leafValues>
            -5.3506374359130859e-01 5.5260766297578812e-02</leafValues></_>
        <_>
          <internalNodes>
            0 -1 411 -7.7765788882970810e-03</internalNodes>
          <leafValues>
            2.2682051360607147e-01 -1.1720408499240875e-01</leafValues></_>
        <_>
          <internalNodes>
            0 -1 201 1.2663824018090963e-03</internalNodes>
          <leafValues>
            -1.1557763069868088e-01 2.2313010692596436e-01</leafValues></_>
        <_>
          <internalNodes>
            0 -1 642 -3.1027649529278278e-03</internalNodes>
          <leafValues>
            -5.6251209974288940e-01 4.3600786477327347e-02</leafValues></_>
        <_>
          <internalNodes>
            0 -1 677 1.5068249776959419e-03</internalNodes>
          <leafValues>
            4.6515595167875290e-02 -5.0083094835281372e-01</leafValues></_>
        <_>
          <internalNodes>
            0 -1 39 -1.0640755295753479e-02</internalNodes>
          <leafValues>
            4.1060182452201843e-01 -6.0355287045240402e-02</leafValues></_>
        <_>
          <internalNodes>
            0 -1 563 8.3624606486409903e-04</internalNodes>
          <leafValues>
            6.2386862933635712e-02 -4.0295475721359253e-01</leafValues></_>
        <_>
          <internalNodes>
            0 -1 133 1.3990933075547218e-03</internalNodes>
          <leafValues>
            3.3104762434959412e-02 -5.7297289371490479e-01</leafValues></_>
        <_>
          <internalNodes>
            0 -1 351 1.1866705026477575e-03</internalNodes>
          <leafValues>
            -7.6558820903301239e-02 2.9719045758247375e-01</leafValues></_>
        <_>
          <internalNodes>
            0 -1 63 -1.5683986246585846e-02</internalNodes>
          <leafValues>
            -5.9133774042129517e-01 4.1498046368360519e-02</leafValues></_>
        <_>
          <internalNodes>
            0 -1 575 2.4433361249975860e-04</internalNodes>
          <leafValues>
            -1.2703390419483185e-01 1.8160612881183624e-01</leafValues></_>
        <_>
          <internalNodes>
            0 -1 269 -7.2912247851490974e-03</internalNodes>
          <leafValues>
            4.6377021074295044e-01 -4.8755519092082977e-02</leafValues></_>
        <_>
          <internalNodes>
            0 -1 387 -2.3983709979802370e-04</internalNodes>
          <leafValues>
            2.1502128243446350e-01 -1.1417462676763535e-01</leafValues></_>
        <_>
          <internalNodes>
            0 -1 502 1.8307316349819303e-04</internalNodes>
          <leafValues>
            -1.2598340213298798e-01 2.1232718229293823e-01</leafValues></_>
        <_>
          <internalNodes>
            0 -1 382 6.5458281897008419e-03</internalNodes>
          <leafValues>
            5.7497128844261169e-02 -4.5613810420036316e-01</leafValues></_>
        <_>
          <internalNodes>
            0 -1 348 2.1567042917013168e-02</internalNodes>
          <leafValues>
            3.1467918306589127e-02 -7.0685815811157227e-01</leafValues></_>
        <_>
          <internalNodes>
            0 -1 392 -1.4480042736977339e-03</internalNodes>
          <leafValues>
            2.5273004174232483e-01 -9.1188669204711914e-02</leafValues></_></weakClassifiers></_>
    <!-- stage 4 -->
    <_>
      <maxWeakCount>69</maxWeakCount>
      <stageThreshold>-6.3395565748214722e-01</stageThreshold>
      <weakClassifiers>
        <_>
          <internalNodes>
            0 -1 385 -1.8910608487203717e-03</internalNodes>
          <leafValues>
            5.6659621000289917e-01 2.0752565562725067e-01</leafValues></_>
        <_>
          <internalNodes>
            0 -1 281 2.3685295600444078e-03</internalNodes>
          <leafValues>
            -4.0913425385951996e-02 4.8879903554916382e-01</leafValues></_>
        <_>
          <internalNodes>
            0 -1 214 3.9547765627503395e-03</internalNodes>
          <leafValues>
            -8.5528977215290070e-02 3.6320883035659790e-01</leafValues></_>
        <_>
          <internalNodes>
            0 -1 488 1.6869537066668272e-03</internalNodes>
          <leafValues>
            1.5798687934875488e-02 -7.9664260149002075e-01</leafValues></_>
        <_>
          <internalNodes>
            0 -1 375 7.0715078618377447e-04</internalNodes>
          <leafValues>
            -1.1166984587907791e-01 2.2632274031639099e-01</leafValues></_>
        <_>
          <internalNodes>
            0 -1 324 -5.7732383720576763e-03</internalNodes>
          <leafValues>
            -6.6052973270416260e-01 2.6723295450210571e-02</leafValues></_>
        <_>
          <internalNodes>
            0 -1 678 -2.0532519556581974e-03</internalNodes>
          <leafValues>
            3.0809468030929565e-01 -7.6474614441394806e-02</leafValues></_>
        <_>
          <internalNodes>
            0 -1 469 5.1799379289150238e-03</internalNodes>
          <leafValues>
            9.4616219401359558e-02 -2.4134339392185211e-01</leafValues></_>
        <_>
          <internalNodes>
            0 -1 365 2.9413877055048943e-03</internalNodes>
          <leafValues>
            8.5577890276908875e-02 -2.7376645803451538e-01</leafValues></_>
        <_>
          <internalNodes>
            0 -1 307 8.2301134243607521e-03</internalNodes>
          <leafValues>
            4.9788128584623337e-02 -4.9702736735343933e-01</leafValues></_>
        <_>
          <internalNodes>
            0 -1 538 6.4429303165525198e-04</internalNodes>
          <leafValues>
            -1.0640180110931396e-01 2.3121897876262665e-01</leafValues></_>
        <_>
          <internalNodes>
            0 -1 539 -1.0355749400332570e-03</internalNodes>
          <leafValues>
            2.7941554784774780e-01 -1.4588274061679840e-01</leafValues></_>
        <_>
          <internalNodes>
            0 -1 704 7.6987984357401729e-04</internalNodes>
          <leafValues>
            6.1184771358966827e-02 -3.9525610208511353e-01</leafValues></_>
        <_>
          <internalNodes>
            0 -1 322 -5.7888817973434925e-03</internalNodes>
          <leafValues>
            -8.2668620347976685e-01 3.0104653909802437e-02</leafValues></_>
        <_>
          <internalNodes>
            0 -1 36 -1.5993553400039673e-01</internalNodes>
          <leafValues>
            8.4780943393707275e-01 -2.8529090806841850e-02</leafValues></_>
        <_>
          <internalNodes>
            0 -1 464 -4.7056758776307106e-03</internalNodes>
          <leafValues>
            4.0669062733650208e-01 -5.0544578582048416e-02</leafValues></_>
        <_>
          <internalNodes>
            0 -1 306 2.0791946444660425e-03</internalNodes>
          <leafValues>
            -6.8200126290321350e-02 2.9029405117034912e-01</leafValues></_>
        <_>
          <internalNodes>
            0 -1 202 1.0946515947580338e-02</internalNodes>
          <leafValues>
            -5.3605735301971436e-02 3.9152845740318298e-01</leafValues></_>
        <_>
          <internalNodes>
            0 -1 518 -1.5789744211360812e-03</internalNodes>
          <leafValues>
            -4.5964437723159790e-01 4.6044070273637772e-02</leafValues></_>
        <_>
          <internalNodes>
            0 -1 144 1.2029963545501232e-03</internalNodes>
          <leafValues>
            -1.0080637782812119e-01 2.0958060026168823e-01</leafValues></_>
        <_>
          <internalNodes>
            0 -1 109 3.3097746782004833e-03</internalNodes>
          <leafValues>
            -1.3845057785511017e-01 1.5356607735157013e-01</leafValues></_>
        <_>
          <internalNodes>
            0 -1 477 -5.9872465208172798e-03</internalNodes>
          <leafValues>
            3.4727996587753296e-01 -5.5306676775217056e-02</leafValues></_>
        <_>
          <internalNodes>
            0 -1 223 -1.6415142454206944e-03</internalNodes>
          <leafValues>
            -7.2009199857711792e-01 2.8547653928399086e-02</leafValues></_>
        <_>
          <internalNodes>
            0 -1 604 2.9627018375322223e-04</internalNodes>
          <leafValues>
            -1.1141475290060043e-01 1.8788847327232361e-01</leafValues></_>
        <_>
          <internalNodes>
            0 -1 494 2.2399979643523693e-03</internalNodes>
          <leafValues>
            -7.9692281782627106e-02 2.7543914318084717e-01</leafValues></_>
        <_>
          <internalNodes>
            0 -1 612 -2.1069701761007309e-03</internalNodes>
          <leafValues>
            -5.9357553720474243e-01 3.5882022231817245e-02</leafValues></_>
        <_>
          <internalNodes>
            0 -1 528 1.8158876337110996e-03</internalNodes>
          <leafValues>
            2.6787729933857918e-02 -7.6623433828353882e-01</leafValues></_>
        <_>
          <internalNodes>
            0 -1 447 9.3955220654606819e-04</internalNodes>
          <leafValues>
            -1.0125711560249329e-01 2.2299580276012421e-01</leafValues></_>
        <_>
          <internalNodes>
            0 -1 149 -1.7629620851948857e-03</internalNodes>
          <leafValues>
            -8.1524413824081421e-01 2.7912449091672897e-02</leafValues></_>
        <_>
          <internalNodes>
            0 -1 481 -4.6641111373901367e-02</internalNodes>
          <leafValues>
            -5.5915719270706177e-01 3.3175677061080933e-02</leafValues></_>
        <_>
          <internalNodes>
            0 -1 506 1.1312828864902258e-03</internalNodes>
          <leafValues>
            -8.8507987558841705e-02 2.3485618829727173e-01</leafValues></_>
        <_>
          <internalNodes>
            0 -1 85 3.5454644821584225e-03</internalNodes>
          <leafValues>
            -1.1554843932390213e-01 1.9083331525325775e-01</leafValues></_>
        <_>
          <internalNodes>
            0 -1 585 1.4294758439064026e-03</internalNodes>
          <leafValues>
            -8.3831168711185455e-02 2.5511047244071960e-01</leafValues></_>
        <_>
          <internalNodes>
            0 -1 662 1.0548183927312493e-03</internalNodes>
          <leafValues>
            7.2580389678478241e-02 -3.2902893424034119e-01</leafValues></_>
        <_>
          <internalNodes>
            0 -1 608 -2.0887358114123344e-03</internalNodes>
          <leafValues>
            -8.6400306224822998e-01 2.4148443713784218e-02</leafValues></_>
        <_>
          <internalNodes>
            0 -1 220 2.0251175737939775e-04</internalNodes>
          <leafValues>
            9.4399437308311462e-02 -2.2422650456428528e-01</leafValues></_>
        <_>
          <internalNodes>
            0 -1 698 -2.3530339822173119e-03</internalNodes>
          <leafValues>
            1.8504652380943298e-01 -1.1747466772794724e-01</leafValues></_>
        <_>
          <internalNodes>
            0 -1 235 1.4786778483539820e-03</internalNodes>
          <leafValues>
            3.5195127129554749e-02 -6.3715744018554688e-01</leafValues></_>
        <_>
          <internalNodes>
            0 -1 690 2.6255953125655651e-03</internalNodes>
          <leafValues>
            3.9701703935861588e-02 -5.2882629632949829e-01</leafValues></_>
        <_>
          <internalNodes>
            0 -1 658 4.2152137029916048e-04</internalNodes>
          <leafValues>
            -9.7203940153121948e-02 2.3707751929759979e-01</leafValues></_>
        <_>
          <internalNodes>
            0 -1 676 9.5854606479406357e-03</internalNodes>
          <leafValues>
            -9.5782585442066193e-02 2.2487631440162659e-01</leafValues></_>
        <_>
          <internalNodes>
            0 -1 422 -7.0968521758913994e-03</internalNodes>
          <leafValues>
            -2.5712704658508301e-01 7.7276252210140228e-02</leafValues></_>
        <_>
          <internalNodes>
            0 -1 410 -4.2081000283360481e-03</internalNodes>
          <leafValues>
            -3.4513813257217407e-01 5.7703483849763870e-02</leafValues></_>
        <_>
          <internalNodes>
            0 -1 232 -8.5316383047029376e-04</internalNodes>
          <leafValues>
            2.5388780236244202e-01 -8.3589628338813782e-02</leafValues></_>
        <_>
          <internalNodes>
            0 -1 145 -1.5616714954376221e-02</internalNodes>
          <leafValues>
            -4.2344012856483459e-01 5.0913650542497635e-02</leafValues></_>
        <_>
          <internalNodes>
            0 -1 252 1.9318424165248871e-02</internalNodes>
          <leafValues>
            7.6440446078777313e-02 -2.6481437683105469e-01</leafValues></_>
        <_>
          <internalNodes>
            0 -1 224 3.3749295398592949e-03</internalNodes>
          <leafValues>
            4.0866103023290634e-02 -4.9905848503112793e-01</leafValues></_>
        <_>
          <internalNodes>
            0 -1 596 2.4018844123929739e-03</internalNodes>
          <leafValues>
            -9.0718463063240051e-02 2.4847418069839478e-01</leafValues></_>
        <_>
          <internalNodes>
            0 -1 558 -1.6898352187126875e-03</internalNodes>
          <leafValues>
            -6.1489397287368774e-01 3.6805778741836548e-02</leafValues></_>
        <_>
          <internalNodes>
            0 -1 212 1.4730885159224272e-03</internalNodes>
          <leafValues>
            -9.0234518051147461e-02 2.3503904044628143e-01</leafValues></_>
        <_>
          <internalNodes>
            0 -1 667 -2.2915448062121868e-03</internalNodes>
          <leafValues>
            -6.1063808202743530e-01 3.6764901131391525e-02</leafValues></_>
        <_>
          <internalNodes>
            0 -1 134 -3.8062860257923603e-03</internalNodes>
          <leafValues>
            -8.7362366914749146e-01 1.9243523478507996e-02</leafValues></_>
        <_>
          <internalNodes>
            0 -1 682 4.1966391727328300e-03</internalNodes>
          <leafValues>
            3.5903140902519226e-02 -5.3493297100067139e-01</leafValues></_>
        <_>
          <internalNodes>
            0 -1 176 -9.0125314891338348e-03</internalNodes>
          <leafValues>
            4.1404175758361816e-01 -5.6578245013952255e-02</leafValues></_>
        <_>
          <internalNodes>
            0 -1 337 -2.8770798817276955e-03</internalNodes>
          <leafValues>
            -3.1577438116073608e-01 7.0850022137165070e-02</leafValues></_>
        <_>
          <internalNodes>
            0 -1 108 1.5900679863989353e-03</internalNodes>
          <leafValues>
            3.9118345826864243e-02 -5.2599197626113892e-01</leafValues></_>
        <_>
          <internalNodes>
            0 -1 147 -4.8047478776425123e-04</internalNodes>
          <leafValues>
            1.9628961384296417e-01 -1.1323370039463043e-01</leafValues></_>
        <_>
          <internalNodes>
            0 -1 466 -1.5147451777011156e-03</internalNodes>
          <leafValues>
            -4.2832449078559875e-01 5.0471182912588120e-02</leafValues></_>
        <_>
          <internalNodes>
            0 -1 353 4.0571618592366576e-04</internalNodes>
          <leafValues>
            -8.9152477681636810e-02 2.4955072999000549e-01</leafValues></_>
        <_>
          <internalNodes>
            0 -1 169 2.1169218234717846e-03</internalNodes>
          <leafValues>
            -6.6613510251045227e-02 3.2195559144020081e-01</leafValues></_>
        <_>
          <internalNodes>
            0 -1 181 -1.0455213487148285e-03</internalNodes>
          <leafValues>
            3.4196949005126953e-01 -6.5484769642353058e-02</leafValues></_>
        <_>
          <internalNodes>
            0 -1 152 4.8631478101015091e-02</internalNodes>
          <leafValues>
            3.7309724837541580e-02 -6.3379359245300293e-01</leafValues></_>
        <_>
          <internalNodes>
            0 -1 451 1.3440516777336597e-03</internalNodes>
          <leafValues>
            -9.5557473599910736e-02 2.3304671049118042e-01</leafValues></_>
        <_>
          <internalNodes>
            0 -1 498 -6.8314705276861787e-04</internalNodes>
          <leafValues>
            2.5192701816558838e-01 -1.1319299042224884e-01</leafValues></_>
        <_>
          <internalNodes>
            0 -1 248 2.2220127284526825e-03</internalNodes>
          <leafValues>
            6.1244837939739227e-02 -4.0853810310363770e-01</leafValues></_>
        <_>
          <internalNodes>
            0 -1 155 3.7297178059816360e-03</internalNodes>
          <leafValues>
            3.8371969014406204e-02 -6.0271763801574707e-01</leafValues></_>
        <_>
          <internalNodes>
            0 -1 253 -3.8763952907174826e-03</internalNodes>
          <leafValues>
            -5.1316756010055542e-01 4.2163822799921036e-02</leafValues></_>
        <_>
          <internalNodes>
            0 -1 114 2.0059272646903992e-03</internalNodes>
          <leafValues>
            2.3830490186810493e-02 -8.6249577999114990e-01</leafValues></_>
        <_>
          <internalNodes>
            0 -1 173 5.4952688515186310e-04</internalNodes>
          <leafValues>
            -9.8482064902782440e-02 2.4429050087928772e-01</leafValues></_></weakClassifiers></_>
    <!-- stage 5 -->
    <_>
      <maxWeakCount>65</maxWeakCount>
      <stageThreshold>-5.8425009250640869e-01</stageThreshold>
      <weakClassifiers>
        <_>
          <internalNodes>
            0 -1 443 -1.5378559473901987e-03</internalNodes>
          <leafValues>
            5.2584671974182129e-01 1.9645120203495026e-01</leafValues></_>
        <_>
          <internalNodes>
            0 -1 139 4.1224313899874687e-03</internalNodes>
          <leafValues>
            1.3320839405059814e-01 -2.2224324941635132e-01</leafValues></_>
        <_>
          <internalNodes>
            0 -1 460 5.0470751011744142e-04</internalNodes>
          <leafValues>
            -1.6774529218673706e-01 1.3817280530929565e-01</leafValues></_>
        <_>
          <internalNodes>
            0 -1 7 -1.0055252350866795e-02</internalNodes>
          <leafValues>
            2.1522523462772369e-01 -1.0630998760461807e-01</leafValues></_>
        <_>
          <internalNodes>
            0 -1 381 1.1160669848322868e-02</internalNodes>
          <leafValues>
            -1.1888844892382622e-02 -6.5317356586456299e-01</leafValues></_>
        <_>
          <internalNodes>
            0 -1 33 -3.1545176170766354e-03</internalNodes>
          <leafValues>
            -2.6772347092628479e-01 7.9404413700103760e-02</leafValues></_>
        <_>
          <internalNodes>
            0 -1 325 2.2238388191908598e-03</internalNodes>
          <leafValues>
            -9.2858783900737762e-02 2.2582799196243286e-01</leafValues></_>
        <_>
          <internalNodes>
            0 -1 529 -4.5964852324686944e-04</internalNodes>
          <leafValues>
            1.8314141035079956e-01 -1.3839426636695862e-01</leafValues></_>
        <_>
          <internalNodes>
            0 -1 321 2.2093427833169699e-03</internalNodes>
          <leafValues>
            9.1839119791984558e-02 -2.3898173868656158e-01</leafValues></_>
        <_>
          <internalNodes>
            0 -1 708 -1.0080463252961636e-03</internalNodes>
          <leafValues>
            2.1734812855720520e-01 -9.5807328820228577e-02</leafValues></_>
        <_>
          <internalNodes>
            0 -1 213 4.8889787867665291e-03</internalNodes>
          <leafValues>
            -4.8547804355621338e-02 4.8159420490264893e-01</leafValues></_>
        <_>
          <internalNodes>
            0 -1 441 6.6454051993787289e-03</internalNodes>
          <leafValues>
            8.9367561042308807e-02 -2.9168611764907837e-01</leafValues></_>
        <_>
          <internalNodes>
            0 -1 372 -1.3533473946154118e-02</internalNodes>
          <leafValues>
            -7.1401715278625488e-01 3.5633154213428497e-02</leafValues></_>
        <_>
          <internalNodes>
            0 -1 153 1.4408309943974018e-03</internalNodes>
          <leafValues>
            -8.0503605306148529e-02 2.8001475334167480e-01</leafValues></_>
        <_>
          <internalNodes>
            0 -1 116 5.3417106391862035e-04</internalNodes>
          <leafValues>
            -1.2253763526678085e-01 1.8069371581077576e-01</leafValues></_>
        <_>
          <internalNodes>
            0 -1 146 -1.3539383653551340e-03</internalNodes>
          <leafValues>
            -5.3185039758682251e-01 4.3052382767200470e-02</leafValues></_>
        <_>
          <internalNodes>
            0 -1 175 -9.0694869868457317e-04</internalNodes>
          <leafValues>
            2.3852880299091339e-01 -9.7470387816429138e-02</leafValues></_>
        <_>
          <internalNodes>
            0 -1 5 -1.1470110714435577e-01</internalNodes>
          <leafValues>
            7.4491709470748901e-01 -2.5526890531182289e-02</leafValues></_>
        <_>
          <internalNodes>
            0 -1 541 -3.1188656575977802e-03</internalNodes>
          <leafValues>
            2.9556322097778320e-01 -7.4386179447174072e-02</leafValues></_>
        <_>
          <internalNodes>
            0 -1 575 1.1353095760568976e-04</internalNodes>
          <leafValues>
            -1.4125300943851471e-01 1.5202745795249939e-01</leafValues></_>
        <_>
          <internalNodes>
            0 -1 71 1.8756685312837362e-03</internalNodes>
          <leafValues>
            8.6163751780986786e-02 -2.6489838957786560e-01</leafValues></_>
        <_>
          <internalNodes>
            0 -1 689 2.4399533867835999e-03</internalNodes>
          <leafValues>
            2.4152390658855438e-02 -7.1495848894119263e-01</leafValues></_>
        <_>
          <internalNodes>
            0 -1 710 3.6763513344340026e-04</internalNodes>
          <leafValues>
            1.1049798876047134e-01 -1.7733049392700195e-01</leafValues></_>
        <_>
          <internalNodes>
            0 -1 22 -1.7972213681787252e-03</internalNodes>
          <leafValues>
            -2.0475153625011444e-01 1.0194347053766251e-01</leafValues></_>
        <_>
          <internalNodes>
            0 -1 603 4.7080717049539089e-03</internalNodes>
          <leafValues>
            5.3118493407964706e-02 -3.8624873757362366e-01</leafValues></_>
        <_>
          <internalNodes>
            0 -1 256 -8.0286264419555664e-03</internalNodes>
          <leafValues>
            -2.8742069005966187e-01 6.6483311355113983e-02</leafValues></_>
        <_>
          <internalNodes>
            0 -1 472 1.3346520718187094e-03</internalNodes>
          <leafValues>
            6.9023519754409790e-02 -2.8169673681259155e-01</leafValues></_>
        <_>
          <internalNodes>
            0 -1 687 1.6136065125465393e-02</internalNodes>
          <leafValues>
            5.5036161094903946e-02 -3.5613188147544861e-01</leafValues></_>
        <_>
          <internalNodes>
            0 -1 691 2.9449522844515741e-04</internalNodes>
          <leafValues>
            -9.8337411880493164e-02 2.1084702014923096e-01</leafValues></_>
        <_>
          <internalNodes>
            0 -1 104 4.9111829139292240e-03</internalNodes>
          <leafValues>
            -1.4506579935550690e-01 1.3179908692836761e-01</leafValues></_>
        <_>
          <internalNodes>
            0 -1 238 5.8726035058498383e-04</internalNodes>
          <leafValues>
            -1.1420067399740219e-01 2.0173873007297516e-01</leafValues></_>
        <_>
          <internalNodes>
            0 -1 79 1.4597657136619091e-03</internalNodes>
          <leafValues>
            -1.0337825119495392e-01 1.9632533192634583e-01</leafValues></_>
        <_>
          <internalNodes>
            0 -1 489 -1.5347679145634174e-03</internalNodes>
          <leafValues>
            -6.5220659971237183e-01 2.9092427343130112e-02</leafValues></_>
        <_>
          <internalNodes>
            0 -1 161 2.4893561378121376e-02</internalNodes>
          <leafValues>
            5.3574930876493454e-02 -3.8554015755653381e-01</leafValues></_>
        <_>
          <internalNodes>
            0 -1 113 5.8666226686909795e-04</internalNodes>
          <leafValues>
            -1.0430290549993515e-01 2.0898553729057312e-01</leafValues></_>
        <_>
          <internalNodes>
            0 -1 625 1.9850111566483974e-03</internalNodes>
          <leafValues>
            2.8161419555544853e-02 -8.0341440439224243e-01</leafValues></_>
        <_>
          <internalNodes>
            0 -1 73 -2.5438494049012661e-04</internalNodes>
          <leafValues>
            -1.8529416620731354e-01 1.1177627742290497e-01</leafValues></_>
        <_>
          <internalNodes>
            0 -1 669 8.8138587307184935e-04</internalNodes>
          <leafValues>
            -7.7056132256984711e-02 2.8163021802902222e-01</leafValues></_>
        <_>
          <internalNodes>
            0 -1 679 2.2926577366888523e-03</internalNodes>
          <leafValues>
            5.2245326340198517e-02 -4.4519919157028198e-01</leafValues></_>
        <_>
          <internalNodes>
            0 -1 627 -2.9196310788393021e-04</internalNodes>
          <leafValues>
            1.8724259734153748e-01 -1.1657854914665222e-01</leafValues></_>
        <_>
          <internalNodes>
            0 -1 233 1.0835863649845123e-03</internalNodes>
          <leafValues>
            -7.9418018460273743e-02 2.6676976680755615e-01</leafValues></_>
        <_>
          <internalNodes>
            0 -1 297 1.4018227346241474e-02</internalNodes>
          <leafValues>
            3.4377891570329666e-02 -6.2166208028793335e-01</leafValues></_>
        <_>
          <internalNodes>
            0 -1 519 2.3101049009710550e-04</internalNodes>
          <leafValues>
            -1.5806265175342560e-01 1.5208260715007782e-01</leafValues></_>
        <_>
          <internalNodes>
            0 -1 107 5.7965930551290512e-02</internalNodes>
          <leafValues>
            4.7055225819349289e-02 -4.8372307419776917e-01</leafValues></_>
        <_>
          <internalNodes>
            0 -1 656 -3.7113523576408625e-03</internalNodes>
          <leafValues>
            -5.4426628351211548e-01 3.7592612206935883e-02</leafValues></_>
        <_>
          <internalNodes>
            0 -1 233 -1.1272821575403214e-03</internalNodes>
          <leafValues>
            2.2756253182888031e-01 -9.4848923385143280e-02</leafValues></_>
        <_>
          <internalNodes>
            0 -1 444 3.9408524753525853e-04</internalNodes>
          <leafValues>
            -1.2357862293720245e-01 1.7493359744548798e-01</leafValues></_>
        <_>
          <internalNodes>
            0 -1 266 2.4306769482791424e-03</internalNodes>
          <leafValues>
            2.8993476182222366e-02 -7.1269762516021729e-01</leafValues></_>
        <_>
          <internalNodes>
            0 -1 536 2.3372052237391472e-03</internalNodes>
          <leafValues>
            -8.7286837399005890e-02 2.6305407285690308e-01</leafValues></_>
        <_>
          <internalNodes>
            0 -1 61 -4.2724772356450558e-03</internalNodes>
          <leafValues>
            -2.2141338884830475e-01 9.7167879343032837e-02</leafValues></_>
        <_>
          <internalNodes>
            0 -1 647 -2.8649712912738323e-03</internalNodes>
          <leafValues>
            -2.5435402989387512e-01 8.4770552814006805e-02</leafValues></_>
        <_>
          <internalNodes>
            0 -1 617 -9.6773374825716019e-03</internalNodes>
          <leafValues>
            -2.3256120085716248e-01 8.5247948765754700e-02</leafValues></_>
        <_>
          <internalNodes>
            0 -1 395 -2.1613772958517075e-02</internalNodes>
          <leafValues>
            7.0149981975555420e-01 -2.9871247708797455e-02</leafValues></_>
        <_>
          <internalNodes>
            0 -1 159 -6.7258551716804504e-02</internalNodes>
          <leafValues>
            8.5526651144027710e-01 -1.8865205347537994e-02</leafValues></_>
        <_>
          <internalNodes>
            0 -1 457 4.7588879242539406e-03</internalNodes>
          <leafValues>
            3.7049010396003723e-02 -6.3067507743835449e-01</leafValues></_>
        <_>
          <internalNodes>
            0 -1 431 1.8802897538989782e-03</internalNodes>
          <leafValues>
            -8.7437845766544342e-02 2.5107213854789734e-01</leafValues></_>
        <_>
          <internalNodes>
            0 -1 426 2.2677516099065542e-03</internalNodes>
          <leafValues>
            -8.6236193776130676e-02 2.7754056453704834e-01</leafValues></_>
        <_>
          <internalNodes>
            0 -1 383 3.8557322113774717e-04</internalNodes>
          <leafValues>
            -1.2439525872468948e-01 1.9774387776851654e-01</leafValues></_>
        <_>
          <internalNodes>
            0 -1 300 -2.9136672616004944e-02</internalNodes>
          <leafValues>
            -7.2191131114959717e-01 3.5459991544485092e-02</leafValues></_>
        <_>
          <internalNodes>
            0 -1 435 -1.2045893818140030e-03</internalNodes>
          <leafValues>
            -5.2380287647247314e-01 4.0004782378673553e-02</leafValues></_>
        <_>
          <internalNodes>
            0 -1 564 -3.9177928119897842e-03</internalNodes>
          <leafValues>
            -3.7738373875617981e-01 5.4429527372121811e-02</leafValues></_>
        <_>
          <internalNodes>
            0 -1 405 -3.4980225609615445e-04</internalNodes>
          <leafValues>
            1.8567307293415070e-01 -1.1213919520378113e-01</leafValues></_>
        <_>
          <internalNodes>
            0 -1 345 -8.9111970737576485e-04</internalNodes>
          <leafValues>
            2.7007690072059631e-01 -1.0578509420156479e-01</leafValues></_>
        <_>
          <internalNodes>
            0 -1 342 -3.1329263583756983e-04</internalNodes>
          <leafValues>
            1.6300858557224274e-01 -1.4387868344783783e-01</leafValues></_>
        <_>
          <internalNodes>
            0 -1 707 -1.7433512257412076e-03</internalNodes>
          <leafValues>
            -6.7771840095520020e-01 3.3103134483098984e-02</leafValues></_></weakClassifiers></_>
    <!-- stage 6 -->
    <_>
      <maxWeakCount>79</maxWeakCount>
      <stageThreshold>-6.8713372945785522e-01</stageThreshold>
      <weakClassifiers>
        <_>
          <internalNodes>
            0 -1 274 -4.3246434070169926e-03</internalNodes>
          <leafValues>
            5.7192981243133545e-01 2.2276422381401062e-01</leafValues></_>
        <_>
          <internalNodes>
            0 -1 458 -1.2983472552150488e-03</internalNodes>
          <leafValues>
            2.8101032972335815e-01 -9.1676019132137299e-02</leafValues></_>
        <_>
          <internalNodes>
            0 -1 526 4.9853371456265450e-04</internalNodes>
          <leafValues>
            -1.1694997549057007e-01 1.9899630546569824e-01</leafValues></_>
        <_>
          <internalNodes>
            0 -1 421 1.0694937780499458e-02</internalNodes>
          <leafValues>
            1.3092683628201485e-02 -6.0313743352890015e-01</leafValues></_>
        <_>
          <internalNodes>
            0 -1 461 1.7886699642986059e-03</internalNodes>
          <leafValues>
            -1.2596757709980011e-01 2.1957136690616608e-01</leafValues></_>
        <_>
          <internalNodes>
            0 -1 659 -1.7024795524775982e-03</internalNodes>
          <leafValues>
            -7.4139523506164551e-01 5.1498547196388245e-02</leafValues></_>
        <_>
          <internalNodes>
            0 -1 28 -1.2602541595697403e-02</internalNodes>
          <leafValues>
            4.5118701457977295e-01 -4.8656936734914780e-02</leafValues></_>
        <_>
          <internalNodes>
            0 -1 467 -2.1783811098430306e-04</internalNodes>
          <leafValues>
            -2.3120351135730743e-01 7.8822009265422821e-02</leafValues></_>
        <_>
          <internalNodes>
            0 -1 366 7.2814030572772026e-03</internalNodes>
          <leafValues>
            6.4590446650981903e-02 -3.6171030998229980e-01</leafValues></_>
        <_>
          <internalNodes>
            0 -1 584 7.1989180287346244e-04</internalNodes>
          <leafValues>
            -9.3834415078163147e-02 2.1108826994895935e-01</leafValues></_>
        <_>
          <internalNodes>
            0 -1 454 -3.2634665258228779e-03</internalNodes>
          <leafValues>
            2.8646880388259888e-01 -8.6438357830047607e-02</leafValues></_>
        <_>
          <internalNodes>
            0 -1 386 1.8586696824058890e-03</internalNodes>
          <leafValues>
            -8.9247398078441620e-02 2.3139406740665436e-01</leafValues></_>
        <_>
          <internalNodes>
            0 -1 15 -8.7277119746431708e-04</internalNodes>
          <leafValues>
            -2.8519341349601746e-01 8.4639117121696472e-02</leafValues></_>
        <_>
          <internalNodes>
            0 -1 215 1.2551432009786367e-03</internalNodes>
          <leafValues>
            5.6741490960121155e-02 -3.7739515304565430e-01</leafValues></_>
        <_>
          <internalNodes>
            0 -1 318 9.2325400328263640e-04</internalNodes>
          <leafValues>
            5.8468390256166458e-02 -3.1048083305358887e-01</leafValues></_>
        <_>
          <internalNodes>
            0 -1 479 -3.7983809597790241e-03</internalNodes>
          <leafValues>
            2.0640182495117188e-01 -9.0973913669586182e-02</leafValues></_>
        <_>
          <internalNodes>
            0 -1 639 8.7340623140335083e-03</internalNodes>
          <leafValues>
            6.7658841609954834e-02 -3.0299320816993713e-01</leafValues></_>
        <_>
          <internalNodes>
            0 -1 671 -2.0083783194422722e-02</internalNodes>
          <leafValues>
            5.3723663091659546e-01 -3.9372686296701431e-02</leafValues></_>
        <_>
          <internalNodes>
            0 -1 129 -2.0874090492725372e-02</internalNodes>
          <leafValues>
            3.2082015275955200e-01 -5.6986462324857712e-02</leafValues></_>
        <_>
          <internalNodes>
            0 -1 379 2.5416649878025055e-03</internalNodes>
          <leafValues>
            -7.6749823987483978e-02 2.3294147849082947e-01</leafValues></_>
        <_>
          <internalNodes>
            0 -1 540 2.3125796578824520e-03</internalNodes>
          <leafValues>
            -7.9826340079307556e-02 2.6270478963851929e-01</leafValues></_>
        <_>
          <internalNodes>
            0 -1 492 1.4856997877359390e-03</internalNodes>
          <leafValues>
            4.5773286372423172e-02 -5.3613781929016113e-01</leafValues></_>
        <_>
          <internalNodes>
            0 -1 459 -7.8925595153123140e-04</internalNodes>
          <leafValues>
            2.0978550612926483e-01 -1.0236541926860809e-01</leafValues></_>
        <_>
          <internalNodes>
            0 -1 548 1.9128983840346336e-03</internalNodes>
          <leafValues>
            3.6699790507555008e-02 -5.4153549671173096e-01</leafValues></_>
        <_>
          <internalNodes>
            0 -1 239 -5.7376278564333916e-03</internalNodes>
          <leafValues>
            1.9893896579742432e-01 -9.2436894774436951e-02</leafValues></_>
        <_>
          <internalNodes>
            0 -1 438 -1.9830381497740746e-03</internalNodes>
          <leafValues>
            2.5777161121368408e-01 -7.3114924132823944e-02</leafValues></_>
        <_>
          <internalNodes>
            0 -1 317 -6.9769117981195450e-03</internalNodes>
          <leafValues>
            -2.8562879562377930e-01 6.5683186054229736e-02</leafValues></_>
        <_>
          <internalNodes>
            0 -1 198 5.4280951619148254e-02</internalNodes>
          <leafValues>
            3.0688434839248657e-02 -5.6728208065032959e-01</leafValues></_>
        <_>
          <internalNodes>
            0 -1 597 -7.1007730439305305e-03</internalNodes>
          <leafValues>
            2.6149299740791321e-01 -8.3007052540779114e-02</leafValues></_>
        <_>
          <internalNodes>
            0 -1 62 -9.7638564184308052e-03</internalNodes>
          <leafValues>
            3.5012090206146240e-01 -5.2705116569995880e-02</leafValues></_>
        <_>
          <internalNodes>
            0 -1 249 -1.1065658181905746e-03</internalNodes>
          <leafValues>
            -2.1729813516139984e-01 9.3048222362995148e-02</leafValues></_>
        <_>
          <internalNodes>
            0 -1 364 3.4839604049921036e-03</internalNodes>
          <leafValues>
            -8.7413147091865540e-02 2.4512764811515808e-01</leafValues></_>
        <_>
          <internalNodes>
            0 -1 264 1.1384509503841400e-02</internalNodes>
          <leafValues>
            6.5952308475971222e-02 -3.4028574824333191e-01</leafValues></_>
        <_>
          <internalNodes>
            0 -1 688 -2.0590566564351320e-03</internalNodes>
          <leafValues>
            -6.1943674087524414e-01 3.3556755632162094e-02</leafValues></_>
        <_>
          <internalNodes>
            0 -1 208 1.5041180886328220e-03</internalNodes>
          <leafValues>
            1.1687476933002472e-01 -1.6602437198162079e-01</leafValues></_>
        <_>
          <internalNodes>
            0 -1 48 3.6049657501280308e-03</internalNodes>
          <leafValues>
            -9.8492920398712158e-02 1.9562660157680511e-01</leafValues></_>
        <_>
          <internalNodes>
            0 -1 547 2.6724245981313288e-04</internalNodes>
          <leafValues>
            -1.1201441287994385e-01 1.9396911561489105e-01</leafValues></_>
        <_>
          <internalNodes>
            0 -1 330 -2.7114436961710453e-03</internalNodes>
          <leafValues>
            2.5507506728172302e-01 -9.2344351112842560e-02</leafValues></_>
        <_>
          <internalNodes>
            0 -1 231 3.5502694547176361e-02</internalNodes>
          <leafValues>
            3.8333203643560410e-02 -6.1218076944351196e-01</leafValues></_>
        <_>
          <internalNodes>
            0 -1 1 3.0392546206712723e-02</internalNodes>
          <leafValues>
            -1.1611369997262955e-01 1.7555907368659973e-01</leafValues></_>
        <_>
          <internalNodes>
            0 -1 404 -1.9374400377273560e-02</internalNodes>
          <leafValues>
            -3.4959638118743896e-01 6.1170555651187897e-02</leafValues></_>
        <_>
          <internalNodes>
            0 -1 559 8.2543643657118082e-04</internalNodes>
          <leafValues>
            -1.1117076128721237e-01 1.7861519753932953e-01</leafValues></_>
        <_>
          <internalNodes>
            0 -1 124 6.0724467039108276e-04</internalNodes>
          <leafValues>
            5.9647716581821442e-02 -3.2557222247123718e-01</leafValues></_>
        <_>
          <internalNodes>
            0 -1 371 1.6114830970764160e-02</internalNodes>
          <leafValues>
            3.5462416708469391e-02 -5.1166194677352905e-01</leafValues></_>
        <_>
          <internalNodes>
            0 -1 135 1.6878120601177216e-02</internalNodes>
          <leafValues>
            3.4822333604097366e-02 -5.2979212999343872e-01</leafValues></_>
        <_>
          <internalNodes>
            0 -1 163 4.3965730583295226e-04</internalNodes>
          <leafValues>
            -1.1342766880989075e-01 1.7215743660926819e-01</leafValues></_>
        <_>
          <internalNodes>
            0 -1 270 1.5105467289686203e-02</internalNodes>
          <leafValues>
            -4.6482842415571213e-02 4.0844392776489258e-01</leafValues></_>
        <_>
          <internalNodes>
            0 -1 655 3.7969951517879963e-03</internalNodes>
          <leafValues>
            -6.3144698739051819e-02 2.9744932055473328e-01</leafValues></_>
        <_>
          <internalNodes>
            0 -1 180 3.3139181323349476e-03</internalNodes>
          <leafValues>
            3.7072759121656418e-02 -5.7076251506805420e-01</leafValues></_>
        <_>
          <internalNodes>
            0 -1 283 1.5385997248813510e-03</internalNodes>
          <leafValues>
            4.2942807078361511e-02 -4.1382488608360291e-01</leafValues></_>
        <_>
          <internalNodes>
            0 -1 343 1.8025657627731562e-03</internalNodes>
          <leafValues>
            -8.8056050240993500e-02 2.2856047749519348e-01</leafValues></_>
        <_>
          <internalNodes>
            0 -1 589 1.1825577821582556e-03</internalNodes>
          <leafValues>
            4.3109372258186340e-02 -4.9217313528060913e-01</leafValues></_>
        <_>
          <internalNodes>
            0 -1 397 -7.2721005417406559e-03</internalNodes>
          <leafValues>
            1.8504144251346588e-01 -1.0511012375354767e-01</leafValues></_>
        <_>
          <internalNodes>
            0 -1 340 -1.1311402544379234e-02</internalNodes>
          <leafValues>
            -2.6176118850708008e-01 8.2587763667106628e-02</leafValues></_>
        <_>
          <internalNodes>
            0 -1 473 1.1275981087237597e-03</internalNodes>
          <leafValues>
            -9.7026668488979340e-02 2.0338912308216095e-01</leafValues></_>
        <_>
          <internalNodes>
            0 -1 702 4.8221456818282604e-03</internalNodes>
          <leafValues>
            3.6938928067684174e-02 -5.7223856449127197e-01</leafValues></_>
        <_>
          <internalNodes>
            0 -1 2 3.7959106266498566e-03</internalNodes>
          <leafValues>
            8.5092753171920776e-02 -2.1122461557388306e-01</leafValues></_>
        <_>
          <internalNodes>
            0 -1 557 1.5425283927470446e-03</internalNodes>
          <leafValues>
            3.1091220676898956e-02 -6.1905211210250854e-01</leafValues></_>
        <_>
          <internalNodes>
            0 -1 556 -5.0437042955309153e-04</internalNodes>
          <leafValues>
            1.7408780753612518e-01 -1.0904509574174881e-01</leafValues></_>
        <_>
          <internalNodes>
            0 -1 643 -4.2161269811913371e-04</internalNodes>
          <leafValues>
            2.0783665776252747e-01 -9.2562273144721985e-02</leafValues></_>
        <_>
          <internalNodes>
            0 -1 428 2.4203518405556679e-03</internalNodes>
          <leafValues>
            -1.0787876695394516e-01 1.9111891090869904e-01</leafValues></_>
        <_>
          <internalNodes>
            0 -1 577 -1.9354752730578184e-03</internalNodes>
          <leafValues>
            -5.6190443038940430e-01 3.5267870873212814e-02</leafValues></_>
        <_>
          <internalNodes>
            0 -1 521 4.8694638535380363e-03</internalNodes>
          <leafValues>
            -6.5345987677574158e-02 2.8454148769378662e-01</leafValues></_>
        <_>
          <internalNodes>
            0 -1 601 -6.8957125768065453e-04</internalNodes>
          <leafValues>
            1.8630762398242950e-01 -1.0488034039735794e-01</leafValues></_>
        <_>
          <internalNodes>
            0 -1 560 -1.0488163679838181e-02</internalNodes>
          <leafValues>
            5.1024365425109863e-01 -3.3143177628517151e-02</leafValues></_>
        <_>
          <internalNodes>
            0 -1 613 -2.5475556030869484e-03</internalNodes>
          <leafValues>
            -3.3391481637954712e-01 6.0704875737428665e-02</leafValues></_>
        <_>
          <internalNodes>
            0 -1 588 -7.6318578794598579e-04</internalNodes>
          <leafValues>
            -2.6872166991233826e-01 7.3366634547710419e-02</leafValues></_>
        <_>
          <internalNodes>
            0 -1 18 -2.6217367500066757e-02</internalNodes>
          <leafValues>
            3.0618822574615479e-01 -6.2177710235118866e-02</leafValues></_>
        <_>
          <internalNodes>
            0 -1 121 9.1781641822308302e-04</internalNodes>
          <leafValues>
            -8.6037680506706238e-02 2.0391839742660522e-01</leafValues></_>
        <_>
          <internalNodes>
            0 -1 620 2.9982740670675412e-05</internalNodes>
          <leafValues>
            -1.3754621148109436e-01 1.3315549492835999e-01</leafValues></_>
        <_>
          <internalNodes>
            0 -1 619 -1.7027615103870630e-03</internalNodes>
          <leafValues>
            3.5578286647796631e-01 -6.0754567384719849e-02</leafValues></_>
        <_>
          <internalNodes>
            0 -1 284 1.2024168390780687e-03</internalNodes>
          <leafValues>
            4.2771097272634506e-02 -5.0216466188430786e-01</leafValues></_>
        <_>
          <internalNodes>
            0 -1 120 3.4684475976973772e-03</internalNodes>
          <leafValues>
            -7.2987951338291168e-02 2.5786086916923523e-01</leafValues></_>
        <_>
          <internalNodes>
            0 -1 95 4.6112682321108878e-04</internalNodes>
          <leafValues>
            -8.5033364593982697e-02 2.2363093495368958e-01</leafValues></_>
        <_>
          <internalNodes>
            0 -1 623 -1.8754778429865837e-03</internalNodes>
          <leafValues>
            -5.0855708122253418e-01 4.2065512388944626e-02</leafValues></_>
        <_>
          <internalNodes>
            0 -1 251 -1.9474584609270096e-02</internalNodes>
          <leafValues>
            5.6657183170318604e-01 -3.6450996994972229e-02</leafValues></_>
        <_>
          <internalNodes>
            0 -1 338 -4.8089344054460526e-03</internalNodes>
          <leafValues>
            -3.0574148893356323e-01 8.5518389940261841e-02</leafValues></_>
        <_>
          <internalNodes>
            0 -1 41 5.3886026144027710e-03</internalNodes>
          <leafValues>
            2.9080886393785477e-02 -6.2372410297393799e-01</leafValues></_>
        <_>
          <internalNodes>
            0 -1 29 -2.4588394910097122e-02</internalNodes>
          <leafValues>
            -4.4264274835586548e-01 4.0918633341789246e-02</leafValues></_></weakClassifiers></_>
    <!-- stage 7 -->
    <_>
      <maxWeakCount>72</maxWeakCount>
      <stageThreshold>-6.6140681505203247e-01</stageThreshold>
      <weakClassifiers>
        <_>
          <internalNodes>
            0 -1 504 -5.1669892854988575e-04</internalNodes>
          <leafValues>
            5.4757630825042725e-01 1.8284994363784790e-01</leafValues></_>
        <_>
          <internalNodes>
            0 -1 400 -8.3342175930738449e-03</internalNodes>
          <leafValues>
            2.7518290281295776e-01 -1.0215495526790619e-01</leafValues></_>
        <_>
          <internalNodes>
            0 -1 262 1.0726394131779671e-02</internalNodes>
          <leafValues>
            -8.5044629871845245e-02 3.1428492069244385e-01</leafValues></_>
        <_>
          <internalNodes>
            0 -1 681 8.9152716100215912e-03</internalNodes>
          <leafValues>
            -1.4339283108711243e-01 2.3030158877372742e-01</leafValues></_>
        <_>
          <internalNodes>
            0 -1 110 1.2931143864989281e-03</internalNodes>
          <leafValues>
            -1.3896760344505310e-01 1.5357241034507751e-01</leafValues></_>
        <_>
          <internalNodes>
            0 -1 373 3.8009509444236755e-03</internalNodes>
          <leafValues>
            6.4704805612564087e-02 -3.3038249611854553e-01</leafValues></_>
        <_>
          <internalNodes>
            0 -1 591 -4.0377848781645298e-03</internalNodes>
          <leafValues>
            1.9873464107513428e-01 -1.0704340785741806e-01</leafValues></_>
        <_>
          <internalNodes>
            0 -1 77 -9.2294383794069290e-03</internalNodes>
          <leafValues>
            4.4448220729827881e-01 -5.1188442856073380e-02</leafValues></_>
        <_>
          <internalNodes>
            0 -1 184 -1.2494097463786602e-03</internalNodes>
          <leafValues>
            3.0745422840118408e-01 -7.0070900022983551e-02</leafValues></_>
        <_>
          <internalNodes>
            0 -1 437 -1.1411970481276512e-03</internalNodes>
          <leafValues>
            2.4216973781585693e-01 -9.0557463467121124e-02</leafValues></_>
        <_>
          <internalNodes>
            0 -1 91 6.5430318936705589e-03</internalNodes>
          <leafValues>
            5.9443108737468719e-02 -4.5786014199256897e-01</leafValues></_>
        <_>
          <internalNodes>
            0 -1 167 -7.1007162332534790e-03</internalNodes>
          <leafValues>
            -3.7515598535537720e-01 6.2891863286495209e-02</leafValues></_>
        <_>
          <internalNodes>
            0 -1 527 -3.0692812288179994e-04</internalNodes>
          <leafValues>
            2.0077067613601685e-01 -1.1600413918495178e-01</leafValues></_>
        <_>
          <internalNodes>
            0 -1 629 -1.4897391665726900e-03</internalNodes>
          <leafValues>
            2.5655952095985413e-01 -9.2389576137065887e-02</leafValues></_>
        <_>
          <internalNodes>
            0 -1 509 -1.5060699079185724e-03</internalNodes>
          <leafValues>
            -5.6424427032470703e-01 4.2190846055746078e-02</leafValues></_>
        <_>
          <internalNodes>
            0 -1 286 -1.3429792597889900e-03</internalNodes>
          <leafValues>
            -2.6725944876670837e-01 7.5712725520133972e-02</leafValues></_>
        <_>
          <internalNodes>
            0 -1 356 5.2522500045597553e-03</internalNodes>
          <leafValues>
            -6.9158107042312622e-02 2.8845188021659851e-01</leafValues></_>
        <_>
          <internalNodes>
            0 -1 315 -3.7352475337684155e-03</internalNodes>
          <leafValues>
            -4.5940577983856201e-01 5.2329983562231064e-02</leafValues></_>
        <_>
          <internalNodes>
            0 -1 703 3.9727864786982536e-03</internalNodes>
          <leafValues>
            7.8503958880901337e-02 -2.6133003830909729e-01</leafValues></_>
        <_>
          <internalNodes>
            0 -1 290 -5.3075179457664490e-02</internalNodes>
          <leafValues>
            4.5788812637329102e-01 -4.3078195303678513e-02</leafValues></_>
        <_>
          <internalNodes>
            0 -1 592 2.1900404244661331e-03</internalNodes>
          <leafValues>
            7.5953230261802673e-02 -2.6247578859329224e-01</leafValues></_>
        <_>
          <internalNodes>
            0 -1 388 -5.8454589452594519e-04</internalNodes>
          <leafValues>
            2.2453364729881287e-01 -9.3593835830688477e-02</leafValues></_>
        <_>
          <internalNodes>
            0 -1 331 -2.2735015954822302e-04</internalNodes>
          <leafValues>
            1.6149848699569702e-01 -1.2695495784282684e-01</leafValues></_>
        <_>
          <internalNodes>
            0 -1 188 4.6952441334724426e-02</internalNodes>
          <leafValues>
            3.8108494132757187e-02 -5.5007314682006836e-01</leafValues></_>
        <_>
          <internalNodes>
            0 -1 496 5.8179371990263462e-03</internalNodes>
          <leafValues>
            3.4841891378164291e-02 -5.3112357854843140e-01</leafValues></_>
        <_>
          <internalNodes>
            0 -1 190 4.7957201604731381e-04</internalNodes>
          <leafValues>
            -9.8948165774345398e-02 2.1150209009647369e-01</leafValues></_>
        <_>
          <internalNodes>
            0 -1 32 5.1798704080283642e-03</internalNodes>
          <leafValues>
            -3.2785452902317047e-02 6.4976686239242554e-01</leafValues></_>
        <_>
          <internalNodes>
            0 -1 160 -3.3396698534488678e-02</internalNodes>
          <leafValues>
            5.1070016622543335e-01 -3.3436123281717300e-02</leafValues></_>
        <_>
          <internalNodes>
            0 -1 221 5.6238919496536255e-03</internalNodes>
          <leafValues>
            5.6631609797477722e-02 -3.6814087629318237e-01</leafValues></_>
        <_>
          <internalNodes>
            0 -1 19 1.0265341028571129e-02</internalNodes>
          <leafValues>
            3.1753670424222946e-02 -5.5658107995986938e-01</leafValues></_>
        <_>
          <internalNodes>
            0 -1 96 1.5444030985236168e-02</internalNodes>
          <leafValues>
            -7.2200551629066467e-02 2.6582002639770508e-01</leafValues></_>
        <_>
          <internalNodes>
            0 -1 179 2.2206545691005886e-04</internalNodes>
          <leafValues>
            -1.0582028329372406e-01 1.8774488568305969e-01</leafValues></_>
        <_>
          <internalNodes>
            0 -1 530 -2.5886131916195154e-03</internalNodes>
          <leafValues>
            2.5169938802719116e-01 -8.0987773835659027e-02</leafValues></_>
        <_>
          <internalNodes>
            0 -1 170 3.7138774991035461e-02</internalNodes>
          <leafValues>
            2.9428837820887566e-02 -6.1039280891418457e-01</leafValues></_>
        <_>
          <internalNodes>
            0 -1 423 -7.3981483001261950e-04</internalNodes>
          <leafValues>
            1.9788961112499237e-01 -1.0612036287784576e-01</leafValues></_>
        <_>
          <internalNodes>
            0 -1 430 9.0104388073086739e-04</internalNodes>
          <leafValues>
            -8.0443635582923889e-02 2.7365395426750183e-01</leafValues></_>
        <_>
          <internalNodes>
            0 -1 417 -1.7229426652193069e-02</internalNodes>
          <leafValues>
            -6.1912310123443604e-01 3.1241187825798988e-02</leafValues></_>
        <_>
          <internalNodes>
            0 -1 699 2.9623094014823437e-03</internalNodes>
          <leafValues>
            1.6259521245956421e-02 -9.2059755325317383e-01</leafValues></_>
        <_>
          <internalNodes>
            0 -1 416 -9.2686986317858100e-04</internalNodes>
          <leafValues>
            2.3879562318325043e-01 -8.4977306425571442e-02</leafValues></_>
        <_>
          <internalNodes>
            0 -1 55 4.4577300548553467e-02</internalNodes>
          <leafValues>
            5.2125576883554459e-02 -4.0856766700744629e-01</leafValues></_>
        <_>
          <internalNodes>
            0 -1 598 6.9285219069570303e-04</internalNodes>
          <leafValues>
            -1.0457199811935425e-01 1.8206891417503357e-01</leafValues></_>
        <_>
          <internalNodes>
            0 -1 80 -7.9759240150451660e-02</internalNodes>
          <leafValues>
            -4.7916591167449951e-01 4.0041588246822357e-02</leafValues></_>
        <_>
          <internalNodes>
            0 -1 125 9.2267597210593522e-05</internalNodes>
          <leafValues>
            1.1693669855594635e-01 -1.8111833930015564e-01</leafValues></_>
        <_>
          <internalNodes>
            0 -1 70 5.2686808630824089e-03</internalNodes>
          <leafValues>
            3.3945266157388687e-02 -6.7039871215820312e-01</leafValues></_>
        <_>
          <internalNodes>
            0 -1 40 -9.2790666967630386e-03</internalNodes>
          <leafValues>
            3.1382861733436584e-01 -6.8500235676765442e-02</leafValues></_>
        <_>
          <internalNodes>
            0 -1 13 -1.9522320479154587e-02</internalNodes>
          <leafValues>
            7.9013037681579590e-01 -2.1571233868598938e-02</leafValues></_>
        <_>
          <internalNodes>
            0 -1 649 -3.8118266966193914e-03</internalNodes>
          <leafValues>
            -6.1358916759490967e-01 3.5238873213529587e-02</leafValues></_>
        <_>
          <internalNodes>
            0 -1 267 1.6675926744937897e-03</internalNodes>
          <leafValues>
            2.2288622334599495e-02 -7.5535762310028076e-01</leafValues></_>
        <_>
          <internalNodes>
            0 -1 401 1.8003776669502258e-02</internalNodes>
          <leafValues>
            3.2431893050670624e-02 -5.0617289543151855e-01</leafValues></_>
        <_>
          <internalNodes>
            0 -1 90 1.5617230674251914e-03</internalNodes>
          <leafValues>
            -1.4741779863834381e-01 1.3070835173130035e-01</leafValues></_>
        <_>
          <internalNodes>
            0 -1 44 6.0636331909336150e-05</internalNodes>
          <leafValues>
            1.2140884250402451e-01 -1.6003045439720154e-01</leafValues></_>
        <_>
          <internalNodes>
            0 -1 102 -1.9146092236042023e-03</internalNodes>
          <leafValues>
            3.3978712558746338e-01 -6.0105185955762863e-02</leafValues></_>
        <_>
          <internalNodes>
            0 -1 674 2.6450498262420297e-04</internalNodes>
          <leafValues>
            -1.0983914881944656e-01 1.7203027009963989e-01</leafValues></_>
        <_>
          <internalNodes>
            0 -1 374 1.3283756561577320e-04</internalNodes>
          <leafValues>
            -1.2678723037242889e-01 1.4777486026287079e-01</leafValues></_>
        <_>
          <internalNodes>
            0 -1 241 3.8359500467777252e-03</internalNodes>
          <leafValues>
            -7.6110050082206726e-02 2.5317078828811646e-01</leafValues></_>
        <_>
          <internalNodes>
            0 -1 257 9.3483086675405502e-03</internalNodes>
          <leafValues>
            6.0014799237251282e-02 -3.7617048621177673e-01</leafValues></_>
        <_>
          <internalNodes>
            0 -1 72 4.0826024487614632e-03</internalNodes>
          <leafValues>
            8.5718110203742981e-02 -2.2683160006999969e-01</leafValues></_>
        <_>
          <internalNodes>
            0 -1 664 -1.9292626529932022e-03</internalNodes>
          <leafValues>
            1.9438977539539337e-01 -9.9498309195041656e-02</leafValues></_>
        <_>
          <internalNodes>
            0 -1 709 2.0212482195347548e-04</internalNodes>
          <leafValues>
            9.5144927501678467e-02 -2.1429833769798279e-01</leafValues></_>
        <_>
          <internalNodes>
            0 -1 118 -7.2831992292776704e-04</internalNodes>
          <leafValues>
            2.4793945252895355e-01 -8.0585658550262451e-02</leafValues></_>
        <_>
          <internalNodes>
            0 -1 66 -9.6462536603212357e-03</internalNodes>
          <leafValues>
            3.7091216444969177e-01 -5.7270903140306473e-02</leafValues></_>
        <_>
          <internalNodes>
            0 -1 187 2.0392974838614464e-02</internalNodes>
          <leafValues>
            -4.5479983091354370e-02 4.2736244201660156e-01</leafValues></_>
        <_>
          <internalNodes>
            0 -1 218 -1.1848968453705311e-02</internalNodes>
          <leafValues>
            2.9191893339157104e-01 -6.7628405988216400e-02</leafValues></_>
        <_>
          <internalNodes>
            0 -1 390 -7.9054264351725578e-03</internalNodes>
          <leafValues>
            -5.2126729488372803e-01 3.8008525967597961e-02</leafValues></_>
        <_>
          <internalNodes>
            0 -1 0 -3.7318974733352661e-01</internalNodes>
          <leafValues>
            5.1284706592559814e-01 -4.1285835206508636e-02</leafValues></_>
        <_>
          <internalNodes>
            0 -1 686 4.0803062729537487e-03</internalNodes>
          <leafValues>
            -7.5723424553871155e-02 2.5932097434997559e-01</leafValues></_>
        <_>
          <internalNodes>
            0 -1 700 -1.7121774144470692e-03</internalNodes>
          <leafValues>
            1.9278997182846069e-01 -1.0491579771041870e-01</leafValues></_>
        <_>
          <internalNodes>
            0 -1 693 1.7859191866591573e-03</internalNodes>
          <leafValues>
            4.2168349027633667e-02 -4.8702135682106018e-01</leafValues></_>
        <_>
          <internalNodes>
            0 -1 600 -5.9031820856034756e-03</internalNodes>
          <leafValues>
            3.9392885565757751e-01 -5.1480982452630997e-02</leafValues></_>
        <_>
          <internalNodes>
            0 -1 661 -1.9573760218918324e-03</internalNodes>
          <leafValues>
            -8.3988958597183228e-01 2.3983417078852654e-02</leafValues></_>
        <_>
          <internalNodes>
            0 -1 141 4.4498522765934467e-04</internalNodes>
          <leafValues>
            -7.4472278356552124e-02 2.5486057996749878e-01</leafValues></_>
        <_>
          <internalNodes>
            0 -1 111 -1.8757025245577097e-03</internalNodes>
          <leafValues>
            2.0032536983489990e-01 -1.0741584748029709e-01</leafValues></_></weakClassifiers></_>
    <!-- stage 8 -->
    <_>
      <maxWeakCount>62</maxWeakCount>
      <stageThreshold>-6.6807579994201660e-01</stageThreshold>
      <weakClassifiers>
        <_>
          <internalNodes>
            0 -1 463 5.0301430746912956e-03</internalNodes>
          <leafValues>
            2.2477522492408752e-01 6.4469915628433228e-01</leafValues></_>
        <_>
          <internalNodes>
            0 -1 521 3.6317403428256512e-03</internalNodes>
          <leafValues>
            -8.5455007851123810e-02 3.8858631253242493e-01</leafValues></_>
        <_>
          <internalNodes>
            0 -1 568 1.1235815472900867e-02</internalNodes>
          <leafValues>
            -1.0874962061643600e-01 3.8665065169334412e-01</leafValues></_>
        <_>
          <internalNodes>
            0 -1 196 7.7899091411381960e-04</internalNodes>
          <leafValues>
            -6.9597080349922180e-02 3.5329115390777588e-01</leafValues></_>
        <_>
          <internalNodes>
            0 -1 389 -1.2801997363567352e-03</internalNodes>
          <leafValues>
            2.7393308281898499e-01 -1.1194915324449539e-01</leafValues></_>
        <_>
          <internalNodes>
            0 -1 552 1.4715977013111115e-03</internalNodes>
          <leafValues>
            -8.8656507432460785e-02 2.8821539878845215e-01</leafValues></_>
        <_>
          <internalNodes>
            0 -1 112 -1.2924224138259888e-03</internalNodes>
          <leafValues>
            2.2288872301578522e-01 -1.0746758431196213e-01</leafValues></_>
        <_>
          <internalNodes>
            0 -1 432 8.1786205992102623e-03</internalNodes>
          <leafValues>
            6.2460463494062424e-02 -3.9845854043960571e-01</leafValues></_>
        <_>
          <internalNodes>
            0 -1 452 1.1552606010809541e-03</internalNodes>
          <leafValues>
            -1.5949802100658417e-01 1.5517345070838928e-01</leafValues></_>
        <_>
          <internalNodes>
            0 -1 407 3.2879211939871311e-03</internalNodes>
          <leafValues>
            -8.1180989742279053e-02 3.0009824037551880e-01</leafValues></_>
        <_>
          <internalNodes>
            0 -1 3 1.3374991714954376e-02</internalNodes>
          <leafValues>
            -5.2317120134830475e-02 4.4478142261505127e-01</leafValues></_>
        <_>
          <internalNodes>
            0 -1 668 1.6633358318358660e-03</internalNodes>
          <leafValues>
            -1.0398159921169281e-01 2.1947990357875824e-01</leafValues></_>
        <_>
          <internalNodes>
            0 -1 247 -1.1792465811595321e-03</internalNodes>
          <leafValues>
            -3.8210418820381165e-01 6.1426624655723572e-02</leafValues></_>
        <_>
          <internalNodes>
            0 -1 84 2.2184806875884533e-03</internalNodes>
          <leafValues>
            -1.3588491082191467e-01 1.7555877566337585e-01</leafValues></_>
        <_>
          <internalNodes>
            0 -1 143 -3.7661704118363559e-04</internalNodes>
          <leafValues>
            1.9684290885925293e-01 -1.1374263465404510e-01</leafValues></_>
        <_>
          <internalNodes>
            0 -1 692 -4.1622645221650600e-04</internalNodes>
          <leafValues>
            1.9987915456295013e-01 -1.1532852053642273e-01</leafValues></_>
        <_>
          <internalNodes>
            0 -1 47 2.4614419788122177e-02</internalNodes>
          <leafValues>
            -6.5206013619899750e-02 3.5143882036209106e-01</leafValues></_>
        <_>
          <internalNodes>
            0 -1 24 -1.0402156040072441e-02</internalNodes>
          <leafValues>
            2.8917673230171204e-01 -7.8262813389301300e-02</leafValues></_>
        <_>
          <internalNodes>
            0 -1 276 2.5297820684500039e-04</internalNodes>
          <leafValues>
            -1.2340860813856125e-01 1.9488584995269775e-01</leafValues></_>
        <_>
          <internalNodes>
            0 -1 648 -3.4774872474372387e-03</internalNodes>
          <leafValues>
            -6.0903716087341309e-01 4.1911907494068146e-02</leafValues></_>
        <_>
          <internalNodes>
            0 -1 280 -2.3166434839367867e-03</internalNodes>
          <leafValues>
            -4.2829090356826782e-01 5.2098743617534637e-02</leafValues></_>
        <_>
          <internalNodes>
            0 -1 501 -1.7589313909411430e-02</internalNodes>
          <leafValues>
            2.9787418246269226e-01 -7.9178720712661743e-02</leafValues></_>
        <_>
          <internalNodes>
            0 -1 244 1.9102459773421288e-02</internalNodes>
          <leafValues>
            5.3331810981035233e-02 -4.1843065619468689e-01</leafValues></_>
        <_>
          <internalNodes>
            0 -1 633 -4.4282613089308143e-04</internalNodes>
          <leafValues>
            2.5400763750076294e-01 -9.0344995260238647e-02</leafValues></_>
        <_>
          <internalNodes>
            0 -1 289 8.1042270176112652e-04</internalNodes>
          <leafValues>
            1.0582394152879715e-01 -2.1035423874855042e-01</leafValues></_>
        <_>
          <internalNodes>
            0 -1 38 4.4102496467530727e-03</internalNodes>
          <leafValues>
            -5.8677166700363159e-02 3.6698377132415771e-01</leafValues></_>
        <_>
          <internalNodes>
            0 -1 20 -1.9461726769804955e-03</internalNodes>
          <leafValues>
            -5.0955665111541748e-01 4.6451941132545471e-02</leafValues></_>
        <_>
          <internalNodes>
            0 -1 632 3.1753596849739552e-03</internalNodes>
          <leafValues>
            -5.1830854266881943e-02 4.4019475579261780e-01</leafValues></_>
        <_>
          <internalNodes>
            0 -1 304 2.2585824131965637e-02</internalNodes>
          <leafValues>
            5.6781493127346039e-02 -4.1669377684593201e-01</leafValues></_>
        <_>
          <internalNodes>
            0 -1 474 2.4293601512908936e-02</internalNodes>
          <leafValues>
