<?xml version="1.0"?>
<opencv_storage>
<cascade>
  <stageType>BOOST</stageType>
  <featureType>HAAR</featureType>
  <height>30</height>
  <width>30</width>
  <stageParams>
    <boostType>GAB</boostType>
    <minHitRate>9.9500000476837158e-01</minHitRate>
    <maxFalseAlarm>5.0000000000000000e-01</maxFalseAlarm>
    <weightTrimRate>9.4999999999999996e-01</weightTrimRate>
    <maxDepth>1</maxDepth>
    <maxWeakCount>100</maxWeakCount></stageParams>
  <featureParams>
    <maxCatCount>0</maxCatCount>
    <featSize>1</featSize>
    <mode>BASIC</mode></featureParams>
  <stageNum>12</stageNum>
  <stages>
    <!-- stage 0 -->
    <_>
      <maxWeakCount>3</maxWeakCount>
      <stageThreshold>-8.0665600299835205e-01</stageThreshold>
      <weakClassifiers>
        <_>
          <internalNodes>
            0 -1 6 4.3215714395046234e-02</internalNodes>
          <leafValues>
            -6.4814811944961548e-01 8.8541668653488159e-01</leafValues></_>
        <_>
          <internalNodes>
            0 -1 58 -1.6504012048244476e-02</internalNodes>
          <leafValues>
            6.2679302692413330e-01 -8.7305653095245361e-01</leafValues></_>
        <_>
          <internalNodes>
            0 -1 81 3.6208309233188629e-02</internalNodes>
          <leafValues>
            -6.6482430696487427e-01 7.1454870700836182e-01</leafValues></_></weakClassifiers></_>
    <!-- stage 1 -->
    <_>
      <maxWeakCount>5</maxWeakCount>
      <stageThreshold>-1.1131097078323364e+00</stageThreshold>
      <weakClassifiers>
        <_>
          <internalNodes>
            0 -1 5 4.3048739433288574e-02</internalNodes>
          <leafValues>
            -6.7294114828109741e-01 7.9567569494247437e-01</leafValues></_>
        <_>
          <internalNodes>
            0 -1 84 2.7019320055842400e-02</internalNodes>
          <leafValues>
            -5.4993599653244019e-01 7.2093755006790161e-01</leafValues></_>
        <_>
          <internalNodes>
            0 -1 50 -1.1386346071958542e-02</internalNodes>
          <leafValues>
            4.4563710689544678e-01 -8.8202655315399170e-01</leafValues></_>
        <_>
          <internalNodes>
            0 -1 37 1.1150326579809189e-02</internalNodes>
          <leafValues>
            -6.5420663356781006e-01 4.6290734410285950e-01</leafValues></_>
        <_>
          <internalNodes>
            0 -1 20 -2.1173860877752304e-02</internalNodes>
          <leafValues>
            3.1833696365356445e-01 -7.0877999067306519e-01</leafValues></_></weakClassifiers></_>
    <!-- stage 2 -->
    <_>
      <maxWeakCount>5</maxWeakCount>
      <stageThreshold>-7.4001765251159668e-01</stageThreshold>
      <weakClassifiers>
        <_>
          <internalNodes>
            0 -1 3 6.1508622020483017e-02</internalNodes>
          <leafValues>
            -5.2420186996459961e-01 8.1492191553115845e-01</leafValues></_>
        <_>
          <internalNodes>
            0 -1 82 5.4542154073715210e-02</internalNodes>
          <leafValues>
            -4.3467146158218384e-01 7.9998743534088135e-01</leafValues></_>
        <_>
          <internalNodes>
            0 -1 23 -1.3408593833446503e-02</internalNodes>
          <leafValues>
            3.4414741396903992e-01 -9.7617512941360474e-01</leafValues></_>
        <_>
          <internalNodes>
            0 -1 19 3.6030998453497887e-03</internalNodes>
          <leafValues>
            -6.1719667911529541e-01 3.5127028822898865e-01</leafValues></_>
        <_>
          <internalNodes>
            0 -1 69 -2.0423587411642075e-02</internalNodes>
          <leafValues>
            4.9631950259208679e-01 -4.7656205296516418e-01</leafValues></_></weakClassifiers></_>
    <!-- stage 3 -->
    <_>
      <maxWeakCount>7</maxWeakCount>
      <stageThreshold>-8.4743320941925049e-01</stageThreshold>
      <weakClassifiers>
        <_>
          <internalNodes>
            0 -1 86 2.3742927238345146e-02</internalNodes>
          <leafValues>
            -3.8964578509330750e-01 8.3114445209503174e-01</leafValues></_>
        <_>
          <internalNodes>
            0 -1 8 1.9155934453010559e-02</internalNodes>
          <leafValues>
            -5.6399244070053101e-01 6.3660711050033569e-01</leafValues></_>
        <_>
          <internalNodes>
            0 -1 55 -7.8596072271466255e-03</internalNodes>
          <leafValues>
            6.9799870252609253e-01 -3.3392325043678284e-01</leafValues></_>
        <_>
          <internalNodes>
            0 -1 48 -1.2373300269246101e-03</internalNodes>
          <leafValues>
            2.8091853857040405e-01 -8.6562043428421021e-01</leafValues></_>
        <_>
          <internalNodes>
            0 -1 2 9.2754349112510681e-02</internalNodes>
          <leafValues>
            -4.2069029808044434e-01 5.6937915086746216e-01</leafValues></_>
        <_>
          <internalNodes>
            0 -1 59 -3.6520897410809994e-03</internalNodes>
          <leafValues>
            3.2484912872314453e-01 -7.8951358795166016e-01</leafValues></_>
        <_>
          <internalNodes>
            0 -1 17 -5.5259715765714645e-02</internalNodes>
          <leafValues>
            2.8822141885757446e-01 -6.5257775783538818e-01</leafValues></_></weakClassifiers></_>
    <!-- stage 4 -->
    <_>
      <maxWeakCount>8</maxWeakCount>
      <stageThreshold>-1.2063989639282227e+00</stageThreshold>
      <weakClassifiers>
        <_>
          <internalNodes>
            0 -1 21 2.6450674980878830e-02</internalNodes>
          <leafValues>
            -5.0368547439575195e-01 6.9459170103073120e-01</leafValues></_>
        <_>
          <internalNodes>
            0 -1 85 2.0118039101362228e-02</internalNodes>
          <leafValues>
            -5.7928514480590820e-01 5.3158342838287354e-01</leafValues></_>
        <_>
          <internalNodes>
            0 -1 62 1.6360051231458783e-03</internalNodes>
          <leafValues>
            -5.4504108428955078e-01 4.6801999211311340e-01</leafValues></_>
        <_>
          <internalNodes>
            0 -1 32 8.9957844465970993e-03</internalNodes>
          <leafValues>
            -9.3519616127014160e-01 2.6253250241279602e-01</leafValues></_>
        <_>
          <internalNodes>
            0 -1 0 1.2637692689895630e-01</internalNodes>
          <leafValues>
            -4.1221451759338379e-01 5.1038575172424316e-01</leafValues></_>
        <_>
          <internalNodes>
            0 -1 52 -1.6240073600783944e-03</internalNodes>
          <leafValues>
            2.4816916882991791e-01 -7.9291546344757080e-01</leafValues></_>
        <_>
          <internalNodes>
            0 -1 10 -6.7605800926685333e-02</internalNodes>
          <leafValues>
            -9.2308032512664795e-01 1.6964097321033478e-01</leafValues></_>
        <_>
          <internalNodes>
            0 -1 54 -1.3332159724086523e-03</internalNodes>
          <leafValues>
            -8.8380795717239380e-01 1.8150813877582550e-01</leafValues></_></weakClassifiers></_>
    <!-- stage 5 -->
    <_>
      <maxWeakCount>9</maxWeakCount>
      <stageThreshold>-8.8964277505874634e-01</stageThreshold>
      <weakClassifiers>
        <_>
          <internalNodes>
            0 -1 91 7.9533774405717850e-03</internalNodes>
          <leafValues>
            -5.3825503587722778e-01 6.6547316312789917e-01</leafValues></_>
        <_>
          <internalNodes>
            0 -1 3 9.3781232833862305e-02</internalNodes>
          <leafValues>
            -3.8498523831367493e-01 6.7155241966247559e-01</leafValues></_>
        <_>
          <internalNodes>
            0 -1 38 3.7130736745893955e-03</internalNodes>
          <leafValues>
            -5.6219893693923950e-01 3.3967188000679016e-01</leafValues></_>
        <_>
          <internalNodes>
            0 -1 63 -7.9631302505731583e-03</internalNodes>
          <leafValues>
            6.3192504644393921e-01 -2.9979571700096130e-01</leafValues></_>
        <_>
          <internalNodes>
            0 -1 16 1.2719356454908848e-02</internalNodes>
          <leafValues>
            -5.5446958541870117e-01 2.9839056730270386e-01</leafValues></_>
        <_>
          <internalNodes>
            0 -1 64 -8.5144788026809692e-03</internalNodes>
          <leafValues>
            1.8493314087390900e-01 -9.1106742620468140e-01</leafValues></_>
        <_>
          <internalNodes>
            0 -1 78 -7.3528278153389692e-04</internalNodes>
          <leafValues>
            2.2242683172225952e-01 -7.8804677724838257e-01</leafValues></_>
        <_>
          <internalNodes>
            0 -1 66 -2.9607217758893967e-02</internalNodes>
          <leafValues>
            -8.3526474237442017e-01 1.9083099067211151e-01</leafValues></_>
        <_>
          <internalNodes>
            0 -1 13 -1.5144556760787964e-02</internalNodes>
          <leafValues>
            -9.2522585391998291e-01 1.2323550879955292e-01</leafValues></_></weakClassifiers></_>
    <!-- stage 6 -->
    <_>
      <maxWeakCount>8</maxWeakCount>
      <stageThreshold>-9.7120523452758789e-01</stageThreshold>
      <weakClassifiers>
        <_>
          <internalNodes>
            0 -1 24 5.1681429613381624e-04</internalNodes>
          <leafValues>
            5.4798763990402222e-01 -7.7220958471298218e-01</leafValues></_>
        <_>
          <internalNodes>
            0 -1 11 1.5791511163115501e-02</internalNodes>
          <leafValues>
            -5.7999873161315918e-01 3.9856791496276855e-01</leafValues></_>
        <_>
          <internalNodes>
            0 -1 88 -5.8744646608829498e-02</internalNodes>
          <leafValues>
            5.4233318567276001e-01 -3.9042958617210388e-01</leafValues></_>
        <_>
          <internalNodes>
            0 -1 75 -3.4682396799325943e-03</internalNodes>
          <leafValues>
            1.8835112452507019e-01 -9.3761640787124634e-01</leafValues></_>
        <_>
          <internalNodes>
            0 -1 53 6.2996475026011467e-04</internalNodes>
          <leafValues>
            -5.2179807424545288e-01 3.7055450677871704e-01</leafValues></_>
        <_>
          <internalNodes>
            0 -1 31 1.9881771877408028e-02</internalNodes>
          <leafValues>
            -6.7812037467956543e-01 2.6170971989631653e-01</leafValues></_>
        <_>
          <internalNodes>
            0 -1 42 -9.4550959765911102e-03</internalNodes>
          <leafValues>
            4.1908237338066101e-01 -4.1025102138519287e-01</leafValues></_>
        <_>
          <internalNodes>
            0 -1 65 -1.1551298201084137e-02</internalNodes>
          <leafValues>
            -8.9610970020294189e-01 1.7173342406749725e-01</leafValues></_></weakClassifiers></_>
    <!-- stage 7 -->
    <_>
      <maxWeakCount>10</maxWeakCount>
      <stageThreshold>-1.1527349948883057e+00</stageThreshold>
      <weakClassifiers>
        <_>
          <internalNodes>
            0 -1 80 1.9840188324451447e-02</internalNodes>
          <leafValues>
            -3.4965035319328308e-01 6.5146577358245850e-01</leafValues></_>
        <_>
          <internalNodes>
            0 -1 1 9.7777053713798523e-02</internalNodes>
          <leafValues>
            -3.6510819196701050e-01 5.7131516933441162e-01</leafValues></_>
        <_>
          <internalNodes>
            0 -1 44 1.0948445647954941e-02</internalNodes>
          <leafValues>
            -5.2087974548339844e-01 3.5591739416122437e-01</leafValues></_>
        <_>
          <internalNodes>
            0 -1 71 -4.5620026066899300e-03</internalNodes>
          <leafValues>
            5.1808786392211914e-01 -3.4698867797851562e-01</leafValues></_>
        <_>
          <internalNodes>
            0 -1 79 -3.1086159287951887e-04</internalNodes>
          <leafValues>
            1.7598497867584229e-01 -8.7955456972122192e-01</leafValues></_>
        <_>
          <internalNodes>
            0 -1 87 3.0088376253843307e-02</internalNodes>
          <leafValues>
            -2.5928947329521179e-01 6.7841529846191406e-01</leafValues></_>
        <_>
          <internalNodes>
            0 -1 30 -3.1535467132925987e-03</internalNodes>
          <leafValues>
            4.5826810598373413e-01 -3.3861958980560303e-01</leafValues></_>
        <_>
          <internalNodes>
            0 -1 25 -8.7562501430511475e-02</internalNodes>
          <leafValues>
            -9.5293503999710083e-01 1.7523068189620972e-01</leafValues></_>
        <_>
          <internalNodes>
            0 -1 43 3.5563076380640268e-03</internalNodes>
          <leafValues>
            -3.7649822235107422e-01 3.8872882723808289e-01</leafValues></_>
        <_>
          <internalNodes>
            0 -1 39 6.1358772218227386e-03</internalNodes>
          <leafValues>
            1.7628641426563263e-01 -9.1260093450546265e-01</leafValues></_></weakClassifiers></_>
    <!-- stage 8 -->
    <_>
      <maxWeakCount>9</maxWeakCount>
      <stageThreshold>-1.2707487344741821e+00</stageThreshold>
      <weakClassifiers>
        <_>
          <internalNodes>
            0 -1 15 7.6516708359122276e-03</internalNodes>
          <leafValues>
            -5.5258762836456299e-01 5.8591145277023315e-01</leafValues></_>
        <_>
          <internalNodes>
            0 -1 89 8.0042821355164051e-04</internalNodes>
          <leafValues>
            -5.8933967351913452e-01 3.8651075959205627e-01</leafValues></_>
        <_>
          <internalNodes>
            0 -1 47 -2.9669760260730982e-03</internalNodes>
          <leafValues>
            3.1819623708724976e-01 -6.6970252990722656e-01</leafValues></_>
        <_>
          <internalNodes>
            0 -1 46 -1.8496297299861908e-02</internalNodes>
          <leafValues>
            -7.9983443021774292e-01 2.0316566526889801e-01</leafValues></_>
        <_>
          <internalNodes>
            0 -1 61 -2.2605720907449722e-02</internalNodes>
          <leafValues>
            2.5242841243743896e-01 -6.3095325231552124e-01</leafValues></_>
        <_>
          <internalNodes>
            0 -1 36 2.2774709388613701e-02</internalNodes>
          <leafValues>
            -3.1141781806945801e-01 6.0507339239120483e-01</leafValues></_>
        <_>
          <internalNodes>
            0 -1 26 1.5596725279465318e-04</internalNodes>
          <leafValues>
            -6.5899837017059326e-01 2.1579997241497040e-01</leafValues></_>
        <_>
          <internalNodes>
            0 -1 45 -2.6532134506851435e-03</internalNodes>
          <leafValues>
            4.3034121394157410e-01 -3.6113634705543518e-01</leafValues></_>
        <_>
          <internalNodes>
            0 -1 18 7.8272037208080292e-03</internalNodes>
          <leafValues>
            1.8587166070938110e-01 -7.8214812278747559e-01</leafValues></_></weakClassifiers></_>
    <!-- stage 9 -->
    <_>
      <maxWeakCount>9</maxWeakCount>
      <stageThreshold>-9.9322527647018433e-01</stageThreshold>
      <weakClassifiers>
        <_>
          <internalNodes>
            0 -1 9 -3.1685918569564819e-02</internalNodes>
          <leafValues>
            -7.4803149700164795e-01 5.1099610328674316e-01</leafValues></_>
        <_>
          <internalNodes>
            0 -1 7 8.7565034627914429e-03</internalNodes>
          <leafValues>
            -4.1090768575668335e-01 4.9161958694458008e-01</leafValues></_>
        <_>
          <internalNodes>
            0 -1 67 9.5987168606370687e-04</internalNodes>
          <leafValues>
            -5.0707167387008667e-01 3.7432831525802612e-01</leafValues></_>
        <_>
          <internalNodes>
            0 -1 40 -3.1506859231740236e-03</internalNodes>
          <leafValues>
            1.8433655798435211e-01 -7.5046128034591675e-01</leafValues></_>
        <_>
          <internalNodes>
            0 -1 33 -9.6447858959436417e-03</internalNodes>
          <leafValues>
            -8.1799262762069702e-01 1.6780674457550049e-01</leafValues></_>
        <_>
          <internalNodes>
            0 -1 83 -4.2630424723029137e-03</internalNodes>
          <leafValues>
            6.0445678234100342e-01 -2.8154021501541138e-01</leafValues></_>
        <_>
          <internalNodes>
            0 -1 74 8.7118141353130341e-02</internalNodes>
          <leafValues>
            -4.8117414116859436e-01 3.6385247111320496e-01</leafValues></_>
        <_>
          <internalNodes>
            0 -1 22 3.0140312388539314e-02</internalNodes>
          <leafValues>
            2.1341046690940857e-01 -8.6219853162765503e-01</leafValues></_>
        <_>
          <internalNodes>
            0 -1 73 -9.7592431120574474e-04</internalNodes>
          <leafValues>
            5.5655497312545776e-01 -2.9931017756462097e-01</leafValues></_></weakClassifiers></_>
    <!-- stage 10 -->
    <_>
      <maxWeakCount>10</maxWeakCount>
      <stageThreshold>-1.1264989376068115e+00</stageThreshold>
      <weakClassifiers>
        <_>
          <internalNodes>
            0 -1 4 2.9228918254375458e-02</internalNodes>
          <leafValues>
            -2.3761375248432159e-01 6.6335475444793701e-01</leafValues></_>
        <_>
          <internalNodes>
            0 -1 28 8.3391815423965454e-03</internalNodes>
          <leafValues>
            -4.6267059445381165e-01 4.1381749510765076e-01</leafValues></_>
        <_>
          <internalNodes>
            0 -1 51 2.8593342285603285e-03</internalNodes>
          <leafValues>
            2.2000852227210999e-01 -7.3784679174423218e-01</leafValues></_>
        <_>
          <internalNodes>
            0 -1 70 4.1101180249825120e-04</internalNodes>
          <leafValues>
            -5.6808882951736450e-01 2.6874789595603943e-01</leafValues></_>
        <_>
          <internalNodes>
            0 -1 90 -8.3641475066542625e-03</internalNodes>
          <leafValues>
            3.7091109156608582e-01 -4.0265470743179321e-01</leafValues></_>
        <_>
          <internalNodes>
            0 -1 77 -1.5721744857728481e-03</internalNodes>
          <leafValues>
            -8.7329572439193726e-01 1.8012286722660065e-01</leafValues></_>
        <_>
          <internalNodes>
            0 -1 60 1.4664514921605587e-02</internalNodes>
          <leafValues>
            1.7030784487724304e-01 -8.8428586721420288e-01</leafValues></_>
        <_>
          <internalNodes>
            0 -1 35 1.5149812214076519e-02</internalNodes>
          <leafValues>
            -3.1451666355133057e-01 5.4432308673858643e-01</leafValues></_>
        <_>
          <internalNodes>
            0 -1 68 -1.2402490247040987e-03</internalNodes>
          <leafValues>
            2.2802658379077911e-01 -7.3075640201568604e-01</leafValues></_>
        <_>
          <internalNodes>
            0 -1 57 1.6082093119621277e-02</internalNodes>
          <leafValues>
            1.5959528088569641e-01 -6.9143360853195190e-01</leafValues></_></weakClassifiers></_>
    <!-- stage 11 -->
    <_>
      <maxWeakCount>11</maxWeakCount>
      <stageThreshold>-1.2654069662094116e+00</stageThreshold>
      <weakClassifiers>
        <_>
          <internalNodes>
            0 -1 27 -2.8366236947476864e-03</internalNodes>
          <leafValues>
            5.5079215764999390e-01 -5.0902527570724487e-01</leafValues></_>
        <_>
          <internalNodes>
            0 -1 14 -1.1816751211881638e-02</internalNodes>
          <leafValues>
            -7.9565185308456421e-01 2.5610822439193726e-01</leafValues></_>
        <_>
          <internalNodes>
            0 -1 92 -1.6375258564949036e-02</internalNodes>
          <leafValues>
            4.7958642244338989e-01 -3.4590813517570496e-01</leafValues></_>
        <_>
          <internalNodes>
            0 -1 29 1.3607218861579895e-02</internalNodes>
          <leafValues>
            1.7813523113727570e-01 -8.5269045829772949e-01</leafValues></_>
        <_>
          <internalNodes>
            0 -1 12 4.5834449119865894e-03</internalNodes>
          <leafValues>
            -7.8177100419998169e-01 1.6643089056015015e-01</leafValues></_>
        <_>
          <internalNodes>
            0 -1 56 -1.1350277345627546e-03</internalNodes>
          <leafValues>
            1.2744837999343872e-01 -9.0388542413711548e-01</leafValues></_>
        <_>
          <internalNodes>
            0 -1 72 -7.1224190294742584e-02</internalNodes>
          <leafValues>
            -8.1839489936828613e-01 1.4299911260604858e-01</leafValues></_>
        <_>
          <internalNodes>
            0 -1 41 2.7650804258882999e-03</internalNodes>
          <leafValues>
            -3.2043263316154480e-01 4.8452582955360413e-01</leafValues></_>
        <_>
          <internalNodes>
            0 -1 49 -4.3530249968171120e-03</internalNodes>
          <leafValues>
            -8.7910991907119751e-01 1.6496419906616211e-01</leafValues></_>
        <_>
          <internalNodes>
            0 -1 76 5.6071388535201550e-03</internalNodes>
          <leafValues>
            -3.6171314120292664e-01 4.1954395174980164e-01</leafValues></_>
        <_>
          <internalNodes>
            0 -1 34 1.7095624934881926e-03</internalNodes>
          <leafValues>
            1.8378803133964539e-01 -9.7479945421218872e-01</leafValues></_></weakClassifiers></_></stages>
  <features>
    <_>
      <rects>
        <_>
          0 1 12 28 -1.</_>
        <_>
          6 1 6 28 2.</_></rects>
      <tilted>0</tilted></_>
    <_>
      <rects>
        <_>
          0 7 10 20 -1.</_>
        <_>
          5 7 5 20 2.</_></rects>
      <tilted>0</tilted></_>
    <_>
      <rects>
        <_>
          0 8 12 19 -1.</_>
        <_>
          6 8 6 19 2.</_></rects>
      <tilted>0</tilted></_>
    <_>
      <rects>
        <_>
          0 12 15 7 -1.</_>
        <_>
          5 12 5 7 3.</_></rects>
      <tilted>0</tilted></_>
    <_>
      <rects>
        <_>
          1 15 12 3 -1.</_>
        <_>
          5 15 4 3 3.</_></rects>
      <tilted>0</tilted></_>
    <_>
      <rects>
        <_>
          2 9 12 10 -1.</_>
        <_>
          6 9 4 10 3.</_></rects>
      <tilted>0</tilted></_>
    <_>
      <rects>
        <_>
          2 11 12 8 -1.</_>
        <_>
          6 11 4 8 3.</_></rects>
      <tilted>0</tilted></_>
    <_>
      <rects>
        <_>
          2 13 4 5 -1.</_>
        <_>
          4 13 2 5 2.</_></rects>
      <tilted>0</tilted></_>
    <_>
      <rects>
        <_>
          3 14 9 5 -1.</_>
        <_>
          6 14 3 5 3.</_></rects>
      <tilted>0</tilted></_>
    <_>
      <rects>
        <_>
          4 8 22 7 -1.</_>
        <_>
          15 8 11 7 2.</_></rects>
      <tilted>0</tilted></_>
    <_>
      <rects>
        <_>
          4 9 22 10 -1.</_>
        <_>
          4 14 22 5 2.</_></rects>
      <tilted>0</tilted></_>
    <_>
      <rects>
        <_>
          4 20 14 8 -1.</_>
        <_>
          4 20 7 4 2.</_>
        <_>
          11 24 7 4 2.</_></rects>
      <tilted>0</tilted></_>
    <_>
      <rects>
        <_>
          5 5 12 18 -1.</_>
        <_>
          5 11 12 6 3.</_></rects>
      <tilted>0</tilted></_>
    <_>
      <rects>
        <_>
          5 14 22 2 -1.</_>
        <_>
          16 14 11 2 2.</_></rects>
      <tilted>0</tilted></_>
    <_>
      <rects>
        <_>
          5 17 18 6 -1.</_>
        <_>
          5 20 18 3 2.</_></rects>
      <tilted>0</tilted></_>
    <_>
      <rects>
        <_>
          6 6 2 18 -1.</_>
        <_>
          6 12 2 6 3.</_></rects>
      <tilted>0</tilted></_>
    <_>
      <rects>
        <_>
          6 8 6 15 -1.</_>
        <_>
          8 8 2 15 3.</_></rects>
      <tilted>0</tilted></_>
    <_>
      <rects>
        <_>
          6 10 18 12 -1.</_>
        <_>
          12 10 6 12 3.</_></rects>
      <tilted>0</tilted></_>
    <_>
      <rects>
        <_>
          6 11 20 2 -1.</_>
        <_>
          16 11 10 2 2.</_></rects>
      <tilted>0</tilted></_>
    <_>
      <rects>
        <_>
          6 13 6 4 -1.</_>
        <_>
          8 13 2 4 3.</_></rects>
      <tilted>0</tilted></_>
    <_>
      <rects>
        <_>
          6 15 18 4 -1.</_>
        <_>
          12 15 6 4 3.</_></rects>
      <tilted>0</tilted></_>
    <_>
      <rects>
        <_>
          7 2 2 27 -1.</_>
        <_>
          7 11 2 9 3.</_></rects>
      <tilted>0</tilted></_>
    <_>
      <rects>
        <_>
          7 9 17 12 -1.</_>
        <_>
          7 13 17 4 3.</_></rects>
      <tilted>0</tilted></_>
    <_>
      <rects>
        <_>
          7 9 17 14 -1.</_>
        <_>
          7 16 17 7 2.</_></rects>
      <tilted>0</tilted></_>
    <_>
      <rects>
        <_>
          7 11 14 3 -1.</_>
        <_>
          14 11 7 3 2.</_></rects>
      <tilted>0</tilted></_>
    <_>
      <rects>
        <_>
          7 11 18 12 -1.</_>
        <_>
          7 17 18 6 2.</_></rects>
      <tilted>0</tilted></_>
    <_>
      <rects>
        <_>
          7 13 3 7 -1.</_>
        <_>
          8 13 1 7 3.</_></rects>
      <tilted>0</tilted></_>
    <_>
      <rects>
        <_>
          7 15 1 12 -1.</_>
        <_>
          7 21 1 6 2.</_></rects>
      <tilted>0</tilted></_>
    <_>
      <rects>
        <_>
          8 2 2 12 -1.</_>
        <_>
          8 8 2 6 2.</_></rects>
      <tilted>0</tilted></_>
    <_>
      <rects>
        <_>
          8 11 17 6 -1.</_>
        <_>
          8 13 17 2 3.</_></rects>
      <tilted>0</tilted></_>
    <_>
      <rects>
        <_>
          8 23 4 4 -1.</_>
        <_>
          8 25 4 2 2.</_></rects>
      <tilted>0</tilted></_>
    <_>
      <rects>
        <_>
          9 3 15 12 -1.</_>
        <_>
          9 7 15 4 3.</_></rects>
      <tilted>0</tilted></_>
    <_>
      <rects>
        <_>
          9 3 15 15 -1.</_>
        <_>
          9 8 15 5 3.</_></rects>
      <tilted>0</tilted></_>
    <_>
      <rects>
        <_>
          9 8 16 12 -1.</_>
        <_>
          9 12 16 4 3.</_></rects>
      <tilted>0</tilted></_>
    <_>
      <rects>
        <_>
          9 18 4 3 -1.</_>
        <_>
          9 19 4 1 3.</_></rects>
      <tilted>0</tilted></_>
    <_>
      <rects>
        <_>
          10 0 13 4 -1.</_>
        <_>
          10 2 13 2 2.</_></rects>
      <tilted>0</tilted></_>
    <_>
      <rects>
        <_>
          11 0 9 6 -1.</_>
        <_>
          11 3 9 3 2.</_></rects>
      <tilted>0</tilted></_>
    <_>
      <rects>
        <_>
          11 4 11 9 -1.</_>
        <_>
          11 7 11 3 3.</_></rects>
      <tilted>0</tilted></_>
    <_>
      <rects>
        <_>
          11 5 13 4 -1.</_>
        <_>
          11 7 13 2 2.</_></rects>
      <tilted>0</tilted></_>
    <_>
      <rects>
        <_>
          11 6 9 3 -1.</_>
        <_>
          14 6 3 3 3.</_></rects>
      <tilted>0</tilted></_>
    <_>
      <rects>
        <_>
          11 7 7 8 -1.</_>
        <_>
          11 11 7 4 2.</_></rects>
      <tilted>0</tilted></_>
    <_>
      <rects>
        <_>
          11 12 4 4 -1.</_>
        <_>
          13 12 2 4 2.</_></rects>
      <tilted>0</tilted></_>
    <_>
      <rects>
        <_>
          11 15 6 10 -1.</_>
        <_>
          13 15 2 10 3.</_></rects>
      <tilted>0</tilted></_>
    <_>
      <rects>
        <_>
          11 15 6 5 -1.</_>
        <_>
          14 15 3 5 2.</_></rects>
      <tilted>0</tilted></_>
    <_>
      <rects>
        <_>
          11 18 12 6 -1.</_>
        <_>
          17 18 6 6 2.</_></rects>
      <tilted>0</tilted></_>
    <_>
      <rects>
        <_>
          11 28 11 2 -1.</_>
        <_>
          11 29 11 1 2.</_></rects>
      <tilted>0</tilted></_>
    <_>
      <rects>
        <_>
          12 5 6 18 -1.</_>
        <_>
          12 11 6 6 3.</_></rects>
      <tilted>0</tilted></_>
    <_>
      <rects>
        <_>
          12 6 7 8 -1.</_>
        <_>
          12 10 7 4 2.</_></rects>
      <tilted>0</tilted></_>
    <_>
      <rects>
        <_>
          12 7 8 8 -1.</_>
        <_>
          12 11 8 4 2.</_></rects>
      <tilted>0</tilted></_>
    <_>
      <rects>
        <_>
          12 11 12 4 -1.</_>
        <_>
          18 11 6 4 2.</_></rects>
      <tilted>0</tilted></_>
    <_>
      <rects>
        <_>
          12 11 7 15 -1.</_>
        <_>
          12 16 7 5 3.</_></rects>
      <tilted>0</tilted></_>
    <_>
      <rects>
        <_>
          12 13 10 1 -1.</_>
        <_>
          17 13 5 1 2.</_></rects>
      <tilted>0</tilted></_>
    <_>
      <rects>
        <_>
          12 13 6 4 -1.</_>
        <_>
          12 15 6 2 2.</_></rects>
      <tilted>0</tilted></_>
    <_>
      <rects>
        <_>
          12 16 4 2 -1.</_>
        <_>
          14 16 2 2 2.</_></rects>
      <tilted>0</tilted></_>
    <_>
      <rects>
        <_>
          12 17 8 8 -1.</_>
        <_>
          12 21 8 4 2.</_></rects>
      <tilted>0</tilted></_>
    <_>
      <rects>
        <_>
          12 26 6 4 -1.</_>
        <_>
          12 28 6 2 2.</_></rects>
      <tilted>0</tilted></_>
    <_>
      <rects>
        <_>
          13 5 2 14 -1.</_>
        <_>
          13 12 2 7 2.</_></rects>
      <tilted>0</tilted></_>
    <_>
      <rects>
        <_>
          13 6 7 12 -1.</_>
        <_>
          13 10 7 4 3.</_></rects>
      <tilted>0</tilted></_>
    <_>
      <rects>
        <_>
          13 7 6 14 -1.</_>
        <_>
          13 14 6 7 2.</_></rects>
      <tilted>0</tilted></_>
    <_>
      <rects>
        <_>
          13 13 6 6 -1.</_>
        <_>
          13 16 6 3 2.</_></rects>
      <tilted>0</tilted></_>
    <_>
      <rects>
        <_>
          13 16 7 8 -1.</_>
        <_>
          13 20 7 4 2.</_></rects>
      <tilted>0</tilted></_>
    <_>
      <rects>
        <_>
          13 16 14 12 -1.</_>
        <_>
          13 16 7 6 2.</_>
        <_>
          20 22 7 6 2.</_></rects>
      <tilted>0</tilted></_>
    <_>
      <rects>
        <_>
          13 23 3 4 -1.</_>
        <_>
          13 25 3 2 2.</_></rects>
      <tilted>0</tilted></_>
    <_>
      <rects>
        <_>
          13 26 4 4 -1.</_>
        <_>
          13 28 4 2 2.</_></rects>
      <tilted>0</tilted></_>
    <_>
      <rects>
        <_>
          14 5 4 22 -1.</_>
        <_>
          14 16 4 11 2.</_></rects>
      <tilted>0</tilted></_>
    <_>
      <rects>
        <_>
          14 7 9 12 -1.</_>
        <_>
          14 11 9 4 3.</_></rects>
      <tilted>0</tilted></_>
    <_>
      <rects>
        <_>
          14 8 6 10 -1.</_>
        <_>
          14 13 6 5 2.</_></rects>
      <tilted>0</tilted></_>
    <_>
      <rects>
        <_>
          14 13 6 3 -1.</_>
        <_>
          16 13 2 3 3.</_></rects>
      <tilted>0</tilted></_>
    <_>
      <rects>
        <_>
          14 14 6 4 -1.</_>
        <_>
          14 16 6 2 2.</_></rects>
      <tilted>0</tilted></_>
    <_>
      <rects>
        <_>
          14 18 12 10 -1.</_>
        <_>
          14 18 6 5 2.</_>
        <_>
          20 23 6 5 2.</_></rects>
      <tilted>0</tilted></_>
    <_>
      <rects>
        <_>
          14 23 2 4 -1.</_>
        <_>
          14 25 2 2 2.</_></rects>
      <tilted>0</tilted></_>
    <_>
      <rects>
        <_>
          14 26 3 4 -1.</_>
        <_>
          14 28 3 2 2.</_></rects>
      <tilted>0</tilted></_>
    <_>
      <rects>
        <_>
          15 4 6 22 -1.</_>
        <_>
          15 15 6 11 2.</_></rects>
      <tilted>0</tilted></_>
    <_>
      <rects>
        <_>
          15 8 2 2 -1.</_>
        <_>
          15 9 2 1 2.</_></rects>
      <tilted>0</tilted></_>
    <_>
      <rects>
        <_>
          15 9 15 15 -1.</_>
        <_>
          20 9 5 15 3.</_></rects>
      <tilted>0</tilted></_>
    <_>
      <rects>
        <_>
          15 10 6 15 -1.</_>
        <_>
          15 15 6 5 3.</_></rects>
      <tilted>0</tilted></_>
    <_>
      <rects>
        <_>
          15 12 6 4 -1.</_>
        <_>
          17 12 2 4 3.</_></rects>
      <tilted>0</tilted></_>
    <_>
      <rects>
        <_>
          15 17 6 8 -1.</_>
        <_>
          15 21 6 4 2.</_></rects>
      <tilted>0</tilted></_>
    <_>
      <rects>
        <_>
          16 9 6 15 -1.</_>
        <_>
          16 14 6 5 3.</_></rects>
      <tilted>0</tilted></_>
    <_>
      <rects>
        <_>
          16 11 9 14 -1.</_>
        <_>
          16 18 9 7 2.</_></rects>
      <tilted>0</tilted></_>
    <_>
      <rects>
        <_>
          18 3 8 14 -1.</_>
        <_>
          18 3 4 7 2.</_>
        <_>
          22 10 4 7 2.</_></rects>
      <tilted>0</tilted></_>
    <_>
      <rects>
        <_>
          18 11 12 8 -1.</_>
        <_>
          22 11 4 8 3.</_></rects>
      <tilted>0</tilted></_>
    <_>
      <rects>
        <_>
          18 11 12 9 -1.</_>
        <_>
          22 11 4 9 3.</_></rects>
      <tilted>0</tilted></_>
    <_>
      <rects>
        <_>
          18 13 4 4 -1.</_>
        <_>
          20 13 2 4 2.</_></rects>
      <tilted>0</tilted></_>
    <_>
      <rects>
        <_>
          18 13 12 5 -1.</_>
        <_>
          22 13 4 5 3.</_></rects>
      <tilted>0</tilted></_>
    <_>
      <rects>
        <_>
          19 11 9 7 -1.</_>
        <_>
          22 11 3 7 3.</_></rects>
      <tilted>0</tilted></_>
    <_>
      <rects>
        <_>
          20 13 9 5 -1.</_>
        <_>
          23 13 3 5 3.</_></rects>
      <tilted>0</tilted></_>
    <_>
      <rects>
        <_>
          21 14 9 4 -1.</_>
        <_>
          24 14 3 4 3.</_></rects>
      <tilted>0</tilted></_>
    <_>
      <rects>
        <_>
          22 6 8 18 -1.</_>
        <_>
          26 6 4 18 2.</_></rects>
      <tilted>0</tilted></_>
    <_>
      <rects>
        <_>
          22 12 3 6 -1.</_>
        <_>
          23 12 1 6 3.</_></rects>
      <tilted>0</tilted></_>
    <_>
      <rects>
        <_>
          22 19 2 10 -1.</_>
        <_>
          22 24 2 5 2.</_></rects>
      <tilted>0</tilted></_>
    <_>
      <rects>
        <_>
          24 4 1 24 -1.</_>
        <_>
          24 12 1 8 3.</_></rects>
      <tilted>0</tilted></_>
    <_>
      <rects>
        <_>
          26 8 4 13 -1.</_>
        <_>
          28 8 2 13 2.</_></rects>
      <tilted>0</tilted></_></features></cascade>
</opencv_storage>
