<?xml version="1.0"?>
<opencv_storage>
<stage12>
  <maxWeakCount>56</maxWeakCount>
  <stageThreshold>-8.0477786064147949e-01</stageThreshold>
  <weakClassifiers>
    <_>
      <internalNodes>
        0 -1 284442 1.6572035849094391e-02</internalNodes>
      <leafValues>
        1.8046708405017853e-01 6.8627452850341797e-01</leafValues></_>
    <_>
      <internalNodes>
        0 -1 181136 2.7785426005721092e-02</internalNodes>
      <leafValues>
        -2.4379344284534454e-01 2.7191826701164246e-01</leafValues></_>
    <_>
      <internalNodes>
        0 -1 283606 2.0601889118552208e-02</internalNodes>
      <leafValues>
        -1.0893111675977707e-01 5.1406574249267578e-01</leafValues></_>
    <_>
      <internalNodes>
        0 -1 240383 2.6248902082443237e-02</internalNodes>
      <leafValues>
        -1.1908886581659317e-01 3.4894475340843201e-01</leafValues></_>
    <_>
      <internalNodes>
        0 -1 253273 2.5197148323059082e-02</internalNodes>
      <leafValues>
        -7.5490608811378479e-02 4.9990296363830566e-01</leafValues></_>
    <_>
      <internalNodes>
        0 -1 295865 -4.2756531387567520e-02</internalNodes>
      <leafValues>
        2.2152633965015411e-01 -1.6463671624660492e-01</leafValues></_>
    <_>
      <internalNodes>
        0 -1 266988 -5.7397522032260895e-03</internalNodes>
      <leafValues>
        1.8833509087562561e-01 -1.7043027281761169e-01</leafValues></_>
    <_>
      <internalNodes>
        0 -1 294902 3.7838078569620848e-03</internalNodes>
      <leafValues>
        -9.3189731240272522e-02 3.3302313089370728e-01</leafValues></_>
    <_>
      <internalNodes>
        0 -1 218230 -7.6884927693754435e-04</internalNodes>
      <leafValues>
        -4.4137373566627502e-01 7.6135516166687012e-02</leafValues></_>
    <_>
      <internalNodes>
        0 -1 334232 -9.6776988357305527e-03</internalNodes>
      <leafValues>
        5.5120176076889038e-01 -6.3588000833988190e-02</leafValues></_>
    <_>
      <internalNodes>
        0 -1 391573 -2.0253155380487442e-03</internalNodes>
      <leafValues>
        -4.9324959516525269e-01 7.0135019719600677e-02</leafValues></_>
    <_>
      <internalNodes>
        0 -1 196032 3.4593383315950632e-04</internalNodes>
      <leafValues>
        -1.3602869212627411e-01 2.2955934703350067e-01</leafValues></_>
    <_>
      <internalNodes>
        0 -1 250318 1.2547696009278297e-02</internalNodes>
      <leafValues>
        -1.2879650294780731e-01 2.3259772360324860e-01</leafValues></_>
    <_>
      <internalNodes>
        0 -1 160288 1.4038171619176865e-02</internalNodes>
      <leafValues>
        -1.5227745473384857e-01 1.7233312129974365e-01</leafValues></_>
    <_>
      <internalNodes>
        0 -1 187780 -1.1310454457998276e-02</internalNodes>
      <leafValues>
        5.1402097940444946e-01 -6.1034113168716431e-02</leafValues></_>
    <_>
      <internalNodes>
        0 -1 267073 4.7819846076890826e-04</internalNodes>
      <leafValues>
        7.7806830406188965e-02 -3.3364436030387878e-01</leafValues></_>
    <_>
      <internalNodes>
        0 -1 214194 -2.6460306253284216e-03</internalNodes>
      <leafValues>
        -2.2141484916210175e-01 1.1452803015708923e-01</leafValues></_>
    <_>
      <internalNodes>
        0 -1 307597 2.4588077794760466e-03</internalNodes>
      <leafValues>
        4.9615919589996338e-02 -5.2327466011047363e-01</leafValues></_>
    <_>
      <internalNodes>
        0 -1 206280 6.6704154014587402e-03</internalNodes>
      <leafValues>
        -3.7175808101892471e-02 7.8153300285339355e-01</leafValues></_>
    <_>
      <internalNodes>
        0 -1 333567 2.4890176951885223e-02</internalNodes>
      <leafValues>
        -2.3948347195982933e-02 7.8622275590896606e-01</leafValues></_>
    <_>
      <internalNodes>
        0 -1 239813 2.3680815938860178e-03</internalNodes>
      <leafValues>
        6.5871268510818481e-02 -4.0029862523078918e-01</leafValues></_>
    <_>
      <internalNodes>
        0 -1 262294 4.6936128288507462e-02</internalNodes>
      <leafValues>
        4.0075603872537613e-02 -5.7972353696823120e-01</leafValues></_>
    <_>
      <internalNodes>
        0 -1 100394 -9.7138117998838425e-03</internalNodes>
      <leafValues>
        -5.1072627305984497e-01 4.3957937508821487e-02</leafValues></_>
    <_>
      <internalNodes>
        0 -1 272074 -8.0164149403572083e-04</internalNodes>
      <leafValues>
        1.4526507258415222e-01 -1.7154192924499512e-01</leafValues></_>
    <_>
      <internalNodes>
        0 -1 322673 3.7420564331114292e-03</internalNodes>
      <leafValues>
        2.6429677382111549e-02 -8.8628613948822021e-01</leafValues></_>
    <_>
      <internalNodes>
        0 -1 297824 -6.9688912481069565e-04</internalNodes>
      <leafValues>
        -4.2418503761291504e-01 5.5518094450235367e-02</leafValues></_>
    <_>
      <internalNodes>
        0 -1 1484 4.0223024785518646e-02</internalNodes>
      <leafValues>
        -1.8090933561325073e-01 1.3456499576568604e-01</leafValues></_>
    <_>
      <internalNodes>
        0 -1 81728 -3.1959019601345062e-02</internalNodes>
      <leafValues>
        4.7783127427101135e-01 -5.7467084378004074e-02</leafValues></_>
    <_>
      <internalNodes>
        0 -1 13060 5.3164698183536530e-03</internalNodes>
      <leafValues>
        9.3756742775440216e-02 -3.6398324370384216e-01</leafValues></_>
    <_>
      <internalNodes>
        0 -1 280906 3.7822755984961987e-03</internalNodes>
      <leafValues>
        -7.3836512863636017e-02 3.4683176875114441e-01</leafValues></_>
    <_>
      <internalNodes>
        0 -1 185669 4.7442968934774399e-03</internalNodes>
      <leafValues>
        -1.3609255850315094e-01 1.7673860490322113e-01</leafValues></_>
    <_>
      <internalNodes>
        0 -1 247498 -3.2310567796230316e-02</internalNodes>
      <leafValues>
        3.9264029264450073e-01 -6.4356520771980286e-02</leafValues></_>
    <_>
      <internalNodes>
        0 -1 266864 2.2006498184055090e-03</internalNodes>
      <leafValues>
        3.3293884247541428e-02 -8.2178217172622681e-01</leafValues></_>
    <_>
      <internalNodes>
        0 -1 119985 -4.1678645648062229e-03</internalNodes>
      <leafValues>
        -4.0631824731826782e-01 5.1196351647377014e-02</leafValues></_>
    <_>
      <internalNodes>
        0 -1 129877 -9.3200400471687317e-02</internalNodes>
      <leafValues>
        3.2674837112426758e-01 -7.0310465991497040e-02</leafValues></_>
    <_>
      <internalNodes>
        0 -1 320246 -2.1166540682315826e-02</internalNodes>
      <leafValues>
        -3.3908063173294067e-01 7.2440139949321747e-02</leafValues></_>
    <_>
      <internalNodes>
        0 -1 223396 -1.4146156609058380e-02</internalNodes>
      <leafValues>
        -2.0649735629558563e-01 1.0829731076955795e-01</leafValues></_>
    <_>
      <internalNodes>
        0 -1 166140 1.1274626012891531e-03</internalNodes>
      <leafValues>
        5.6770630180835724e-02 -3.9083158969879150e-01</leafValues></_>
    <_>
      <internalNodes>
        0 -1 241121 2.9589617624878883e-03</internalNodes>
      <leafValues>
        -1.0326724499464035e-01 2.2394244372844696e-01</leafValues></_>
    <_>
      <internalNodes>
        0 -1 241039 -1.8465219764038920e-03</internalNodes>
      <leafValues>
        2.6621523499488831e-01 -1.2985129654407501e-01</leafValues></_>
    <_>
      <internalNodes>
        0 -1 330361 4.7531267628073692e-03</internalNodes>
      <leafValues>
        3.4346710890531540e-02 -7.7096903324127197e-01</leafValues></_>
    <_>
      <internalNodes>
        0 -1 344680 1.4251194894313812e-02</internalNodes>
      <leafValues>
        -5.9489939361810684e-02 4.6409639716148376e-01</leafValues></_>
    <_>
      <internalNodes>
        0 -1 372559 1.8035424873232841e-03</internalNodes>
      <leafValues>
        4.9431588500738144e-02 -5.1646512746810913e-01</leafValues></_>
    <_>
      <internalNodes>
        0 -1 199574 9.8343938589096069e-03</internalNodes>
      <leafValues>
        -1.2045108526945114e-01 1.9754254817962646e-01</leafValues></_>
    <_>
      <internalNodes>
        0 -1 295027 1.2663267552852631e-03</internalNodes>
      <leafValues>
        3.9772246032953262e-02 -5.9073287248611450e-01</leafValues></_>
    <_>
      <internalNodes>
        0 -1 49109 3.4208227880299091e-03</internalNodes>
      <leafValues>
        7.7569745481014252e-02 -3.1294631958007812e-01</leafValues></_>
    <_>
      <internalNodes>
        0 -1 282587 -3.5962674883194268e-04</internalNodes>
      <leafValues>
        -2.0561468601226807e-01 1.1612978577613831e-01</leafValues></_>
    <_>
      <internalNodes>
        0 -1 255360 -1.8085341900587082e-02</internalNodes>
      <leafValues>
        6.1159300804138184e-01 -3.9133749902248383e-02</leafValues></_>
    <_>
      <internalNodes>
        0 -1 253273 -1.2112606782466173e-03</internalNodes>
      <leafValues>
        1.7718738317489624e-01 -1.6290575265884399e-01</leafValues></_>
    <_>
      <internalNodes>
        0 -1 256870 -3.0366959981620312e-03</internalNodes>
      <leafValues>
        2.9779088497161865e-01 -8.9444749057292938e-02</leafValues></_>
    <_>
      <internalNodes>
        0 -1 166318 -2.5478655006736517e-03</internalNodes>
      <leafValues>
        -4.4295617938041687e-01 6.0594644397497177e-02</leafValues></_>
    <_>
      <internalNodes>
        0 -1 357545 7.6211197301745415e-03</internalNodes>
      <leafValues>
        -3.3588521182537079e-02 7.1676254272460938e-01</leafValues></_>
    <_>
      <internalNodes>
        0 -1 294156 -2.2460235049948096e-04</internalNodes>
      <leafValues>
        1.9217416644096375e-01 -1.2723957002162933e-01</leafValues></_>
    <_>
      <internalNodes>
        0 -1 48901 -3.0107863130979240e-04</internalNodes>
      <leafValues>
        -2.5558528304100037e-01 1.0123781859874725e-01</leafValues></_>
    <_>
      <internalNodes>
        0 -1 202008 2.9285278287716210e-04</internalNodes>
      <leafValues>
        -1.8779097497463226e-01 1.2820005416870117e-01</leafValues></_>
    <_>
      <internalNodes>
        0 -1 232801 3.3410254865884781e-02</internalNodes>
      <leafValues>
        3.9144117385149002e-02 -6.4883702993392944e-01</leafValues></_></weakClassifiers></stage12>
</opencv_storage>
