<?xml version="1.0"?>
<opencv_storage>
<stage2>
  <maxWeakCount>27</maxWeakCount>
  <stageThreshold>-1.0795483589172363e+00</stageThreshold>
  <weakClassifiers>
    <_>
      <internalNodes>
        0 -1 167714 1.7734449356794357e-02</internalNodes>
      <leafValues>
        -1.5759849548339844e-01 6.5361076593399048e-01</leafValues></_>
    <_>
      <internalNodes>
        0 -1 280485 2.6477763429284096e-02</internalNodes>
      <leafValues>
        -2.6354405283927917e-01 6.7142891883850098e-01</leafValues></_>
    <_>
      <internalNodes>
        0 -1 255273 2.1039139479398727e-02</internalNodes>
      <leafValues>
        -1.7274731397628784e-01 6.4845591783523560e-01</leafValues></_>
    <_>
      <internalNodes>
        0 -1 24465 5.3281385451555252e-02</internalNodes>
      <leafValues>
        -3.1662026047706604e-01 3.0721011757850647e-01</leafValues></_>
    <_>
      <internalNodes>
        0 -1 235071 -1.2431994080543518e-02</internalNodes>
      <leafValues>
        4.0794715285301208e-01 -1.9519846141338348e-01</leafValues></_>
    <_>
      <internalNodes>
        0 -1 294902 3.5916501656174660e-03</internalNodes>
      <leafValues>
        -1.1700310558080673e-01 5.9236079454421997e-01</leafValues></_>
    <_>
      <internalNodes>
        0 -1 281858 3.7322442978620529e-02</internalNodes>
      <leafValues>
        -6.2946848571300507e-02 9.0627044439315796e-01</leafValues></_>
    <_>
      <internalNodes>
        0 -1 240443 2.1675251424312592e-02</internalNodes>
      <leafValues>
        -1.2113621830940247e-01 4.6607318520545959e-01</leafValues></_>
    <_>
      <internalNodes>
        0 -1 329874 8.6550433188676834e-03</internalNodes>
      <leafValues>
        -1.1565700173377991e-01 5.0276184082031250e-01</leafValues></_>
    <_>
      <internalNodes>
        0 -1 200082 1.0583186522126198e-02</internalNodes>
      <leafValues>
        -7.7115304768085480e-02 6.2990194559097290e-01</leafValues></_>
    <_>
      <internalNodes>
        0 -1 392373 -6.0593429952859879e-04</internalNodes>
      <leafValues>
        -3.2762575149536133e-01 1.5955021977424622e-01</leafValues></_>
    <_>
      <internalNodes>
        0 -1 61811 1.2821905314922333e-02</internalNodes>
      <leafValues>
        1.4706268906593323e-01 -3.7012520432472229e-01</leafValues></_>
    <_>
      <internalNodes>
        0 -1 286088 -2.1681832149624825e-03</internalNodes>
      <leafValues>
        4.4043090939521790e-01 -1.4092481136322021e-01</leafValues></_>
    <_>
      <internalNodes>
        0 -1 85817 2.3278433829545975e-02</internalNodes>
      <leafValues>
        -1.4557412266731262e-01 2.9744416475296021e-01</leafValues></_>
    <_>
      <internalNodes>
        0 -1 253364 2.3243809118866920e-03</internalNodes>
      <leafValues>
        9.8722115159034729e-02 -4.5217832922935486e-01</leafValues></_>
    <_>
      <internalNodes>
        0 -1 354050 -3.1173368915915489e-03</internalNodes>
      <leafValues>
        -4.2133653163909912e-01 1.0098248720169067e-01</leafValues></_>
    <_>
      <internalNodes>
        0 -1 353390 -6.5984688699245453e-03</internalNodes>
      <leafValues>
        3.3177477121353149e-01 -1.4204849302768707e-01</leafValues></_>
    <_>
      <internalNodes>
        0 -1 387145 -2.5391019880771637e-03</internalNodes>
      <leafValues>
        -6.0685038566589355e-01 7.2370707988739014e-02</leafValues></_>
    <_>
      <internalNodes>
        0 -1 117539 6.3119763508439064e-03</internalNodes>
      <leafValues>
        -2.3422704637050629e-01 1.8608430027961731e-01</leafValues></_>
    <_>
      <internalNodes>
        0 -1 275350 -4.6532152919098735e-04</internalNodes>
      <leafValues>
        -2.5002938508987427e-01 1.6688108444213867e-01</leafValues></_>
    <_>
      <internalNodes>
        0 -1 76191 -2.8818730264902115e-02</internalNodes>
      <leafValues>
        -4.5778247714042664e-01 9.0979792177677155e-02</leafValues></_>
    <_>
      <internalNodes>
        0 -1 41971 5.9130843728780746e-03</internalNodes>
      <leafValues>
        1.0401904582977295e-01 -4.1451671719551086e-01</leafValues></_>
    <_>
      <internalNodes>
        0 -1 177464 1.0217115283012390e-02</internalNodes>
      <leafValues>
        -2.2649830579757690e-01 1.8341404199600220e-01</leafValues></_>
    <_>
      <internalNodes>
        0 -1 390809 -8.5136689245700836e-02</internalNodes>
      <leafValues>
        6.4549535512924194e-01 -6.9102391600608826e-02</leafValues></_>
    <_>
      <internalNodes>
        0 -1 280928 5.6853638961911201e-03</internalNodes>
      <leafValues>
        -5.8542780578136444e-02 6.0236972570419312e-01</leafValues></_>
    <_>
      <internalNodes>
        0 -1 267002 3.2215476036071777e-02</internalNodes>
      <leafValues>
        -5.8654110878705978e-02 6.3638716936111450e-01</leafValues></_>
    <_>
      <internalNodes>
        0 -1 281148 -6.7022084258496761e-03</internalNodes>
      <leafValues>
        3.2793226838111877e-01 -1.5777714550495148e-01</leafValues></_></weakClassifiers></stage2>
</opencv_storage>
