<?xml version="1.0"?>
<opencv_storage>
<stage9>
  <maxWeakCount>52</maxWeakCount>
  <stageThreshold>-6.9870007038116455e-01</stageThreshold>
  <weakClassifiers>
    <_>
      <internalNodes>
        0 -1 268743 3.5734467208385468e-02</internalNodes>
      <leafValues>
        1.6017316281795502e-01 7.0892018079757690e-01</leafValues></_>
    <_>
      <internalNodes>
        0 -1 265971 4.0598079562187195e-02</internalNodes>
      <leafValues>
        -1.6237409412860870e-01 4.3696057796478271e-01</leafValues></_>
    <_>
      <internalNodes>
        0 -1 280958 2.9103441163897514e-02</internalNodes>
      <leafValues>
        -1.1592712998390198e-01 5.4327791929244995e-01</leafValues></_>
    <_>
      <internalNodes>
        0 -1 257117 4.0800487622618675e-03</internalNodes>
      <leafValues>
        -1.9451612234115601e-01 3.0097699165344238e-01</leafValues></_>
    <_>
      <internalNodes>
        0 -1 236500 7.1286812424659729e-02</internalNodes>
      <leafValues>
        -9.7572714090347290e-02 5.2767050266265869e-01</leafValues></_>
    <_>
      <internalNodes>
        0 -1 251337 -3.5064471885561943e-03</internalNodes>
      <leafValues>
        3.3851653337478638e-01 -1.4857828617095947e-01</leafValues></_>
    <_>
      <internalNodes>
        0 -1 281110 1.9864773377776146e-02</internalNodes>
      <leafValues>
        -6.5114572644233704e-02 6.4634329080581665e-01</leafValues></_>
    <_>
      <internalNodes>
        0 -1 333418 -5.3554759360849857e-03</internalNodes>
      <leafValues>
        2.2215647995471954e-01 -1.4118710160255432e-01</leafValues></_>
    <_>
      <internalNodes>
        0 -1 144664 2.1711468696594238e-02</internalNodes>
      <leafValues>
        -1.5982724726200104e-01 2.2826737165451050e-01</leafValues></_>
    <_>
      <internalNodes>
        0 -1 312622 1.8383314833045006e-02</internalNodes>
      <leafValues>
        -4.9926351755857468e-02 6.5457797050476074e-01</leafValues></_>
    <_>
      <internalNodes>
        0 -1 349415 -8.7919700890779495e-03</internalNodes>
      <leafValues>
        2.5576689839363098e-01 -1.2250580638647079e-01</leafValues></_>
    <_>
      <internalNodes>
        0 -1 239982 -8.5284635424613953e-03</internalNodes>
      <leafValues>
        3.6495482921600342e-01 -8.2626372575759888e-02</leafValues></_>
    <_>
      <internalNodes>
        0 -1 30761 -3.9970862865447998e-01</internalNodes>
      <leafValues>
        4.3202567100524902e-01 -7.6639018952846527e-02</leafValues></_>
    <_>
      <internalNodes>
        0 -1 160155 6.1992341652512550e-03</internalNodes>
      <leafValues>
        -9.7948350012302399e-02 3.2357951998710632e-01</leafValues></_>
    <_>
      <internalNodes>
        0 -1 200115 7.9948520287871361e-03</internalNodes>
      <leafValues>
        -2.5103190541267395e-01 1.3229735195636749e-01</leafValues></_>
    <_>
      <internalNodes>
        0 -1 29968 1.0117959976196289e-01</internalNodes>
      <leafValues>
        -7.2049044072628021e-02 4.5847168564796448e-01</leafValues></_>
    <_>
      <internalNodes>
        0 -1 392142 -9.6091878367587924e-04</internalNodes>
      <leafValues>
        -2.2168965637683868e-01 1.2196005880832672e-01</leafValues></_>
    <_>
      <internalNodes>
        0 -1 240797 1.2020280584692955e-02</internalNodes>
      <leafValues>
        -4.0376503020524979e-02 5.4610002040863037e-01</leafValues></_>
    <_>
      <internalNodes>
        0 -1 284259 6.4197246683761477e-04</internalNodes>
      <leafValues>
        -9.8603747785091400e-02 2.3896662890911102e-01</leafValues></_>
    <_>
      <internalNodes>
        0 -1 220697 -2.5678346864879131e-03</internalNodes>
      <leafValues>
        1.7337717115879059e-01 -1.8945091962814331e-01</leafValues></_>
    <_>
      <internalNodes>
        0 -1 285926 7.2783068753778934e-03</internalNodes>
      <leafValues>
        2.5678617879748344e-02 -9.8979514837265015e-01</leafValues></_>
    <_>
      <internalNodes>
        0 -1 138721 -6.0722464695572853e-03</internalNodes>
      <leafValues>
        -5.1835799217224121e-01 4.3338429182767868e-02</leafValues></_>
    <_>
      <internalNodes>
        0 -1 266970 -5.5514518171548843e-03</internalNodes>
      <leafValues>
        2.1356308460235596e-01 -1.3191363215446472e-01</leafValues></_>
    <_>
      <internalNodes>
        0 -1 25732 2.7336925268173218e-02</internalNodes>
      <leafValues>
        -1.0031413286924362e-01 3.5734796524047852e-01</leafValues></_>
    <_>
      <internalNodes>
        0 -1 251552 2.1768743172287941e-03</internalNodes>
      <leafValues>
        4.0237985551357269e-02 -6.9221246242523193e-01</leafValues></_>
    <_>
      <internalNodes>
        0 -1 123159 -1.1798396008089185e-03</internalNodes>
      <leafValues>
        -3.5785546898841858e-01 6.7649282515048981e-02</leafValues></_>
    <_>
      <internalNodes>
        0 -1 344522 1.3453456573188305e-02</internalNodes>
      <leafValues>
        -3.2340694218873978e-02 7.9443949460983276e-01</leafValues></_>
    <_>
      <internalNodes>
        0 -1 222579 7.2210449725389481e-03</internalNodes>
      <leafValues>
        -1.2564732134342194e-01 1.9249145686626434e-01</leafValues></_>
    <_>
      <internalNodes>
        0 -1 188146 7.0712246000766754e-02</internalNodes>
      <leafValues>
        -6.6711746156215668e-02 3.8620027899742126e-01</leafValues></_>
    <_>
      <internalNodes>
        0 -1 220304 -3.6109656095504761e-02</internalNodes>
      <leafValues>
        2.9547277092933655e-01 -9.2208795249462128e-02</leafValues></_>
    <_>
      <internalNodes>
        0 -1 181829 -2.1736285998485982e-04</internalNodes>
      <leafValues>
        -2.2002629935741425e-01 1.1362196505069733e-01</leafValues></_>
    <_>
      <internalNodes>
        0 -1 271033 4.4033238664269447e-03</internalNodes>
      <leafValues>
        3.4897122532129288e-02 -6.8735885620117188e-01</leafValues></_>
    <_>
      <internalNodes>
        0 -1 163390 1.5395428985357285e-02</internalNodes>
      <leafValues>
        7.9664170742034912e-02 -3.0457782745361328e-01</leafValues></_>
    <_>
      <internalNodes>
        0 -1 335175 -3.2214124803431332e-04</internalNodes>
      <leafValues>
        2.0482997596263885e-01 -1.3004754483699799e-01</leafValues></_>
    <_>
      <internalNodes>
        0 -1 281085 1.0691107017919421e-03</internalNodes>
      <leafValues>
        -1.2213212996721268e-01 1.9490472972393036e-01</leafValues></_>
    <_>
      <internalNodes>
        0 -1 234815 -1.2064054608345032e-02</internalNodes>
      <leafValues>
        3.3107441663742065e-01 -7.4545413255691528e-02</leafValues></_>
    <_>
      <internalNodes>
        0 -1 50600 1.1331015266478062e-03</internalNodes>
      <leafValues>
        1.1169526726007462e-01 -2.6238718628883362e-01</leafValues></_>
    <_>
      <internalNodes>
        0 -1 249595 1.2158448807895184e-02</internalNodes>
      <leafValues>
        -2.4226751923561096e-01 1.0067014396190643e-01</leafValues></_>
    <_>
      <internalNodes>
        0 -1 330017 3.3651229459792376e-03</internalNodes>
      <leafValues>
        2.7639713138341904e-02 -9.0372800827026367e-01</leafValues></_>
    <_>
      <internalNodes>
        0 -1 140253 1.7807278037071228e-01</internalNodes>
      <leafValues>
        3.1290411949157715e-02 -6.2925410270690918e-01</leafValues></_>
    <_>
      <internalNodes>
        0 -1 364782 -1.7539088148623705e-03</internalNodes>
      <leafValues>
        2.6429829001426697e-01 -9.1591022908687592e-02</leafValues></_>
    <_>
      <internalNodes>
        0 -1 348336 -9.6852832939475775e-04</internalNodes>
      <leafValues>
        -2.3959870636463165e-01 1.0049910843372345e-01</leafValues></_>
    <_>
      <internalNodes>
        0 -1 234538 -1.5155971981585026e-02</internalNodes>
      <leafValues>
        3.0509683489799500e-01 -7.8776344656944275e-02</leafValues></_>
    <_>
      <internalNodes>
        0 -1 295026 2.6433239690959454e-03</internalNodes>
      <leafValues>
        3.7607774138450623e-02 -6.5386766195297241e-01</leafValues></_>
    <_>
      <internalNodes>
        0 -1 143677 3.8739047944545746e-02</internalNodes>
      <leafValues>
        -1.6590699553489685e-01 1.4427028596401215e-01</leafValues></_>
    <_>
      <internalNodes>
        0 -1 226139 -9.6656782552599907e-03</internalNodes>
      <leafValues>
        4.1841173171997070e-01 -5.4982975125312805e-02</leafValues></_>
    <_>
      <internalNodes>
        0 -1 78425 3.1300172209739685e-02</internalNodes>
      <leafValues>
        5.7217776775360107e-02 -4.0981477499008179e-01</leafValues></_>
    <_>
      <internalNodes>
        0 -1 207236 7.7755254460498691e-04</internalNodes>
      <leafValues>
        6.3313983380794525e-02 -3.4433683753013611e-01</leafValues></_>
    <_>
      <internalNodes>
        0 -1 60644 4.5329555869102478e-03</internalNodes>
      <leafValues>
        3.8740839809179306e-02 -5.7141804695129395e-01</leafValues></_>
    <_>
      <internalNodes>
        0 -1 49833 -3.1928424723446369e-03</internalNodes>
      <leafValues>
        1.0332627594470978e-01 -2.1909475326538086e-01</leafValues></_>
    <_>
      <internalNodes>
        0 -1 32196 -5.1001405715942383e-01</internalNodes>
      <leafValues>
        7.8720563650131226e-01 -3.3638842403888702e-02</leafValues></_>
    <_>
      <internalNodes>
        0 -1 387296 1.5616603195667267e-03</internalNodes>
      <leafValues>
        8.9701339602470398e-02 -2.6667454838752747e-01</leafValues></_></weakClassifiers></stage9>
</opencv_storage>
