<?xml version="1.0"?>
<opencv_storage>
<stage3>
  <maxWeakCount>33</maxWeakCount>
  <stageThreshold>-9.6564656496047974e-01</stageThreshold>
  <weakClassifiers>
    <_>
      <internalNodes>
        0 -1 282758 1.7626918852329254e-02</internalNodes>
      <leafValues>
        1.4666666276752949e-02 7.3166668415069580e-01</leafValues></_>
    <_>
      <internalNodes>
        0 -1 280427 2.8782060369849205e-02</internalNodes>
      <leafValues>
        -1.1410973966121674e-01 7.8416550159454346e-01</leafValues></_>
    <_>
      <internalNodes>
        0 -1 56000 2.5807470083236694e-02</internalNodes>
      <leafValues>
        -3.7789747118949890e-01 2.1939839422702789e-01</leafValues></_>
    <_>
      <internalNodes>
        0 -1 119266 3.9115421473979950e-02</internalNodes>
      <leafValues>
        -2.6058641076087952e-01 2.9134136438369751e-01</leafValues></_>
    <_>
      <internalNodes>
        0 -1 250587 2.3460440337657928e-02</internalNodes>
      <leafValues>
        -1.2942603230476379e-01 4.7916123270988464e-01</leafValues></_>
    <_>
      <internalNodes>
        0 -1 281150 2.2712737321853638e-02</internalNodes>
      <leafValues>
        -1.1226430535316467e-01 6.9973319768905640e-01</leafValues></_>
    <_>
      <internalNodes>
        0 -1 223732 1.1640281416475773e-02</internalNodes>
      <leafValues>
        -1.2582144141197205e-01 4.0971073508262634e-01</leafValues></_>
    <_>
      <internalNodes>
        0 -1 282753 1.6716785728931427e-02</internalNodes>
      <leafValues>
        -8.2694791257381439e-02 7.5795823335647583e-01</leafValues></_>
    <_>
      <internalNodes>
        0 -1 198146 3.6627057939767838e-02</internalNodes>
      <leafValues>
        -1.1528327316045761e-01 3.9172840118408203e-01</leafValues></_>
    <_>
      <internalNodes>
        0 -1 294501 -7.0304549299180508e-03</internalNodes>
      <leafValues>
        3.7355574965476990e-01 -1.4530225098133087e-01</leafValues></_>
    <_>
      <internalNodes>
        0 -1 1072 -6.7256428301334381e-03</internalNodes>
      <leafValues>
        -5.6455421447753906e-01 7.4127338826656342e-02</leafValues></_>
    <_>
      <internalNodes>
        0 -1 168785 -1.5199809335172176e-02</internalNodes>
      <leafValues>
        4.2511525750160217e-01 -1.0509150475263596e-01</leafValues></_>
    <_>
      <internalNodes>
        0 -1 1699 -4.1410225629806519e-01</internalNodes>
      <leafValues>
        4.2311382293701172e-01 -1.1519993096590042e-01</leafValues></_>
    <_>
      <internalNodes>
        0 -1 280934 7.0328274741768837e-03</internalNodes>
      <leafValues>
        -1.0152792930603027e-01 4.0029269456863403e-01</leafValues></_>
    <_>
      <internalNodes>
        0 -1 330688 4.7087203711271286e-04</internalNodes>
      <leafValues>
        1.0455481708049774e-01 -4.0709599852561951e-01</leafValues></_>
    <_>
      <internalNodes>
        0 -1 72836 2.8596127405762672e-02</internalNodes>
      <leafValues>
        -1.3314947485923767e-01 3.0586156249046326e-01</leafValues></_>
    <_>
      <internalNodes>
        0 -1 365391 -9.2131346464157104e-03</internalNodes>
      <leafValues>
        4.1707488894462585e-01 -9.1506592929363251e-02</leafValues></_>
    <_>
      <internalNodes>
        0 -1 219554 3.5800463519990444e-03</internalNodes>
      <leafValues>
        -3.5447078943252563e-01 1.2426909059286118e-01</leafValues></_>
    <_>
      <internalNodes>
        0 -1 337581 -9.7031611949205399e-04</internalNodes>
      <leafValues>
        -2.4217455089092255e-01 1.6710758209228516e-01</leafValues></_>
    <_>
      <internalNodes>
        0 -1 235504 1.1416218476369977e-03</internalNodes>
      <leafValues>
        5.5092662572860718e-02 -7.1435070037841797e-01</leafValues></_>
    <_>
      <internalNodes>
        0 -1 105004 1.4809167012572289e-02</internalNodes>
      <leafValues>
        -6.0473717749118805e-02 7.5905776023864746e-01</leafValues></_>
    <_>
      <internalNodes>
        0 -1 322690 1.6015830915421247e-03</internalNodes>
      <leafValues>
        8.9859679341316223e-02 -4.7064888477325439e-01</leafValues></_>
    <_>
      <internalNodes>
        0 -1 257042 1.2442788109183311e-02</internalNodes>
      <leafValues>
        -1.1470573395490646e-01 3.4784474968910217e-01</leafValues></_>
    <_>
      <internalNodes>
        0 -1 235116 1.2662911321967840e-03</internalNodes>
      <leafValues>
        6.7833647131919861e-02 -6.0587757825851440e-01</leafValues></_>
    <_>
      <internalNodes>
        0 -1 329876 -8.8400803506374359e-03</internalNodes>
      <leafValues>
        4.9388131499290466e-01 -7.8024096786975861e-02</leafValues></_>
    <_>
      <internalNodes>
        0 -1 378623 -1.2908913195133209e-03</internalNodes>
      <leafValues>
        -3.8024687767028809e-01 1.0624469071626663e-01</leafValues></_>
    <_>
      <internalNodes>
        0 -1 255356 -1.5766590368002653e-03</internalNodes>
      <leafValues>
        2.7280688285827637e-01 -1.5383617579936981e-01</leafValues></_>
    <_>
      <internalNodes>
        0 -1 199870 1.1137256398797035e-02</internalNodes>
      <leafValues>
        -9.5091037452220917e-02 4.1169056296348572e-01</leafValues></_>
    <_>
      <internalNodes>
        0 -1 268833 3.6216527223587036e-02</internalNodes>
      <leafValues>
        -4.1795764118432999e-02 9.2558509111404419e-01</leafValues></_>
    <_>
      <internalNodes>
        0 -1 267038 1.0657089296728373e-03</internalNodes>
      <leafValues>
        1.2659345567226410e-01 -3.1076267361640930e-01</leafValues></_>
    <_>
      <internalNodes>
        0 -1 394251 1.1131610721349716e-02</internalNodes>
      <leafValues>
        6.3366584479808807e-02 -5.9912133216857910e-01</leafValues></_>
    <_>
      <internalNodes>
        0 -1 133096 1.3886115048080683e-03</internalNodes>
      <leafValues>
        6.4465075731277466e-02 -5.3262120485305786e-01</leafValues></_>
    <_>
      <internalNodes>
        0 -1 310394 6.9990251213312149e-03</internalNodes>
      <leafValues>
        4.3765746057033539e-02 -7.7730596065521240e-01</leafValues></_></weakClassifiers></stage3>
</opencv_storage>
