<?xml version="1.0"?>
<opencv_storage>
<stage3>
  <maxWeakCount>7</maxWeakCount>
  <stageThreshold>-8.4743320941925049e-01</stageThreshold>
  <weakClassifiers>
    <_>
      <internalNodes>
        0 -1 356073 2.3742927238345146e-02</internalNodes>
      <leafValues>
        -3.8964578509330750e-01 8.3114445209503174e-01</leafValues></_>
    <_>
      <internalNodes>
        0 -1 91521 1.9155934453010559e-02</internalNodes>
      <leafValues>
        -5.6399244070053101e-01 6.3660711050033569e-01</leafValues></_>
    <_>
      <internalNodes>
        0 -1 267287 -7.8596072271466255e-03</internalNodes>
      <leafValues>
        6.9799870252609253e-01 -3.3392325043678284e-01</leafValues></_>
    <_>
      <internalNodes>
        0 -1 258809 -1.2373300269246101e-03</internalNodes>
      <leafValues>
        2.8091853857040405e-01 -8.6562043428421021e-01</leafValues></_>
    <_>
      <internalNodes>
        0 -1 12450 9.2754349112510681e-02</internalNodes>
      <leafValues>
        -4.2069029808044434e-01 5.6937915086746216e-01</leafValues></_>
    <_>
      <internalNodes>
        0 -1 277375 -3.6520897410809994e-03</internalNodes>
      <leafValues>
        3.2484912872314453e-01 -7.8951358795166016e-01</leafValues></_>
    <_>
      <internalNodes>
        0 -1 153532 -5.5259715765714645e-02</internalNodes>
      <leafValues>
        2.8822141885757446e-01 -6.5257775783538818e-01</leafValues></_></weakClassifiers></stage3>
</opencv_storage>
