<?xml version="1.0"?>
<opencv_storage>
<stage2>
  <maxWeakCount>5</maxWeakCount>
  <stageThreshold>-7.4001765251159668e-01</stageThreshold>
  <weakClassifiers>
    <_>
      <internalNodes>
        0 -1 16922 6.1508622020483017e-02</internalNodes>
      <leafValues>
        -5.2420186996459961e-01 8.1492191553115845e-01</leafValues></_>
    <_>
      <internalNodes>
        0 -1 337257 5.4542154073715210e-02</internalNodes>
      <leafValues>
        -4.3467146158218384e-01 7.9998743534088135e-01</leafValues></_>
    <_>
      <internalNodes>
        0 -1 173084 -1.3408593833446503e-02</internalNodes>
      <leafValues>
        3.4414741396903992e-01 -9.7617512941360474e-01</leafValues></_>
    <_>
      <internalNodes>
        0 -1 155805 3.6030998453497887e-03</internalNodes>
      <leafValues>
        -6.1719667911529541e-01 3.5127028822898865e-01</leafValues></_>
    <_>
      <internalNodes>
        0 -1 293398 -2.0423587411642075e-02</internalNodes>
      <leafValues>
        4.9631950259208679e-01 -4.7656205296516418e-01</leafValues></_></weakClassifiers></stage2>
</opencv_storage>
