<?xml version="1.0"?>
<opencv_storage>
<stage9>
  <maxWeakCount>9</maxWeakCount>
  <stageThreshold>-9.9322527647018433e-01</stageThreshold>
  <weakClassifiers>
    <_>
      <internalNodes>
        0 -1 109011 -3.1685918569564819e-02</internalNodes>
      <leafValues>
        -7.4803149700164795e-01 5.1099610328674316e-01</leafValues></_>
    <_>
      <internalNodes>
        0 -1 67152 8.7565034627914429e-03</internalNodes>
      <leafValues>
        -4.1090768575668335e-01 4.9161958694458008e-01</leafValues></_>
    <_>
      <internalNodes>
        0 -1 291040 9.5987168606370687e-04</internalNodes>
      <leafValues>
        -5.0707167387008667e-01 3.7432831525802612e-01</leafValues></_>
    <_>
      <internalNodes>
        0 -1 242881 -3.1506859231740236e-03</internalNodes>
      <leafValues>
        1.8433655798435211e-01 -7.5046128034591675e-01</leafValues></_>
    <_>
      <internalNodes>
        0 -1 209822 -9.6447858959436417e-03</internalNodes>
      <leafValues>
        -8.1799262762069702e-01 1.6780674457550049e-01</leafValues></_>
    <_>
      <internalNodes>
        0 -1 337939 -4.2630424723029137e-03</internalNodes>
      <leafValues>
        6.0445678234100342e-01 -2.8154021501541138e-01</leafValues></_>
    <_>
      <internalNodes>
        0 -1 302205 8.7118141353130341e-02</internalNodes>
      <leafValues>
        -4.8117414116859436e-01 3.6385247111320496e-01</leafValues></_>
    <_>
      <internalNodes>
        0 -1 173079 3.0140312388539314e-02</internalNodes>
      <leafValues>
        2.1341046690940857e-01 -8.6219853162765503e-01</leafValues></_>
    <_>
      <internalNodes>
        0 -1 301336 -9.7592431120574474e-04</internalNodes>
      <leafValues>
        5.5655497312545776e-01 -2.9931017756462097e-01</leafValues></_></weakClassifiers></stage9>
</opencv_storage>
