<?xml version="1.0"?>
<opencv_storage>
<stage2>
  <maxWeakCount>50</maxWeakCount>
  <stageThreshold>-6.3731461763381958e-01</stageThreshold>
  <weakClassifiers>
    <_>
      <internalNodes>
        0 -1 249715 -1.6302871517837048e-03</internalNodes>
      <leafValues>
        5.8753436803817749e-01 1.6096954047679901e-01</leafValues></_>
    <_>
      <internalNodes>
        0 -1 290494 -1.3733782107010484e-03</internalNodes>
      <leafValues>
        2.2952952980995178e-01 -1.4812596142292023e-01</leafValues></_>
    <_>
      <internalNodes>
        0 -1 278550 3.7784283631481230e-04</internalNodes>
      <leafValues>
        -1.3514970242977142e-01 2.1264979243278503e-01</leafValues></_>
    <_>
      <internalNodes>
        0 -1 232725 1.7930183559656143e-02</internalNodes>
      <leafValues>
        4.6661105006933212e-02 -7.0492160320281982e-01</leafValues></_>
    <_>
      <internalNodes>
        0 -1 290980 -7.3518685530871153e-04</internalNodes>
      <leafValues>
        2.3253431916236877e-01 -1.5363991260528564e-01</leafValues></_>
    <_>
      <internalNodes>
        0 -1 304533 -1.3000591425225139e-03</internalNodes>
      <leafValues>
        2.1453499794006348e-01 -1.8815521895885468e-01</leafValues></_>
    <_>
      <internalNodes>
        0 -1 317024 -4.9655586481094360e-03</internalNodes>
      <leafValues>
        -7.0444923639297485e-01 5.3322080522775650e-02</leafValues></_>
    <_>
      <internalNodes>
        0 -1 306062 7.9229462426155806e-04</internalNodes>
      <leafValues>
        -1.2734301388263702e-01 2.7235865592956543e-01</leafValues></_>
    <_>
      <internalNodes>
        0 -1 301953 -4.1093155741691589e-03</internalNodes>
      <leafValues>
        2.9850167036056519e-01 -1.0615684092044830e-01</leafValues></_>
    <_>
      <internalNodes>
        0 -1 358079 1.9366522319614887e-03</internalNodes>
      <leafValues>
        4.2012527585029602e-02 -5.9997093677520752e-01</leafValues></_>
    <_>
      <internalNodes>
        0 -1 315210 -2.5549591518938541e-03</internalNodes>
      <leafValues>
        -8.5994708538055420e-01 2.8072237968444824e-02</leafValues></_>
    <_>
      <internalNodes>
        0 -1 264077 6.1448983615264297e-04</internalNodes>
      <leafValues>
        -1.1762271821498871e-01 2.2507557272911072e-01</leafValues></_>
    <_>
      <internalNodes>
        0 -1 291951 7.2464148979634047e-04</internalNodes>
      <leafValues>
        -1.0332208126783371e-01 2.8859016299247742e-01</leafValues></_>
    <_>
      <internalNodes>
        0 -1 45561 -1.3817954808473587e-02</internalNodes>
      <leafValues>
        -6.1566245555877686e-01 4.5605506747961044e-02</leafValues></_>
    <_>
      <internalNodes>
        0 -1 40944 -1.8437501043081284e-02</internalNodes>
      <leafValues>
        3.3609315752983093e-01 -8.0557473003864288e-02</leafValues></_>
    <_>
      <internalNodes>
        0 -1 91461 2.2920630872249603e-03</internalNodes>
      <leafValues>
        -1.2651681900024414e-01 2.1257309615612030e-01</leafValues></_>
    <_>
      <internalNodes>
        0 -1 234586 1.3009215472266078e-03</internalNodes>
      <leafValues>
        7.9045541584491730e-02 -3.8599827885627747e-01</leafValues></_>
    <_>
      <internalNodes>
        0 -1 382499 3.8109370507299900e-04</internalNodes>
      <leafValues>
        -1.3076643645763397e-01 2.2688853740692139e-01</leafValues></_>
    <_>
      <internalNodes>
        0 -1 290560 1.2518407776951790e-02</internalNodes>
      <leafValues>
        4.9521371722221375e-02 -5.0780999660491943e-01</leafValues></_>
    <_>
      <internalNodes>
        0 -1 262289 1.4694659039378166e-03</internalNodes>
      <leafValues>
        -1.4886163175106049e-01 1.7576944828033447e-01</leafValues></_>
    <_>
      <internalNodes>
        0 -1 228957 -5.1087085157632828e-03</internalNodes>
      <leafValues>
        -5.4707211256027222e-01 5.1117360591888428e-02</leafValues></_>
    <_>
      <internalNodes>
        0 -1 153491 9.9285207688808441e-03</internalNodes>
      <leafValues>
        -8.0120302736759186e-02 3.6206606030464172e-01</leafValues></_>
    <_>
      <internalNodes>
        0 -1 247259 3.2222963636741042e-04</internalNodes>
      <leafValues>
        -1.0171765834093094e-01 2.5815072655677795e-01</leafValues></_>
    <_>
      <internalNodes>
        0 -1 162253 -9.9900236818939447e-04</internalNodes>
      <leafValues>
        -4.8054528236389160e-01 5.2485860884189606e-02</leafValues></_>
    <_>
      <internalNodes>
        0 -1 156122 -4.4054258614778519e-03</internalNodes>
      <leafValues>
        3.8704401254653931e-01 -7.1452252566814423e-02</leafValues></_>
    <_>
      <internalNodes>
        0 -1 305351 5.3636385127902031e-03</internalNodes>
      <leafValues>
        4.7286257147789001e-02 -6.3404262065887451e-01</leafValues></_>
    <_>
      <internalNodes>
        0 -1 392906 -6.9596618413925171e-04</internalNodes>
      <leafValues>
        -3.8228228688240051e-01 5.7423107326030731e-02</leafValues></_>
    <_>
      <internalNodes>
        0 -1 278735 7.2840512730181217e-03</internalNodes>
      <leafValues>
        4.2224727571010590e-02 -6.1350619792938232e-01</leafValues></_>
    <_>
      <internalNodes>
        0 -1 153160 2.0973472855985165e-03</internalNodes>
      <leafValues>
        5.8779384940862656e-02 -4.3407458066940308e-01</leafValues></_>
    <_>
      <internalNodes>
        0 -1 293544 2.1995473071001470e-04</internalNodes>
      <leafValues>
        -1.2805834412574768e-01 2.0502422749996185e-01</leafValues></_>
    <_>
      <internalNodes>
        0 -1 293224 -1.6564577817916870e-03</internalNodes>
      <leafValues>
        3.9479711651802063e-01 -7.1498148143291473e-02</leafValues></_>
    <_>
      <internalNodes>
        0 -1 123295 -2.6298971846699715e-02</internalNodes>
      <leafValues>
        2.9302427172660828e-01 -9.6310332417488098e-02</leafValues></_>
    <_>
      <internalNodes>
        0 -1 277619 2.0391193684190512e-03</internalNodes>
      <leafValues>
        -9.4860374927520752e-02 2.6494807004928589e-01</leafValues></_>
    <_>
      <internalNodes>
        0 -1 276547 -1.3813218101859093e-03</internalNodes>
      <leafValues>
        2.5947996973991394e-01 -1.0823769867420197e-01</leafValues></_>
    <_>
      <internalNodes>
        0 -1 366107 4.3138972250744700e-04</internalNodes>
      <leafValues>
        8.2142584025859833e-02 -3.0809041857719421e-01</leafValues></_>
    <_>
      <internalNodes>
        0 -1 110433 -1.5508567448705435e-03</internalNodes>
      <leafValues>
        2.1659316122531891e-01 -1.1508173495531082e-01</leafValues></_>
    <_>
      <internalNodes>
        0 -1 347705 5.2965804934501648e-04</internalNodes>
      <leafValues>
        -1.1561267822980881e-01 2.2119623422622681e-01</leafValues></_>
    <_>
      <internalNodes>
        0 -1 381542 -1.9325834000483155e-04</internalNodes>
      <leafValues>
        2.1326133608818054e-01 -1.2597422301769257e-01</leafValues></_>
    <_>
      <internalNodes>
        0 -1 215870 4.9795338418334723e-04</internalNodes>
      <leafValues>
        -1.2210359424352646e-01 2.1375007927417755e-01</leafValues></_>
    <_>
      <internalNodes>
        0 -1 45287 -1.4593626838177443e-03</internalNodes>
      <leafValues>
        -6.2994921207427979e-01 3.9311990141868591e-02</leafValues></_>
    <_>
      <internalNodes>
        0 -1 317163 3.4430604428052902e-02</internalNodes>
      <leafValues>
        3.1677573919296265e-02 -6.5222209692001343e-01</leafValues></_>
    <_>
      <internalNodes>
        0 -1 294183 1.2037020642310381e-03</internalNodes>
      <leafValues>
        -8.6587667465209961e-02 2.9014331102371216e-01</leafValues></_>
    <_>
      <internalNodes>
        0 -1 250420 -4.2605760972946882e-04</internalNodes>
      <leafValues>
        2.1785339713096619e-01 -1.2256710976362228e-01</leafValues></_>
    <_>
      <internalNodes>
        0 -1 305331 1.7295493744313717e-03</internalNodes>
      <leafValues>
        3.9483595639467239e-02 -7.3397839069366455e-01</leafValues></_>
    <_>
      <internalNodes>
        0 -1 280052 2.6116215158253908e-03</internalNodes>
      <leafValues>
        2.4790637195110321e-02 -8.0981111526489258e-01</leafValues></_>
    <_>
      <internalNodes>
        0 -1 93744 1.4752281829714775e-02</internalNodes>
      <leafValues>
        3.6962386220693588e-02 -5.5454891920089722e-01</leafValues></_>
    <_>
      <internalNodes>
        0 -1 214612 -6.1539616435766220e-02</internalNodes>
      <leafValues>
        -7.0432937145233154e-01 3.1496997922658920e-02</leafValues></_>
    <_>
      <internalNodes>
        0 -1 215340 4.0804140735417604e-04</internalNodes>
      <leafValues>
        -1.2991027534008026e-01 2.1698656678199768e-01</leafValues></_>
    <_>
      <internalNodes>
        0 -1 136532 8.0747045576572418e-03</internalNodes>
      <leafValues>
        4.6972725540399551e-02 -5.4679995775222778e-01</leafValues></_>
    <_>
      <internalNodes>
        0 -1 319655 -9.1697007883340120e-04</internalNodes>
      <leafValues>
        -3.5197949409484863e-01 6.7361123859882355e-02</leafValues></_></weakClassifiers></stage2>
</opencv_storage>
