<?xml version="1.0"?>
<opencv_storage>
<stage13>
  <maxWeakCount>11</maxWeakCount>
  <stageThreshold>-1.0536562204360962e+00</stageThreshold>
  <weakClassifiers>
    <_>
      <internalNodes>
        0 -1 374338 1.1988721787929535e-02</internalNodes>
      <leafValues>
        -4.4268077611923218e-01 5.3961557149887085e-01</leafValues></_>
    <_>
      <internalNodes>
        0 -1 218705 -5.0025442615151405e-03</internalNodes>
      <leafValues>
        5.6903594732284546e-01 -2.9948878288269043e-01</leafValues></_>
    <_>
      <internalNodes>
        0 -1 326968 -3.4937504678964615e-03</internalNodes>
      <leafValues>
        4.6827855706214905e-01 -3.3328682184219360e-01</leafValues></_>
    <_>
      <internalNodes>
        0 -1 257140 -1.3665447942912579e-02</internalNodes>
      <leafValues>
        1.7504052817821503e-01 -9.2048782110214233e-01</leafValues></_>
    <_>
      <internalNodes>
        0 -1 161399 -4.6238191425800323e-03</internalNodes>
      <leafValues>
        3.7212836742401123e-01 -3.8635256886482239e-01</leafValues></_>
    <_>
      <internalNodes>
        0 -1 267821 1.6842404380440712e-02</internalNodes>
      <leafValues>
        -2.1757537126541138e-01 6.9377547502517700e-01</leafValues></_>
    <_>
      <internalNodes>
        0 -1 240211 5.1531225442886353e-02</internalNodes>
      <leafValues>
        1.6046836972236633e-01 -9.2928838729858398e-01</leafValues></_>
    <_>
      <internalNodes>
        0 -1 196737 -6.1192563734948635e-03</internalNodes>
      <leafValues>
        2.6395052671432495e-01 -5.1917743682861328e-01</leafValues></_>
    <_>
      <internalNodes>
        0 -1 171783 -1.9787736237049103e-03</internalNodes>
      <leafValues>
        1.5194608271121979e-01 -8.7437272071838379e-01</leafValues></_>
    <_>
      <internalNodes>
        0 -1 235611 1.1507759802043438e-02</internalNodes>
      <leafValues>
        -3.2431143522262573e-01 4.7941902279853821e-01</leafValues></_>
    <_>
      <internalNodes>
        0 -1 293030 7.1661290712654591e-04</internalNodes>
      <leafValues>
        -8.3456391096115112e-01 1.8019664287567139e-01</leafValues></_></weakClassifiers></stage13>
</opencv_storage>
