<?xml version="1.0"?>
<opencv_storage>
<stage8>
  <maxWeakCount>9</maxWeakCount>
  <stageThreshold>-1.2707487344741821e+00</stageThreshold>
  <weakClassifiers>
    <_>
      <internalNodes>
        0 -1 149181 7.6516708359122276e-03</internalNodes>
      <leafValues>
        -5.5258762836456299e-01 5.8591145277023315e-01</leafValues></_>
    <_>
      <internalNodes>
        0 -1 370451 8.0042821355164051e-04</internalNodes>
      <leafValues>
        -5.8933967351913452e-01 3.8651075959205627e-01</leafValues></_>
    <_>
      <internalNodes>
        0 -1 257959 -2.9669760260730982e-03</internalNodes>
      <leafValues>
        3.1819623708724976e-01 -6.6970252990722656e-01</leafValues></_>
    <_>
      <internalNodes>
        0 -1 257061 -1.8496297299861908e-02</internalNodes>
      <leafValues>
        -7.9983443021774292e-01 2.0316566526889801e-01</leafValues></_>
    <_>
      <internalNodes>
        0 -1 278828 -2.2605720907449722e-02</internalNodes>
      <leafValues>
        2.5242841243743896e-01 -6.3095325231552124e-01</leafValues></_>
    <_>
      <internalNodes>
        0 -1 236569 2.2774709388613701e-02</internalNodes>
      <leafValues>
        -3.1141781806945801e-01 6.0507339239120483e-01</leafValues></_>
    <_>
      <internalNodes>
        0 -1 175614 1.5596725279465318e-04</internalNodes>
      <leafValues>
        -6.5899837017059326e-01 2.1579997241497040e-01</leafValues></_>
    <_>
      <internalNodes>
        0 -1 251826 -2.6532134506851435e-03</internalNodes>
      <leafValues>
        4.3034121394157410e-01 -3.6113634705543518e-01</leafValues></_>
    <_>
      <internalNodes>
        0 -1 154600 7.8272037208080292e-03</internalNodes>
      <leafValues>
        1.8587166070938110e-01 -7.8214812278747559e-01</leafValues></_></weakClassifiers></stage8>
</opencv_storage>
