<?xml version="1.0"?>
<opencv_storage>
<stage4>
  <maxWeakCount>8</maxWeakCount>
  <stageThreshold>-1.2063989639282227e+00</stageThreshold>
  <weakClassifiers>
    <_>
      <internalNodes>
        0 -1 165086 2.6450674980878830e-02</internalNodes>
      <leafValues>
        -5.0368547439575195e-01 6.9459170103073120e-01</leafValues></_>
    <_>
      <internalNodes>
        0 -1 346719 2.0118039101362228e-02</internalNodes>
      <leafValues>
        -5.7928514480590820e-01 5.3158342838287354e-01</leafValues></_>
    <_>
      <internalNodes>
        0 -1 280912 1.6360051231458783e-03</internalNodes>
      <leafValues>
        -5.4504108428955078e-01 4.6801999211311340e-01</leafValues></_>
    <_>
      <internalNodes>
        0 -1 205111 8.9957844465970993e-03</internalNodes>
      <leafValues>
        -9.3519616127014160e-01 2.6253250241279602e-01</leafValues></_>
    <_>
      <internalNodes>
        0 -1 2291 1.2637692689895630e-01</internalNodes>
      <leafValues>
        -4.1221451759338379e-01 5.1038575172424316e-01</leafValues></_>
    <_>
      <internalNodes>
        0 -1 262742 -1.6240073600783944e-03</internalNodes>
      <leafValues>
        2.4816916882991791e-01 -7.9291546344757080e-01</leafValues></_>
    <_>
      <internalNodes>
        0 -1 110310 -6.7605800926685333e-02</internalNodes>
      <leafValues>
        -9.2308032512664795e-01 1.6964097321033478e-01</leafValues></_>
    <_>
      <internalNodes>
        0 -1 264837 -1.3332159724086523e-03</internalNodes>
      <leafValues>
        -8.8380795717239380e-01 1.8150813877582550e-01</leafValues></_></weakClassifiers></stage4>
</opencv_storage>
