<?xml version="1.0"?>
<opencv_storage>
<stage0>
  <maxWeakCount>8</maxWeakCount>
  <stageThreshold>-9.6359622478485107e-01</stageThreshold>
  <weakClassifiers>
    <_>
      <internalNodes>
        0 -1 252464 1.8205827102065086e-02</internalNodes>
      <leafValues>
        -3.9526066184043884e-01 8.0060791969299316e-01</leafValues></_>
    <_>
      <internalNodes>
        0 -1 280485 1.4120160602033138e-02</internalNodes>
      <leafValues>
        -3.7439033389091492e-01 7.4961739778518677e-01</leafValues></_>
    <_>
      <internalNodes>
        0 -1 253373 3.1344577670097351e-02</internalNodes>
      <leafValues>
        -1.4649605751037598e-01 8.7395220994949341e-01</leafValues></_>
    <_>
      <internalNodes>
        0 -1 235071 -7.9816030338406563e-03</internalNodes>
      <leafValues>
        5.4109960794448853e-01 -2.8561285138130188e-01</leafValues></_>
    <_>
      <internalNodes>
        0 -1 119568 3.2060582190752029e-02</internalNodes>
      <leafValues>
        -3.0873480439186096e-01 5.2996581792831421e-01</leafValues></_>
    <_>
      <internalNodes>
        0 -1 224660 2.8522901702672243e-03</internalNodes>
      <leafValues>
        -2.3120900988578796e-01 4.6221774816513062e-01</leafValues></_>
    <_>
      <internalNodes>
        0 -1 285241 -3.9782267995178699e-03</internalNodes>
      <leafValues>
        6.6539782285690308e-01 -1.7109152674674988e-01</leafValues></_>
    <_>
      <internalNodes>
        0 -1 190446 -1.1105551384389400e-03</internalNodes>
      <leafValues>
        2.5577232241630554e-01 -4.2216208577156067e-01</leafValues></_></weakClassifiers></stage0>
</opencv_storage>
