<?xml version="1.0"?>
<opencv_storage>
<stage14>
  <maxWeakCount>73</maxWeakCount>
  <stageThreshold>-7.3423117399215698e-01</stageThreshold>
  <weakClassifiers>
    <_>
      <internalNodes>
        0 -1 282663 1.4287106692790985e-02</internalNodes>
      <leafValues>
        1.3665030896663666e-01 5.5380988121032715e-01</leafValues></_>
    <_>
      <internalNodes>
        0 -1 307055 4.4707633554935455e-02</internalNodes>
      <leafValues>
        -7.0079155266284943e-02 5.5251759290695190e-01</leafValues></_>
    <_>
      <internalNodes>
        0 -1 294889 2.1877247840166092e-02</internalNodes>
      <leafValues>
        -8.7783403694629669e-02 5.7662039995193481e-01</leafValues></_>
    <_>
      <internalNodes>
        0 -1 266774 4.6103075146675110e-03</internalNodes>
      <leafValues>
        -1.5308496356010437e-01 3.2178688049316406e-01</leafValues></_>
    <_>
      <internalNodes>
        0 -1 322764 1.5689846128225327e-02</internalNodes>
      <leafValues>
        -6.2622576951980591e-02 5.7099103927612305e-01</leafValues></_>
    <_>
      <internalNodes>
        0 -1 150269 4.9661123193800449e-03</internalNodes>
      <leafValues>
        -1.2470720708370209e-01 2.7211403846740723e-01</leafValues></_>
    <_>
      <internalNodes>
        0 -1 308908 7.7785244211554527e-03</internalNodes>
      <leafValues>
        -4.7891315072774887e-02 5.0562649965286255e-01</leafValues></_>
    <_>
      <internalNodes>
        0 -1 186890 6.9186056498438120e-04</internalNodes>
      <leafValues>
        -3.5244286060333252e-01 6.7606471478939056e-02</leafValues></_>
    <_>
      <internalNodes>
        0 -1 285848 2.5357138365507126e-03</internalNodes>
      <leafValues>
        4.1113778948783875e-02 -5.2443367242813110e-01</leafValues></_>
    <_>
      <internalNodes>
        0 -1 374156 1.3424907810986042e-02</internalNodes>
      <leafValues>
        4.0162231773138046e-02 -4.9519020318984985e-01</leafValues></_>
    <_>
      <internalNodes>
        0 -1 234557 -1.0914881713688374e-02</internalNodes>
      <leafValues>
        -4.2861837148666382e-01 5.2487220615148544e-02</leafValues></_>
    <_>
      <internalNodes>
        0 -1 99284 3.7048079073429108e-02</internalNodes>
      <leafValues>
        -1.9163818657398224e-01 1.0708113014698029e-01</leafValues></_>
    <_>
      <internalNodes>
        0 -1 225991 -2.5342856533825397e-03</internalNodes>
      <leafValues>
        2.2219686210155487e-01 -9.4822376966476440e-02</leafValues></_>
    <_>
      <internalNodes>
        0 -1 294925 -3.7517980672419071e-03</internalNodes>
      <leafValues>
        2.4703328311443329e-01 -9.8510622978210449e-02</leafValues></_>
    <_>
      <internalNodes>
        0 -1 234991 1.3570982962846756e-02</internalNodes>
      <leafValues>
        -6.4588427543640137e-02 3.4570282697677612e-01</leafValues></_>
    <_>
      <internalNodes>
        0 -1 349186 1.1412303894758224e-02</internalNodes>
      <leafValues>
        -4.9581389874219894e-02 4.6061643958091736e-01</leafValues></_>
    <_>
      <internalNodes>
        0 -1 330018 1.4785629464313388e-03</internalNodes>
      <leafValues>
        2.8405217453837395e-02 -8.2282543182373047e-01</leafValues></_>
    <_>
      <internalNodes>
        0 -1 118301 2.2548076231032610e-03</internalNodes>
      <leafValues>
        2.8484847396612167e-02 -6.4958846569061279e-01</leafValues></_>
    <_>
      <internalNodes>
        0 -1 344680 1.8280146643519402e-02</internalNodes>
      <leafValues>
        -4.6541955322027206e-02 5.1033699512481689e-01</leafValues></_>
    <_>
      <internalNodes>
        0 -1 281398 -3.2424582168459892e-03</internalNodes>
      <leafValues>
        -7.4165314435958862e-01 3.2190207391977310e-02</leafValues></_>
    <_>
      <internalNodes>
        0 -1 285067 -1.3615584466606379e-03</internalNodes>
      <leafValues>
        -5.8916479349136353e-01 3.1243318691849709e-02</leafValues></_>
    <_>
      <internalNodes>
        0 -1 351865 -6.2714526429772377e-03</internalNodes>
      <leafValues>
        5.4722118377685547e-01 -4.2314048856496811e-02</leafValues></_>
    <_>
      <internalNodes>
        0 -1 256177 -2.1693456918001175e-02</internalNodes>
      <leafValues>
        6.9094586372375488e-01 -2.6295345276594162e-02</leafValues></_>
    <_>
      <internalNodes>
        0 -1 235062 -1.0671353898942471e-02</internalNodes>
      <leafValues>
        1.0441058874130249e-01 -2.0825718343257904e-01</leafValues></_>
    <_>
      <internalNodes>
        0 -1 49671 6.2722312286496162e-03</internalNodes>
      <leafValues>
        2.5183565914630890e-02 -8.3809179067611694e-01</leafValues></_>
    <_>
      <internalNodes>
        0 -1 393367 1.8236069008708000e-03</internalNodes>
      <leafValues>
        5.0259094685316086e-02 -3.9175537228584290e-01</leafValues></_>
    <_>
      <internalNodes>
        0 -1 370228 -3.4249166492372751e-04</internalNodes>
      <leafValues>
        -1.4716452360153198e-01 1.4369651675224304e-01</leafValues></_>
    <_>
      <internalNodes>
        0 -1 286751 -1.8840577686205506e-03</internalNodes>
      <leafValues>
        2.4582718312740326e-01 -8.6148247122764587e-02</leafValues></_>
    <_>
      <internalNodes>
        0 -1 346937 1.3178271474316716e-03</internalNodes>
      <leafValues>
        -8.0175548791885376e-02 2.5516384840011597e-01</leafValues></_>
    <_>
      <internalNodes>
        0 -1 311085 3.7503945641219616e-03</internalNodes>
      <leafValues>
        4.9607574939727783e-02 -4.4777470827102661e-01</leafValues></_>
    <_>
      <internalNodes>
        0 -1 346570 -4.1620136471465230e-04</internalNodes>
      <leafValues>
        1.9603076577186584e-01 -1.1226762831211090e-01</leafValues></_>
    <_>
      <internalNodes>
        0 -1 377882 1.0642514564096928e-02</internalNodes>
      <leafValues>
        4.8387382179498672e-02 -4.3856182694435120e-01</leafValues></_>
    <_>
      <internalNodes>
        0 -1 297442 6.3245430588722229e-02</internalNodes>
      <leafValues>
        3.7613440304994583e-02 -5.4985654354095459e-01</leafValues></_>
    <_>
      <internalNodes>
        0 -1 346177 5.3732830565422773e-04</internalNodes>
      <leafValues>
        -6.6895581781864166e-02 3.0165359377861023e-01</leafValues></_>
    <_>
      <internalNodes>
        0 -1 285331 -4.2793090688064694e-04</internalNodes>
      <leafValues>
        9.0541705489158630e-02 -2.4436204135417938e-01</leafValues></_>
    <_>
      <internalNodes>
        0 -1 378626 -8.2406052388250828e-04</internalNodes>
      <leafValues>
        -1.9103319942951202e-01 1.1828441172838211e-01</leafValues></_>
    <_>
      <internalNodes>
        0 -1 301341 -6.9306581281125546e-04</internalNodes>
      <leafValues>
        -1.5358868241310120e-01 1.3690389692783356e-01</leafValues></_>
    <_>
      <internalNodes>
        0 -1 218686 2.0704835653305054e-02</internalNodes>
      <leafValues>
        3.8468878716230392e-02 -5.4216158390045166e-01</leafValues></_>
    <_>
      <internalNodes>
        0 -1 359093 4.5257685706019402e-03</internalNodes>
      <leafValues>
        7.6075971126556396e-02 -2.5122064352035522e-01</leafValues></_>
    <_>
      <internalNodes>
        0 -1 30058 3.0010175704956055e-01</internalNodes>
      <leafValues>
        3.3487115055322647e-02 -6.5903449058532715e-01</leafValues></_>
    <_>
      <internalNodes>
        0 -1 196197 -1.1195477098226547e-02</internalNodes>
      <leafValues>
        -2.4483741819858551e-01 7.7770225703716278e-02</leafValues></_>
    <_>
      <internalNodes>
        0 -1 179064 1.1367435008287430e-01</internalNodes>
      <leafValues>
        5.1508661359548569e-02 -4.5606082677841187e-01</leafValues></_>
    <_>
      <internalNodes>
        0 -1 266556 3.1812183558940887e-02</internalNodes>
      <leafValues>
        -8.4207311272621155e-02 2.7130913734436035e-01</leafValues></_>
    <_>
      <internalNodes>
        0 -1 251314 2.5592830032110214e-02</internalNodes>
      <leafValues>
        -6.8165630102157593e-02 3.5489577054977417e-01</leafValues></_>
    <_>
      <internalNodes>
        0 -1 348682 1.5947490930557251e-02</internalNodes>
      <leafValues>
        -8.3141483366489410e-02 3.1236517429351807e-01</leafValues></_>
    <_>
      <internalNodes>
        0 -1 281252 2.8454218991100788e-03</internalNodes>
      <leafValues>
        3.6516316235065460e-02 -6.6574150323867798e-01</leafValues></_>
    <_>
      <internalNodes>
        0 -1 392373 -5.2213051822036505e-04</internalNodes>
      <leafValues>
        -2.0421740412712097e-01 1.0244880616664886e-01</leafValues></_>
    <_>
      <internalNodes>
        0 -1 107358 2.0171583164483309e-03</internalNodes>
      <leafValues>
        4.5398373156785965e-02 -4.6149212121963501e-01</leafValues></_>
    <_>
      <internalNodes>
        0 -1 69908 -2.9679313302040100e-02</internalNodes>
      <leafValues>
        -4.5326894521713257e-01 4.5862179249525070e-02</leafValues></_>
    <_>
      <internalNodes>
        0 -1 234371 5.8480657637119293e-02</internalNodes>
      <leafValues>
        3.7503898143768311e-02 -5.3693407773971558e-01</leafValues></_>
    <_>
      <internalNodes>
        0 -1 224112 1.9844412803649902e-02</internalNodes>
      <leafValues>
        -4.2159099131822586e-02 5.6841623783111572e-01</leafValues></_>
    <_>
      <internalNodes>
        0 -1 229818 -2.7244049124419689e-03</internalNodes>
      <leafValues>
        -3.6250305175781250e-01 6.0229815542697906e-02</leafValues></_>
    <_>
      <internalNodes>
        0 -1 216310 -1.0361449094489217e-03</internalNodes>
      <leafValues>
        2.5185781717300415e-01 -8.3658449351787567e-02</leafValues></_>
    <_>
      <internalNodes>
        0 -1 303251 -4.6164228115230799e-04</internalNodes>
      <leafValues>
        -1.7460480332374573e-01 1.2277221679687500e-01</leafValues></_>
    <_>
      <internalNodes>
        0 -1 361469 -5.6489948183298111e-03</internalNodes>
      <leafValues>
        5.7102316617965698e-01 -3.6490987986326218e-02</leafValues></_>
    <_>
      <internalNodes>
        0 -1 270639 6.0902163386344910e-03</internalNodes>
      <leafValues>
        -6.7982070147991180e-02 2.9561987519264221e-01</leafValues></_>
    <_>
      <internalNodes>
        0 -1 241315 2.5829717051237822e-03</internalNodes>
      <leafValues>
        -1.5016968548297882e-01 1.7228324711322784e-01</leafValues></_>
    <_>
      <internalNodes>
        0 -1 381635 -2.3956425487995148e-02</internalNodes>
      <leafValues>
        4.5181936025619507e-01 -4.7161441296339035e-02</leafValues></_>
    <_>
      <internalNodes>
        0 -1 363242 1.1949211359024048e-02</internalNodes>
      <leafValues>
        3.9619803428649902e-02 -5.8245235681533813e-01</leafValues></_>
    <_>
      <internalNodes>
        0 -1 322796 5.8321761898696423e-03</internalNodes>
      <leafValues>
        6.0806464403867722e-02 -3.3911040425300598e-01</leafValues></_>
    <_>
      <internalNodes>
        0 -1 311961 1.0643215849995613e-02</internalNodes>
      <leafValues>
        -1.3500870764255524e-01 1.7356438934803009e-01</leafValues></_>
    <_>
      <internalNodes>
        0 -1 355262 -6.5900711342692375e-04</internalNodes>
      <leafValues>
        2.4878510832786560e-01 -8.8116459548473358e-02</leafValues></_>
    <_>
      <internalNodes>
        0 -1 123160 6.4230902353301644e-05</internalNodes>
      <leafValues>
        1.2205852568149567e-01 -1.5961061418056488e-01</leafValues></_>
    <_>
      <internalNodes>
        0 -1 178329 -1.3659306801855564e-02</internalNodes>
      <leafValues>
        -4.7068440914154053e-01 4.3461114168167114e-02</leafValues></_>
    <_>
      <internalNodes>
        0 -1 145940 -2.6868968270719051e-03</internalNodes>
      <leafValues>
        1.0233449935913086e-01 -2.0914867520332336e-01</leafValues></_>
    <_>
      <internalNodes>
        0 -1 241574 -2.5221048854291439e-03</internalNodes>
      <leafValues>
        -9.7327619791030884e-01 1.9899703562259674e-02</leafValues></_>
    <_>
      <internalNodes>
        0 -1 337168 -6.9865235127508640e-03</internalNodes>
      <leafValues>
        -2.5301390886306763e-01 7.5918629765510559e-02</leafValues></_>
    <_>
      <internalNodes>
        0 -1 356550 3.2064574770629406e-04</internalNodes>
      <leafValues>
        -1.1078723520040512e-01 1.8845534324645996e-01</leafValues></_>
    <_>
      <internalNodes>
        0 -1 48464 -3.2071697060018778e-03</internalNodes>
      <leafValues>
        -6.4246559143066406e-01 3.7424966692924500e-02</leafValues></_>
    <_>
      <internalNodes>
        0 -1 181784 2.8505434747785330e-03</internalNodes>
      <leafValues>
        8.4810748696327209e-02 -2.3504531383514404e-01</leafValues></_>
    <_>
      <internalNodes>
        0 -1 348246 -7.8533135820180178e-04</internalNodes>
      <leafValues>
        -2.7545535564422607e-01 7.1932822465896606e-02</leafValues></_>
    <_>
      <internalNodes>
        0 -1 168465 3.6081867292523384e-03</internalNodes>
      <leafValues>
        -9.3935266137123108e-02 2.2647882997989655e-01</leafValues></_>
    <_>
      <internalNodes>
        0 -1 52413 -1.6865141689777374e-02</internalNodes>
      <leafValues>
        2.5672844052314758e-01 -8.3813898265361786e-02</leafValues></_></weakClassifiers></stage14>
</opencv_storage>
