<?xml version="1.0"?>
<opencv_storage>
<stage13>
  <maxWeakCount>63</maxWeakCount>
  <stageThreshold>-7.4880903959274292e-01</stageThreshold>
  <weakClassifiers>
    <_>
      <internalNodes>
        0 -1 266208 4.7864206135272980e-02</internalNodes>
      <leafValues>
        2.0505049824714661e-01 6.8611109256744385e-01</leafValues></_>
    <_>
      <internalNodes>
        0 -1 285324 4.3464289046823978e-03</internalNodes>
      <leafValues>
        -1.2342716008424759e-01 3.2450851798057556e-01</leafValues></_>
    <_>
      <internalNodes>
        0 -1 251355 -4.2849043384194374e-03</internalNodes>
      <leafValues>
        2.5921329855918884e-01 -1.8088412284851074e-01</leafValues></_>
    <_>
      <internalNodes>
        0 -1 266793 4.5179396867752075e-02</internalNodes>
      <leafValues>
        -4.6347007155418396e-02 5.6912970542907715e-01</leafValues></_>
    <_>
      <internalNodes>
        0 -1 241370 6.6475425846874714e-03</internalNodes>
      <leafValues>
        -1.0667735338211060e-01 4.2498627305030823e-01</leafValues></_>
    <_>
      <internalNodes>
        0 -1 119187 1.4802813529968262e-02</internalNodes>
      <leafValues>
        -7.6433949172496796e-02 5.0480294227600098e-01</leafValues></_>
    <_>
      <internalNodes>
        0 -1 372350 -2.4186285736504942e-04</internalNodes>
      <leafValues>
        2.6405000686645508e-01 -1.5697558224201202e-01</leafValues></_>
    <_>
      <internalNodes>
        0 -1 281195 2.2839866578578949e-02</internalNodes>
      <leafValues>
        -4.6812176704406738e-02 6.5786182880401611e-01</leafValues></_>
    <_>
      <internalNodes>
        0 -1 220635 -2.7693167328834534e-02</internalNodes>
      <leafValues>
        4.2889469861984253e-01 -6.1852473765611649e-02</leafValues></_>
    <_>
      <internalNodes>
        0 -1 200117 1.6076520550996065e-03</internalNodes>
      <leafValues>
        -3.0545049905776978e-01 9.3919120728969574e-02</leafValues></_>
    <_>
      <internalNodes>
        0 -1 251358 -3.5015018656849861e-03</internalNodes>
      <leafValues>
        1.8678988516330719e-01 -1.7685589194297791e-01</leafValues></_>
    <_>
      <internalNodes>
        0 -1 82523 -7.0973513647913933e-03</internalNodes>
      <leafValues>
        1.1620519310235977e-01 -2.2695790231227875e-01</leafValues></_>
    <_>
      <internalNodes>
        0 -1 13809 1.0207613930106163e-02</internalNodes>
      <leafValues>
        -1.5804915130138397e-01 1.7201255261898041e-01</leafValues></_>
    <_>
      <internalNodes>
        0 -1 387529 -6.7618183791637421e-02</internalNodes>
      <leafValues>
        4.2438542842864990e-01 -5.6810092180967331e-02</leafValues></_>
    <_>
      <internalNodes>
        0 -1 345428 2.7459892444312572e-03</internalNodes>
      <leafValues>
        -1.0324291139841080e-01 2.2793690860271454e-01</leafValues></_>
    <_>
      <internalNodes>
        0 -1 35402 5.7819776237010956e-02</internalNodes>
      <leafValues>
        -3.6091290414333344e-02 7.2921776771545410e-01</leafValues></_>
    <_>
      <internalNodes>
        0 -1 49636 2.2166371345520020e-02</internalNodes>
      <leafValues>
        4.3209116905927658e-02 -6.3112783432006836e-01</leafValues></_>
    <_>
      <internalNodes>
        0 -1 172973 1.1163009703159332e-01</internalNodes>
      <leafValues>
        -4.6428281813859940e-02 5.4911702871322632e-01</leafValues></_>
    <_>
      <internalNodes>
        0 -1 47674 5.4660663008689880e-03</internalNodes>
      <leafValues>
        -2.3361232876777649e-01 1.1143637448549271e-01</leafValues></_>
    <_>
      <internalNodes>
        0 -1 349153 7.4005024507641792e-03</internalNodes>
      <leafValues>
        -4.3382257223129272e-02 6.1853772401809692e-01</leafValues></_>
    <_>
      <internalNodes>
        0 -1 10739 3.5158461332321167e-01</internalNodes>
      <leafValues>
        -3.7684377282857895e-02 5.9444683790206909e-01</leafValues></_>
    <_>
      <internalNodes>
        0 -1 91568 -1.9148843362927437e-02</internalNodes>
      <leafValues>
        4.9026873707771301e-01 -4.3666321784257889e-02</leafValues></_>
    <_>
      <internalNodes>
        0 -1 294500 -1.0890412377193570e-03</internalNodes>
      <leafValues>
        2.7187967300415039e-01 -7.9635530710220337e-02</leafValues></_>
    <_>
      <internalNodes>
        0 -1 235097 4.2898297309875488e-02</internalNodes>
      <leafValues>
        -7.5010411441326141e-02 3.2355892658233643e-01</leafValues></_>
    <_>
      <internalNodes>
        0 -1 266711 -8.3348993211984634e-03</internalNodes>
      <leafValues>
        3.3653369545936584e-01 -8.3361096680164337e-02</leafValues></_>
    <_>
      <internalNodes>
        0 -1 340944 2.9620174318552017e-03</internalNodes>
      <leafValues>
        3.4269563853740692e-02 -8.3038848638534546e-01</leafValues></_>
    <_>
      <internalNodes>
        0 -1 159392 2.9382944107055664e-02</internalNodes>
      <leafValues>
        -1.7430722713470459e-01 1.5250732004642487e-01</leafValues></_>
    <_>
      <internalNodes>
        0 -1 27447 -3.5225915908813477e-01</internalNodes>
      <leafValues>
        6.4854872226715088e-01 -3.2714210450649261e-02</leafValues></_>
    <_>
      <internalNodes>
        0 -1 330806 3.0365027487277985e-04</internalNodes>
      <leafValues>
        -1.9690318405628204e-01 1.2831199169158936e-01</leafValues></_>
    <_>
      <internalNodes>
        0 -1 282848 -4.3352125212550163e-03</internalNodes>
      <leafValues>
        2.0108541846275330e-01 -1.1412912607192993e-01</leafValues></_>
    <_>
      <internalNodes>
        0 -1 33448 -1.5788776800036430e-02</internalNodes>
      <leafValues>
        3.4458470344543457e-01 -8.7427541613578796e-02</leafValues></_>
    <_>
      <internalNodes>
        0 -1 311066 3.0356799252331257e-03</internalNodes>
      <leafValues>
        4.8603672534227371e-02 -5.3494799137115479e-01</leafValues></_>
    <_>
      <internalNodes>
        0 -1 250147 1.9991222769021988e-02</internalNodes>
      <leafValues>
        -4.7734402120113373e-02 5.1837217807769775e-01</leafValues></_>
    <_>
      <internalNodes>
        0 -1 119209 -5.3935302421450615e-03</internalNodes>
      <leafValues>
        2.8106695413589478e-01 -8.0825194716453552e-02</leafValues></_>
    <_>
      <internalNodes>
        0 -1 55630 -6.1980579048395157e-03</internalNodes>
      <leafValues>
        -3.1799241900444031e-01 7.3653474450111389e-02</leafValues></_>
    <_>
      <internalNodes>
        0 -1 59431 -1.5334951458498836e-03</internalNodes>
      <leafValues>
        -1.9630587100982666e-01 1.1353304237127304e-01</leafValues></_>
    <_>
      <internalNodes>
        0 -1 255746 6.8583535030484200e-03</internalNodes>
      <leafValues>
        -4.9944441765546799e-02 4.5059502124786377e-01</leafValues></_>
    <_>
      <internalNodes>
        0 -1 358346 1.2695819605141878e-03</internalNodes>
      <leafValues>
        3.6580476909875870e-02 -6.9865339994430542e-01</leafValues></_>
    <_>
      <internalNodes>
        0 -1 180524 8.9781302958726883e-03</internalNodes>
      <leafValues>
        -1.5094248950481415e-01 1.5662345290184021e-01</leafValues></_>
    <_>
      <internalNodes>
        0 -1 190212 -1.2807078659534454e-02</internalNodes>
      <leafValues>
        -7.3596364259719849e-01 2.8533836826682091e-02</leafValues></_>
    <_>
      <internalNodes>
        0 -1 198236 -1.0939957574009895e-03</internalNodes>
      <leafValues>
        3.1615710258483887e-01 -7.1335442364215851e-02</leafValues></_>
    <_>
      <internalNodes>
        0 -1 204747 4.6732854098081589e-02</internalNodes>
      <leafValues>
        -3.7363998591899872e-02 5.6418120861053467e-01</leafValues></_>
    <_>
      <internalNodes>
        0 -1 350460 3.8854934275150299e-02</internalNodes>
      <leafValues>
        3.4154638648033142e-02 -7.3893845081329346e-01</leafValues></_>
    <_>
      <internalNodes>
        0 -1 162874 1.0456988587975502e-02</internalNodes>
      <leafValues>
        -6.3765153288841248e-02 4.0037226676940918e-01</leafValues></_>
    <_>
      <internalNodes>
        0 -1 335101 1.0498792107682675e-04</internalNodes>
      <leafValues>
        -1.2771874666213989e-01 1.7025832831859589e-01</leafValues></_>
    <_>
      <internalNodes>
        0 -1 156931 -7.4279502034187317e-02</internalNodes>
      <leafValues>
        4.5269173383712769e-01 -4.9570776522159576e-02</leafValues></_>
    <_>
      <internalNodes>
        0 -1 65755 8.2209013402462006e-02</internalNodes>
      <leafValues>
        -3.2858643680810928e-02 6.1725270748138428e-01</leafValues></_>
    <_>
      <internalNodes>
        0 -1 340347 1.7303384840488434e-02</internalNodes>
      <leafValues>
        -4.1624750941991806e-02 5.1130914688110352e-01</leafValues></_>
    <_>
      <internalNodes>
        0 -1 354088 2.8450246900320053e-03</internalNodes>
      <leafValues>
        2.9945284128189087e-02 -8.3819305896759033e-01</leafValues></_>
    <_>
      <internalNodes>
        0 -1 141578 1.4817046001553535e-02</internalNodes>
      <leafValues>
        4.5405805110931396e-02 -4.1355976462364197e-01</leafValues></_>
    <_>
      <internalNodes>
        0 -1 367467 -3.7384622264653444e-03</internalNodes>
      <leafValues>
        3.6157906055450439e-01 -6.0235228389501572e-02</leafValues></_>
    <_>
      <internalNodes>
        0 -1 366627 -3.9767444832250476e-05</internalNodes>
      <leafValues>
        -1.5679734945297241e-01 1.4359125494956970e-01</leafValues></_>
    <_>
      <internalNodes>
        0 -1 294193 -1.1302982456982136e-03</internalNodes>
      <leafValues>
        -2.7771455049514771e-01 7.6617203652858734e-02</leafValues></_>
    <_>
      <internalNodes>
        0 -1 219077 -2.5395819102413952e-04</internalNodes>
      <leafValues>
        -2.3074598610401154e-01 1.0345751792192459e-01</leafValues></_>
    <_>
      <internalNodes>
        0 -1 242570 -1.8066196935251355e-04</internalNodes>
      <leafValues>
        1.5937562286853790e-01 -1.5850354731082916e-01</leafValues></_>
    <_>
      <internalNodes>
        0 -1 251959 5.4657282307744026e-03</internalNodes>
      <leafValues>
        3.7159997969865799e-02 -6.4412075281143188e-01</leafValues></_>
    <_>
      <internalNodes>
        0 -1 1089 -7.3783405125141144e-02</internalNodes>
      <leafValues>
        -4.9433875083923340e-01 4.1512131690979004e-02</leafValues></_>
    <_>
      <internalNodes>
        0 -1 377489 2.7840402908623219e-03</internalNodes>
      <leafValues>
        -1.1290347576141357e-01 2.0605589449405670e-01</leafValues></_>
    <_>
      <internalNodes>
        0 -1 281407 -3.4671765752136707e-03</internalNodes>
      <leafValues>
        -3.6852198839187622e-01 6.6543869674205780e-02</leafValues></_>
    <_>
      <internalNodes>
        0 -1 318269 -7.0319011807441711e-02</internalNodes>
      <leafValues>
        -7.2685480117797852e-01 2.7114404365420341e-02</leafValues></_>
    <_>
      <internalNodes>
        0 -1 294676 1.1538360267877579e-02</internalNodes>
      <leafValues>
        -7.8042827546596527e-02 2.8904566168785095e-01</leafValues></_>
    <_>
      <internalNodes>
        0 -1 330358 1.9691552734002471e-04</internalNodes>
      <leafValues>
        -1.4317908883094788e-01 1.6408348083496094e-01</leafValues></_>
    <_>
      <internalNodes>
        0 -1 51738 2.7448272332549095e-02</internalNodes>
      <leafValues>
        9.4681940972805023e-02 -2.4963253736495972e-01</leafValues></_></weakClassifiers></stage13>
</opencv_storage>
