<?xml version="1.0"?>
<opencv_storage>
<stage4>
  <maxWeakCount>69</maxWeakCount>
  <stageThreshold>-6.3395565748214722e-01</stageThreshold>
  <weakClassifiers>
    <_>
      <internalNodes>
        0 -1 279406 -1.8910608487203717e-03</internalNodes>
      <leafValues>
        5.6659621000289917e-01 2.0752565562725067e-01</leafValues></_>
    <_>
      <internalNodes>
        0 -1 250077 2.3685295600444078e-03</internalNodes>
      <leafValues>
        -4.0913425385951996e-02 4.8879903554916382e-01</leafValues></_>
    <_>
      <internalNodes>
        0 -1 216444 3.9547765627503395e-03</internalNodes>
      <leafValues>
        -8.5528977215290070e-02 3.6320883035659790e-01</leafValues></_>
    <_>
      <internalNodes>
        0 -1 305328 1.6869537066668272e-03</internalNodes>
      <leafValues>
        1.5798687934875488e-02 -7.9664260149002075e-01</leafValues></_>
    <_>
      <internalNodes>
        0 -1 278975 7.0715078618377447e-04</internalNodes>
      <leafValues>
        -1.1166984587907791e-01 2.2632274031639099e-01</leafValues></_>
    <_>
      <internalNodes>
        0 -1 264555 -5.7732383720576763e-03</internalNodes>
      <leafValues>
        -6.6052973270416260e-01 2.6723295450210571e-02</leafValues></_>
    <_>
      <internalNodes>
        0 -1 381094 -2.0532519556581974e-03</internalNodes>
      <leafValues>
        3.0809468030929565e-01 -7.6474614441394806e-02</leafValues></_>
    <_>
      <internalNodes>
        0 -1 300230 5.1799379289150238e-03</internalNodes>
      <leafValues>
        9.4616219401359558e-02 -2.4134339392185211e-01</leafValues></_>
    <_>
      <internalNodes>
        0 -1 278248 2.9413877055048943e-03</internalNodes>
      <leafValues>
        8.5577890276908875e-02 -2.7376645803451538e-01</leafValues></_>
    <_>
      <internalNodes>
        0 -1 263189 8.2301134243607521e-03</internalNodes>
      <leafValues>
        4.9788128584623337e-02 -4.9702736735343933e-01</leafValues></_>
    <_>
      <internalNodes>
        0 -1 317781 6.4429303165525198e-04</internalNodes>
      <leafValues>
        -1.0640180110931396e-01 2.3121897876262665e-01</leafValues></_>
    <_>
      <internalNodes>
        0 -1 317783 -1.0355749400332570e-03</internalNodes>
      <leafValues>
        2.7941554784774780e-01 -1.4588274061679840e-01</leafValues></_>
    <_>
      <internalNodes>
        0 -1 390289 7.6987984357401729e-04</internalNodes>
      <leafValues>
        6.1184771358966827e-02 -3.9525610208511353e-01</leafValues></_>
    <_>
      <internalNodes>
        0 -1 264213 -5.7888817973434925e-03</internalNodes>
      <leafValues>
        -8.2668620347976685e-01 3.0104653909802437e-02</leafValues></_>
    <_>
      <internalNodes>
        0 -1 56005 -1.5993553400039673e-01</internalNodes>
      <leafValues>
        8.4780943393707275e-01 -2.8529090806841850e-02</leafValues></_>
    <_>
      <internalNodes>
        0 -1 293991 -4.7056758776307106e-03</internalNodes>
      <leafValues>
        4.0669062733650208e-01 -5.0544578582048416e-02</leafValues></_>
    <_>
      <internalNodes>
        0 -1 263037 2.0791946444660425e-03</internalNodes>
      <leafValues>
        -6.8200126290321350e-02 2.9029405117034912e-01</leafValues></_>
    <_>
      <internalNodes>
        0 -1 214285 1.0946515947580338e-02</internalNodes>
      <leafValues>
        -5.3605735301971436e-02 3.9152845740318298e-01</leafValues></_>
    <_>
      <internalNodes>
        0 -1 315692 -1.5789744211360812e-03</internalNodes>
      <leafValues>
        -4.5964437723159790e-01 4.6044070273637772e-02</leafValues></_>
    <_>
      <internalNodes>
        0 -1 156543 1.2029963545501232e-03</internalNodes>
      <leafValues>
        -1.0080637782812119e-01 2.0958060026168823e-01</leafValues></_>
    <_>
      <internalNodes>
        0 -1 133171 3.3097746782004833e-03</internalNodes>
      <leafValues>
        -1.3845057785511017e-01 1.5356607735157013e-01</leafValues></_>
    <_>
      <internalNodes>
        0 -1 302588 -5.9872465208172798e-03</internalNodes>
      <leafValues>
        3.4727996587753296e-01 -5.5306676775217056e-02</leafValues></_>
    <_>
      <internalNodes>
        0 -1 228204 -1.6415142454206944e-03</internalNodes>
      <leafValues>
        -7.2009199857711792e-01 2.8547653928399086e-02</leafValues></_>
    <_>
      <internalNodes>
        0 -1 338608 2.9627018375322223e-04</internalNodes>
      <leafValues>
        -1.1141475290060043e-01 1.8788847327232361e-01</leafValues></_>
    <_>
      <internalNodes>
        0 -1 305838 2.2399979643523693e-03</internalNodes>
      <leafValues>
        -7.9692281782627106e-02 2.7543914318084717e-01</leafValues></_>
    <_>
      <internalNodes>
        0 -1 340481 -2.1069701761007309e-03</internalNodes>
      <leafValues>
        -5.9357553720474243e-01 3.5882022231817245e-02</leafValues></_>
    <_>
      <internalNodes>
        0 -1 317003 1.8158876337110996e-03</internalNodes>
      <leafValues>
        2.6787729933857918e-02 -7.6623433828353882e-01</leafValues></_>
    <_>
      <internalNodes>
        0 -1 293223 9.3955220654606819e-04</internalNodes>
      <leafValues>
        -1.0125711560249329e-01 2.2299580276012421e-01</leafValues></_>
    <_>
      <internalNodes>
        0 -1 157885 -1.7629620851948857e-03</internalNodes>
      <leafValues>
        -8.1524413824081421e-01 2.7912449091672897e-02</leafValues></_>
    <_>
      <internalNodes>
        0 -1 304352 -4.6641111373901367e-02</internalNodes>
      <leafValues>
        -5.5915719270706177e-01 3.3175677061080933e-02</leafValues></_>
    <_>
      <internalNodes>
        0 -1 306464 1.1312828864902258e-03</internalNodes>
      <leafValues>
        -8.8507987558841705e-02 2.3485618829727173e-01</leafValues></_>
    <_>
      <internalNodes>
        0 -1 113226 3.5454644821584225e-03</internalNodes>
      <leafValues>
        -1.1554843932390213e-01 1.9083331525325775e-01</leafValues></_>
    <_>
      <internalNodes>
        0 -1 329088 1.4294758439064026e-03</internalNodes>
      <leafValues>
        -8.3831168711185455e-02 2.5511047244071960e-01</leafValues></_>
    <_>
      <internalNodes>
        0 -1 372723 1.0548183927312493e-03</internalNodes>
      <leafValues>
        7.2580389678478241e-02 -3.2902893424034119e-01</leafValues></_>
    <_>
      <internalNodes>
        0 -1 338947 -2.0887358114123344e-03</internalNodes>
      <leafValues>
        -8.6400306224822998e-01 2.4148443713784218e-02</leafValues></_>
    <_>
      <internalNodes>
        0 -1 223944 2.0251175737939775e-04</internalNodes>
      <leafValues>
        9.4399437308311462e-02 -2.2422650456428528e-01</leafValues></_>
    <_>
      <internalNodes>
        0 -1 389537 -2.3530339822173119e-03</internalNodes>
      <leafValues>
        1.8504652380943298e-01 -1.1747466772794724e-01</leafValues></_>
    <_>
      <internalNodes>
        0 -1 231524 1.4786778483539820e-03</internalNodes>
      <leafValues>
        3.5195127129554749e-02 -6.3715744018554688e-01</leafValues></_>
    <_>
      <internalNodes>
        0 -1 386062 2.6255953125655651e-03</internalNodes>
      <leafValues>
        3.9701703935861588e-02 -5.2882629632949829e-01</leafValues></_>
    <_>
      <internalNodes>
        0 -1 370691 4.2152137029916048e-04</internalNodes>
      <leafValues>
        -9.7203940153121948e-02 2.3707751929759979e-01</leafValues></_>
    <_>
      <internalNodes>
        0 -1 378990 9.5854606479406357e-03</internalNodes>
      <leafValues>
        -9.5782585442066193e-02 2.2487631440162659e-01</leafValues></_>
    <_>
      <internalNodes>
        0 -1 291151 -7.0968521758913994e-03</internalNodes>
      <leafValues>
        -2.5712704658508301e-01 7.7276252210140228e-02</leafValues></_>
    <_>
      <internalNodes>
        0 -1 290495 -4.2081000283360481e-03</internalNodes>
      <leafValues>
        -3.4513813257217407e-01 5.7703483849763870e-02</leafValues></_>
    <_>
      <internalNodes>
        0 -1 230368 -8.5316383047029376e-04</internalNodes>
      <leafValues>
        2.5388780236244202e-01 -8.3589628338813782e-02</leafValues></_>
    <_>
      <internalNodes>
        0 -1 156652 -1.5616714954376221e-02</internalNodes>
      <leafValues>
        -4.2344012856483459e-01 5.0913650542497635e-02</leafValues></_>
    <_>
      <internalNodes>
        0 -1 238097 1.9318424165248871e-02</internalNodes>
      <leafValues>
        7.6440446078777313e-02 -2.6481437683105469e-01</leafValues></_>
    <_>
      <internalNodes>
        0 -1 228214 3.3749295398592949e-03</internalNodes>
      <leafValues>
        4.0866103023290634e-02 -4.9905848503112793e-01</leafValues></_>
    <_>
      <internalNodes>
        0 -1 337101 2.4018844123929739e-03</internalNodes>
      <leafValues>
        -9.0718463063240051e-02 2.4847418069839478e-01</leafValues></_>
    <_>
      <internalNodes>
        0 -1 319131 -1.6898352187126875e-03</internalNodes>
      <leafValues>
        -6.1489397287368774e-01 3.6805778741836548e-02</leafValues></_>
    <_>
      <internalNodes>
        0 -1 216374 1.4730885159224272e-03</internalNodes>
      <leafValues>
        -9.0234518051147461e-02 2.3503904044628143e-01</leafValues></_>
    <_>
      <internalNodes>
        0 -1 375996 -2.2915448062121868e-03</internalNodes>
      <leafValues>
        -6.1063808202743530e-01 3.6764901131391525e-02</leafValues></_>
    <_>
      <internalNodes>
        0 -1 154066 -3.8062860257923603e-03</internalNodes>
      <leafValues>
        -8.7362366914749146e-01 1.9243523478507996e-02</leafValues></_>
    <_>
      <internalNodes>
        0 -1 382426 4.1966391727328300e-03</internalNodes>
      <leafValues>
        3.5903140902519226e-02 -5.3493297100067139e-01</leafValues></_>
    <_>
      <internalNodes>
        0 -1 179255 -9.0125314891338348e-03</internalNodes>
      <leafValues>
        4.1404175758361816e-01 -5.6578245013952255e-02</leafValues></_>
    <_>
      <internalNodes>
        0 -1 267271 -2.8770798817276955e-03</internalNodes>
      <leafValues>
        -3.1577438116073608e-01 7.0850022137165070e-02</leafValues></_>
    <_>
      <internalNodes>
        0 -1 133032 1.5900679863989353e-03</internalNodes>
      <leafValues>
        3.9118345826864243e-02 -5.2599197626113892e-01</leafValues></_>
    <_>
      <internalNodes>
        0 -1 157262 -4.8047478776425123e-04</internalNodes>
      <leafValues>
        1.9628961384296417e-01 -1.1323370039463043e-01</leafValues></_>
    <_>
      <internalNodes>
        0 -1 294416 -1.5147451777011156e-03</internalNodes>
      <leafValues>
        -4.2832449078559875e-01 5.0471182912588120e-02</leafValues></_>
    <_>
      <internalNodes>
        0 -1 277597 4.0571618592366576e-04</internalNodes>
      <leafValues>
        -8.9152477681636810e-02 2.4955072999000549e-01</leafValues></_>
    <_>
      <internalNodes>
        0 -1 175696 2.1169218234717846e-03</internalNodes>
      <leafValues>
        -6.6613510251045227e-02 3.2195559144020081e-01</leafValues></_>
    <_>
      <internalNodes>
        0 -1 194688 -1.0455213487148285e-03</internalNodes>
      <leafValues>
        3.4196949005126953e-01 -6.5484769642353058e-02</leafValues></_>
    <_>
      <internalNodes>
        0 -1 158741 4.8631478101015091e-02</internalNodes>
      <leafValues>
        3.7309724837541580e-02 -6.3379359245300293e-01</leafValues></_>
    <_>
      <internalNodes>
        0 -1 293264 1.3440516777336597e-03</internalNodes>
      <leafValues>
        -9.5557473599910736e-02 2.3304671049118042e-01</leafValues></_>
    <_>
      <internalNodes>
        0 -1 306101 -6.8314705276861787e-04</internalNodes>
      <leafValues>
        2.5192701816558838e-01 -1.1319299042224884e-01</leafValues></_>
    <_>
      <internalNodes>
        0 -1 234879 2.2220127284526825e-03</internalNodes>
      <leafValues>
        6.1244837939739227e-02 -4.0853810310363770e-01</leafValues></_>
    <_>
      <internalNodes>
        0 -1 160589 3.7297178059816360e-03</internalNodes>
      <leafValues>
        3.8371969014406204e-02 -6.0271763801574707e-01</leafValues></_>
    <_>
      <internalNodes>
        0 -1 239976 -3.8763952907174826e-03</internalNodes>
      <leafValues>
        -5.1316756010055542e-01 4.2163822799921036e-02</leafValues></_>
    <_>
      <internalNodes>
        0 -1 136242 2.0059272646903992e-03</internalNodes>
      <leafValues>
        2.3830490186810493e-02 -8.6249577999114990e-01</leafValues></_>
    <_>
      <internalNodes>
        0 -1 178158 5.4952688515186310e-04</internalNodes>
      <leafValues>
        -9.8482064902782440e-02 2.4429050087928772e-01</leafValues></_></weakClassifiers></stage4>
</opencv_storage>
